//Numpy array shape [576, 256]
//Min -0.084920696914
//Max 0.084919705987
//Number of zeros 0

#ifndef W13_H_
#define W13_H_

#ifndef __SYNTHESIS__
dense_weight_t w13[147456];
#else
dense_weight_t w13[147456] = {0.0435844064, 0.0830770135, 0.0592839569, 0.0409446657, 0.0119497180, -0.0532001853, 0.0068534464, -0.0132822320, 0.0454977006, -0.0374833085, -0.0347359739, 0.0314785019, 0.0141398609, -0.0355293006, 0.0664192736, -0.0123063847, -0.0846776143, -0.0406319499, 0.0548336357, -0.0628502443, 0.0718944967, 0.0336840749, -0.0377985686, 0.0342083424, -0.0831479803, -0.0431715734, -0.0414016694, -0.0456301309, 0.0330395252, -0.0148642287, 0.0353536010, 0.0103386119, 0.0432496071, -0.0038858876, -0.0416926742, 0.0537523776, 0.0160168558, 0.0719378740, 0.0301174223, -0.0409907438, 0.0719953924, -0.0151232257, 0.0057067499, 0.0066667497, 0.0242712647, 0.0571558774, 0.0700984448, -0.0374689326, -0.0708981231, -0.0239978172, -0.0156597868, -0.0769072399, -0.0129990652, 0.0712476373, -0.0663478225, -0.0201192796, 0.0275901482, -0.0558662117, 0.0839631110, -0.0130325109, -0.0082947686, 0.0723948330, 0.0454179198, 0.0135699213, -0.0596062168, -0.0069004968, -0.0809580758, 0.0359307677, -0.0323079079, -0.0615785308, 0.0824083835, -0.0442879163, -0.0139457807, 0.0842012167, 0.0447610021, 0.0713864714, -0.0525479205, 0.0168543607, 0.0014149621, 0.0663067847, 0.0018490478, 0.0717907995, 0.0128613859, -0.0180815309, 0.0533505976, -0.0403549373, 0.0789066255, -0.0280167647, 0.0209255666, -0.0525818504, 0.0795723796, -0.0141327754, 0.0600951761, 0.0357990265, 0.0589584261, 0.0385179520, 0.0488635004, 0.0343296826, 0.0290233269, 0.0445769727, -0.0591781810, -0.0238530114, 0.0574728400, 0.0054717064, -0.0521930754, 0.0667344779, 0.0518758148, 0.0786788911, -0.0804174095, 0.0072043836, -0.0478989966, -0.0575707778, -0.0630465597, 0.0584627837, 0.0845637619, -0.0330788419, 0.0588991642, -0.0183791146, -0.0549460575, -0.0588709414, 0.0003632456, -0.0712996349, -0.0021950454, 0.0470677018, 0.0371929929, -0.0564447381, 0.0004509315, 0.0747014284, 0.0748379230, -0.0551565439, 0.0233736485, -0.0025527030, 0.0470490605, -0.0103807598, 0.0814900994, 0.0537459403, -0.0348126069, 0.0529279262, -0.0548911318, 0.0333106890, -0.0542279892, 0.0636231899, -0.0821991786, 0.0495902002, -0.0227745101, 0.0645037591, -0.0651766509, -0.0563459322, 0.0439242721, 0.0728991479, -0.0185775533, -0.0492838472, -0.0395808443, -0.0579050705, -0.0443553180, 0.0124389380, -0.0674042702, 0.0172121003, -0.0274801850, 0.0220583230, 0.0583182871, 0.0640971959, -0.0347044095, -0.0291929953, -0.0127103254, 0.0732899457, -0.0733663142, -0.0399080515, 0.0639258176, 0.0268698707, -0.0455582738, 0.0503172427, -0.0164885446, -0.0698092729, -0.0488891788, 0.0234632641, 0.0748594850, 0.0202821866, -0.0807054564, -0.0446177348, -0.0232997909, -0.0310725383, 0.0306531042, -0.0744232759, 0.0026106462, -0.0809704065, -0.0038219094, 0.0298154205, 0.0814806372, -0.0352811366, -0.0614004582, -0.0365554206, -0.0137862563, -0.0770954937, 0.0417680591, -0.0722071528, -0.0055758357, 0.0347632468, 0.0436245799, -0.0755815655, -0.0179748684, -0.0654130504, -0.0540921539, -0.0299266353, 0.0836291611, 0.0731489658, 0.0138646290, -0.0296057463, 0.0357067809, 0.0782171339, -0.0040868744, 0.0581241548, -0.0288305394, -0.0568458438, -0.0034613311, -0.0479490645, 0.0187462270, -0.0448908210, -0.0615522899, -0.0004097521, 0.0536462814, -0.0683671460, 0.0096157789, -0.0749741495, 0.0257569328, -0.0213807896, 0.0017501637, 0.0553290993, 0.0120151564, 0.0310101137, -0.0460070632, -0.0370791033, -0.0444578677, 0.0234354064, -0.0304224156, 0.0032109395, -0.0480620600, 0.0677631050, 0.0149886087, 0.0336687118, 0.0241897330, 0.0395827070, 0.0531042218, -0.0347672962, 0.0292927921, -0.0824723467, 0.0400425494, -0.0011556000, 0.0806569606, 0.0812192410, 0.0360487103, 0.0583285987, -0.0205568299, 0.0541231781, -0.0083031505, 0.0053504705, 0.0315912738, 0.0190742463, 0.0589524955, 0.0457306951, -0.0747774914, 0.0449451208, 0.0559352934, -0.0217977911, -0.0614082366, -0.0421066396, 0.0566583425, 0.0077570751, -0.0355817974, 0.0370266810, 0.0265072286, -0.0565451235, 0.0061218292, 0.0449053645, -0.0256426185, 0.0473926812, -0.0132437646, 0.0488967299, 0.0739473552, 0.0165501907, -0.0628244877, -0.0347642377, 0.0224451795, -0.0165406168, -0.0444467105, 0.0296595395, 0.0442918241, 0.0459195524, -0.0508561879, -0.0335508324, 0.0011925474, 0.0676860511, 0.0386739746, 0.0488215685, 0.0713802576, 0.0810223371, 0.0349217355, -0.0682571083, 0.0742364824, -0.0691006035, 0.0403298289, -0.0369218066, 0.0555483997, 0.0757436752, -0.0702709407, 0.0298179090, 0.0716098696, 0.0752449930, -0.0049658045, 0.0536701083, 0.0219077915, -0.0106060877, -0.0475441702, 0.0815962851, -0.0267177150, -0.0494778939, 0.0197017118, -0.0483471565, -0.0580420792, -0.0329747722, -0.0260414146, -0.0541546345, -0.0818331763, -0.0492026396, 0.0412140191, -0.0152379647, -0.0531663932, -0.0731090009, 0.0018565431, 0.0359723344, 0.0346122682, 0.0388753042, 0.0165720806, 0.0335878208, -0.0099255741, 0.0132634863, -0.0028293729, -0.0361377522, 0.0263842717, -0.0543012209, -0.0636462271, 0.0691066980, -0.0694712996, 0.0435146093, -0.0285073817, -0.0491648577, 0.0648166984, 0.0379419550, 0.0633782446, -0.0271020383, 0.0239093006, -0.0063554943, -0.0376492068, 0.0573522747, -0.0132359937, 0.0691369772, -0.0352649987, 0.0567171723, 0.0250653028, 0.0632570237, -0.0359745435, -0.0381078981, 0.0446866751, 0.0259669274, -0.0110771284, 0.0656423271, -0.0790612251, -0.0541012660, -0.0007294491, 0.0561767966, 0.0398862064, -0.0682587251, 0.0380459428, 0.0459473580, -0.0249300562, 0.0437611192, -0.0237951279, 0.0090003610, -0.0747232512, -0.0416177437, -0.0141218454, -0.0454125591, 0.0824382454, -0.0216752365, 0.0537860692, -0.0403274223, -0.0045829788, -0.0458796509, -0.0509367287, 0.0344282016, -0.0188160166, 0.0396838784, 0.0385305434, 0.0182433426, -0.0555619225, 0.0826759040, -0.0347193927, 0.0444511473, 0.0054407716, -0.0510254093, 0.0454351604, -0.0537398010, 0.0116066560, 0.0093175247, -0.0528786704, 0.0338579938, -0.0577394329, 0.0254255086, 0.0148632154, -0.0167110339, -0.0575655326, -0.0815093964, 0.0695089102, 0.0805424899, -0.0772595704, -0.0059544519, 0.0016991869, -0.0279788822, 0.0130167603, 0.0010639206, 0.0086711347, -0.0283065960, 0.0147454441, -0.0247969143, 0.0754244179, -0.0487948284, 0.0576729774, -0.0587878898, -0.0475571081, -0.0624917373, -0.0626016185, -0.0568141788, -0.0493295640, -0.0620558262, -0.0580381751, -0.0583618172, -0.0788827315, -0.0595482327, 0.0790456384, -0.0763787627, 0.0641128123, 0.0726297647, -0.0100796297, -0.0384960473, 0.0473138243, -0.0479440652, -0.0190130174, 0.0693782866, -0.0435796678, -0.0393331647, 0.0324276909, -0.0228954032, -0.0434269682, 0.0742961913, 0.0020231083, 0.0058256388, 0.0657336116, 0.0726136416, 0.0594336540, -0.0358781889, 0.0129270479, 0.0039918348, -0.0789764747, 0.0835173577, 0.0215674266, -0.0257370286, -0.0416573249, -0.0302648358, 0.0357868150, -0.0342624635, -0.0793922991, -0.0750201643, 0.0080645010, -0.0724337697, -0.0413563773, 0.0393925682, -0.0454941541, -0.0497290939, -0.0164827928, 0.0075492859, 0.0787057281, -0.0415380709, -0.0482845716, 0.0348057821, -0.0601068996, -0.0600427389, 0.0847884715, 0.0227769986, 0.0312618464, -0.0684723705, -0.0347402468, -0.0397617072, -0.0578629375, -0.0522559024, -0.0550180748, 0.0189819634, 0.0105134994, 0.0306286663, 0.0094927624, 0.0439063460, -0.0574702919, -0.0267607197, 0.0652651638, -0.0669385791, 0.0842072666, -0.0163075179, 0.0187886655, 0.0623085648, -0.0079590380, 0.0755127668, 0.0058631822, -0.0693296343, 0.0785045177, 0.0021005943, 0.0585284233, -0.0055804327, 0.0099588633, -0.0600603111, 0.0352683365, 0.0455807447, -0.0612600520, -0.0357191712, 0.0140646249, 0.0214661509, 0.0506968796, 0.0392665565, 0.0425331146, -0.0476665646, 0.0285104588, 0.0698909909, 0.0752252489, -0.0078990608, -0.0379799791, -0.0184800848, -0.0499371290, 0.0799863786, 0.0290013775, 0.0727088451, 0.0504510552, -0.0809230879, -0.0648040697, 0.0811742246, -0.0137618557, -0.0847469792, 0.0348721296, -0.0693688914, -0.0103877857, -0.0753064156, -0.0192309543, 0.0284055844, -0.0773350149, -0.0692330748, 0.0739638358, 0.0308545381, 0.0693543702, 0.0588693172, -0.0687977895, 0.0487467796, 0.0407243520, 0.0731624663, -0.0093377158, -0.0176529288, -0.0270896666, 0.0475518405, -0.0108001083, -0.0692087412, 0.0375460088, -0.0473885573, 0.0163641423, 0.0563249141, -0.0725756809, 0.0787481517, 0.0786531717, -0.0651457161, -0.0785610676, 0.0110313669, -0.0253692865, 0.0146332756, 0.0128072649, 0.0735160857, -0.0314334333, 0.0075656995, -0.0505396686, -0.0057618842, 0.0554245412, 0.0387164727, -0.0697238594, -0.0376146473, 0.0638578683, -0.0689351410, 0.0451032072, 0.0789088607, 0.0789828897, 0.0138829350, 0.0432645082, 0.0195940211, 0.0332196206, -0.0253304131, -0.0738067031, 0.0258307904, -0.0572801381, -0.0782948434, -0.0094148964, -0.0151398852, -0.0509140901, 0.0271920934, 0.0660817921, -0.0390187949, -0.0643117949, 0.0756861269, -0.0453823917, -0.0143535063, 0.0269972384, 0.0754071474, 0.0145069137, 0.0263740271, 0.0768362284, -0.0423108861, 0.0582311302, 0.0303838849, -0.0082795396, 0.0063910112, -0.0456281453, 0.0090759471, 0.0365096629, -0.0105019212, 0.0780269802, 0.0097546726, -0.0298633650, -0.0542891771, 0.0426914394, 0.0629728734, 0.0794837177, -0.0306884348, -0.0452759154, -0.0762051642, -0.0596129000, -0.0131740943, 0.0111916214, -0.0783880055, 0.0722883642, 0.0383912921, 0.0192985758, -0.0640724376, 0.0589777827, 0.0605991185, -0.0373949520, -0.0261508897, 0.0390002280, 0.0836270154, -0.0467143618, 0.0756798685, 0.0461847335, 0.0736636519, -0.0572828501, 0.0020687059, 0.0094732270, 0.0268655196, 0.0265335143, -0.0667824000, 0.0305666104, -0.0205925480, 0.0696129501, -0.0846208036, -0.0668181926, 0.0526669919, -0.0725180432, 0.0297520906, -0.0553648025, 0.0149992183, -0.0807616860, -0.0571137071, 0.0628285557, -0.0013468936, -0.0520930775, 0.0488049686, 0.0762422234, -0.0841287300, 0.0070252791, 0.0622818023, -0.0847525522, -0.0456797741, -0.0055407882, 0.0028355867, 0.0777985156, 0.0325592086, -0.0709816813, -0.0796794966, -0.0044800639, -0.0174790323, -0.0348471887, 0.0669844300, 0.0594681501, -0.0413970724, 0.0635424256, 0.0437179953, 0.0494268090, 0.0316424593, 0.0157624930, 0.0122564360, -0.0144512802, 0.0824335515, 0.0081123412, -0.0011370927, 0.0833026171, 0.0664587170, -0.0699331462, -0.0242860466, 0.0437500477, -0.0123026818, -0.0712336302, 0.0518803298, 0.0066464394, 0.0539750904, -0.0063217655, -0.0535982549, 0.0157351643, 0.0040877685, -0.0475711413, 0.0157542527, -0.0573582277, 0.0619147718, -0.0115354285, 0.0005603284, -0.0657131895, -0.0665114149, 0.0445659012, 0.0767658800, 0.0134522840, 0.0664046258, -0.0019236952, -0.0779126734, 0.0269203633, -0.0094660968, 0.0524190664, 0.0507235229, 0.0374003127, 0.0478459150, -0.0716802701, -0.0602781661, -0.0803311989, -0.0044163093, -0.0376110859, 0.0467214435, 0.0089647919, -0.0697924495, -0.0264774077, -0.0831176117, 0.0528153181, 0.0192759037, 0.0654474944, 0.0695837289, 0.0333106667, -0.0462785102, -0.0126950219, 0.0431367457, 0.0486860275, 0.0105847642, -0.0835607648, 0.0684803575, -0.0827410594, -0.0141099170, 0.0179523975, -0.0789867565, 0.0204280987, 0.0758220851, 0.0290339142, -0.0725331679, -0.0586670972, 0.0740475357, -0.0569790304, -0.0453153364, -0.0340361446, -0.0106491894, 0.0434168428, -0.0693741515, 0.0580582172, 0.0631353259, 0.0161948428, 0.0473434329, 0.0263257995, 0.0534947813, -0.0480526872, 0.0140329003, 0.0629007816, 0.0811548531, -0.0472110137, 0.0160752013, -0.0468839072, 0.0194965899, 0.0430060923, 0.0756322294, -0.0408379212, 0.0649863482, -0.0163450763, 0.0788106918, 0.0215342566, 0.0052960664, -0.0320645645, -0.0540820099, -0.0107072368, -0.0234516002, 0.0188653618, 0.0040096566, -0.0117706582, 0.0602923930, -0.0716544166, 0.0615056157, -0.0014926642, 0.0023905486, -0.0822707713, 0.0080835521, -0.0131907612, 0.0334267020, 0.0690008402, -0.0182352439, 0.0119845644, 0.0059571415, 0.0309693962, 0.0350199938, -0.0245212540, -0.0348983929, -0.0500150174, -0.0054984316, 0.0836708546, 0.0283529386, 0.0170622095, -0.0207938775, 0.0248257220, -0.0591465384, -0.0640987605, -0.0845565423, 0.0747715831, 0.0402750820, 0.0580164641, -0.0304405987, 0.0472351611, 0.0083250180, -0.0679968148, 0.0841869414, -0.0500131547, 0.0245757177, -0.0505646951, -0.0673252270, -0.0785672665, 0.0502586216, 0.0711175352, -0.0399767868, -0.0148967057, 0.0559301823, 0.0300522223, -0.0054751337, -0.0422659181, 0.0540896505, 0.0658462346, 0.0487051606, -0.0363498367, -0.0398328342, 0.0578062087, -0.0426771306, -0.0755668283, -0.0290992931, -0.0315905474, 0.0399871990, 0.0364599377, -0.0804610774, 0.0649049580, 0.0461021066, -0.0321807377, 0.0136023760, 0.0426569283, -0.0089185238, 0.0470522046, 0.0629577935, -0.0111494660, -0.0350361504, 0.0821589828, -0.0252220333, 0.0248926580, 0.0541076809, -0.0321982317, 0.0678815544, -0.0821501613, 0.0108074397, 0.0406960100, -0.0742147341, -0.0621937886, -0.0142748654, 0.0533354729, 0.0473166853, 0.0734955519, 0.0603210330, 0.0563431680, -0.0110707879, -0.0846583024, -0.0767683908, -0.0467478894, 0.0469574034, 0.0200907513, -0.0445707217, 0.0800223202, 0.0274257809, 0.0129490346, -0.0781826973, 0.0654569417, 0.0675317794, -0.0845337063, 0.0104199573, -0.0451441705, -0.0095803067, -0.0225223377, -0.0406349897, 0.0406047553, 0.0661179572, 0.0601399243, -0.0003036782, 0.0769272596, -0.0222886726, -0.0499757379, -0.0125819445, 0.0277932435, 0.0242689401, -0.0465981662, -0.0725193545, 0.0642446578, -0.0260601044, 0.0253368914, -0.0725521371, -0.0078866929, -0.0311831646, -0.0301393867, -0.0694765449, 0.0304573625, -0.0489289649, -0.0042947307, 0.0219390914, 0.0423330963, -0.0796865821, 0.0049765185, 0.0534376353, -0.0677746087, -0.0808416605, 0.0032953545, -0.0170095265, 0.0444585085, 0.0339376032, -0.0361559130, -0.0312967300, 0.0558947176, -0.0355680324, -0.0795028880, 0.0482878983, 0.0302853435, 0.0229847357, 0.0367113426, 0.0275548995, -0.0702142939, 0.0257140100, 0.0032395720, -0.0257731080, 0.0482378304, -0.0794756338, 0.0199376643, -0.0565432385, -0.0399666056, 0.0519869626, 0.0273687690, 0.0567014068, 0.0081869736, 0.0770702809, -0.0360488705, -0.0557764992, 0.0158209056, -0.0668435022, -0.0642808378, -0.0071919262, -0.0477624498, -0.0294348001, -0.0075869039, -0.0122560933, 0.0581301153, 0.0805027038, 0.0168744400, 0.0617423058, -0.0831908807, 0.0031309053, 0.0010705069, 0.0563435405, 0.0499722809, -0.0048573613, -0.0036553964, -0.0176872239, -0.0426132716, 0.0127163380, 0.0284749866, -0.0833193287, -0.0490004346, 0.0417326391, 0.0623727888, -0.0371653140, -0.0699753165, -0.0680661574, -0.0321844034, 0.0286489502, -0.0094400793, -0.0434430838, -0.0784663185, -0.0175517127, 0.0037023276, -0.0277383514, 0.0414971113, -0.0828070641, 0.0558513850, -0.0570266284, 0.0418475270, -0.0541794151, 0.0601319373, -0.0162552968, -0.0100489780, 0.0408128947, 0.0667716414, 0.0517495722, 0.0653508306, 0.0307867378, -0.0582688451, -0.0093552470, -0.0798361227, -0.0568581745, 0.0669998825, -0.0199295506, -0.0344957449, 0.0753967017, 0.0087288320, -0.0188891515, -0.0545561872, -0.0231403485, -0.0698979571, -0.0467221364, 0.0460008681, 0.0337640718, -0.0007113665, -0.0097951293, 0.0649792850, 0.0483057350, -0.0379167907, 0.0728631467, 0.0617754757, 0.0074197873, -0.0758199319, 0.0445923656, -0.0340666994, 0.0017555282, 0.0843300074, 0.0578350574, 0.0534783900, 0.0549376756, 0.0245018974, -0.0699434131, 0.0247460157, 0.0450309068, -0.0704321265, -0.0180598870, -0.0379445255, -0.0005050749, -0.0152877942, -0.0405422971, -0.0317428857, -0.0310615636, 0.0711128861, -0.0833578557, -0.0545994341, 0.0173819289, 0.0337745398, 0.0238994360, -0.0750482082, 0.0279475376, 0.0376944393, 0.0712241977, -0.0750725865, 0.0099098235, 0.0044825375, 0.0099079385, 0.0131002143, 0.0559076965, -0.0586074069, 0.0116361976, -0.0531060398, -0.0486520715, -0.0401817672, 0.0696654171, -0.0526743792, -0.0747555420, -0.0361094885, -0.0407420546, -0.0168065354, 0.0535538495, 0.0811155140, 0.0244676620, -0.0384293124, 0.0049280450, -0.0756959990, 0.0247198716, -0.0216144174, 0.0239120275, -0.0845808387, 0.0509677082, 0.0071822107, -0.0450262949, 0.0209742785, -0.0091284662, -0.0244151019, 0.0028396174, 0.0357395038, 0.0392586365, -0.0066794008, 0.0397937000, 0.0495772213, -0.0783313140, 0.0278891325, -0.0646249056, 0.0622017831, 0.0475597829, 0.0358645618, 0.0437015593, 0.0357486084, -0.0703111887, -0.0279910117, -0.0516546741, -0.0620474033, 0.0028615892, 0.0454948843, 0.0613692850, -0.0454402789, 0.0749767721, -0.0592095852, -0.0535214618, 0.0168396160, 0.0477625728, 0.0215986222, 0.0347489491, 0.0713459551, 0.0645921826, 0.0572197586, -0.0184990615, 0.0147487819, 0.0576406866, 0.0494965613, -0.0781986117, 0.0288899615, -0.0228911936, -0.0333746448, 0.0248935521, 0.0263174623, 0.0657765567, 0.0844107717, 0.0564060211, 0.0451453626, 0.0180819184, -0.0176531747, 0.0243823603, -0.0514458306, 0.0669360459, -0.0349392295, -0.0301992968, -0.0482082441, 0.0657237023, -0.0810647383, -0.0209938958, -0.0090636760, 0.0313390866, -0.0515234582, -0.0645977557, 0.0018991977, -0.0628312528, 0.0572121888, -0.0292417109, -0.0353379883, 0.0654336810, 0.0336353853, -0.0178301707, 0.0675319880, -0.0124872476, -0.0239905268, 0.0828899890, 0.0163613707, -0.0438804924, 0.0458030552, -0.0831321478, -0.0633701608, -0.0282834731, -0.0055979639, -0.0688787773, 0.0285913274, -0.0605897605, -0.0368024297, -0.0818988010, 0.0432124883, 0.0653897524, -0.0305756815, -0.0488784090, -0.0661862344, -0.0121135786, -0.0156585872, 0.0082593560, 0.0366914198, 0.0285721719, 0.0251031443, -0.0189942345, -0.0466540679, 0.0629684031, -0.0107219592, -0.0497730710, -0.0030811429, -0.0098117292, 0.0669511706, -0.0051222071, 0.0587920845, 0.0006970540, 0.0045144036, 0.0718990117, -0.0217672363, -0.0717050359, 0.0269036591, -0.0453551188, -0.0708524287, 0.0187679976, 0.0334191471, -0.0317171924, 0.0233506337, 0.0342490226, 0.0822707862, 0.0583878905, 0.0181154609, 0.0421043336, -0.0501130521, -0.0648156703, -0.0695632547, 0.0425048769, 0.0044489056, 0.0603432655, 0.0725174695, -0.0337724723, -0.0409600101, 0.0557598174, 0.0329589173, -0.0169971213, -0.0535982959, -0.0476619266, -0.0056593940, -0.0641152561, 0.0843703449, -0.0041057691, 0.0158076882, 0.0605232865, -0.0434323922, -0.0317493416, 0.0794617087, -0.0004054233, 0.0418981314, -0.0125672817, 0.0291549936, 0.0733733773, 0.0223432556, 0.0507099479, 0.0336772949, -0.0031996220, -0.0243547261, -0.0584133267, 0.0647489130, -0.0128606185, -0.0314511508, 0.0831073076, -0.0076607838, -0.0031201392, -0.0629665628, -0.0515053757, 0.0566823781, -0.0240998790, 0.0801120251, -0.0368954055, 0.0107267573, 0.0159569457, 0.0003722161, 0.0738989264, 0.0609863102, 0.0662431121, -0.0631006137, 0.0466200113, 0.0003880262, -0.0636852384, -0.0513179712, -0.0171667263, -0.0684473813, 0.0712675601, -0.0509702340, 0.0584698319, -0.0685437545, -0.0110845342, 0.0363378525, -0.0837330669, -0.0671698600, 0.0311171636, -0.0030527785, -0.0085125566, 0.0310078859, -0.0737494230, -0.0499459356, -0.0700522959, -0.0434221886, 0.0086070895, -0.0154048130, -0.0578555278, 0.0822267979, 0.0129676834, -0.0695758313, -0.0370216407, 0.0479955673, -0.0757863000, -0.0462542363, 0.0527142435, -0.0780366436, 0.0714336485, 0.0039708391, 0.0371759236, -0.0695354789, 0.0596192628, -0.0392997004, -0.0103313178, -0.0096173808, 0.0522029549, 0.0556654185, 0.0558580160, -0.0780919567, 0.0761874318, -0.0421519093, -0.0449484661, -0.0644550174, -0.0405693687, -0.0560792461, 0.0681774765, -0.0143490955, 0.0200341642, -0.0610256717, -0.0202398449, -0.0506001078, -0.0402173400, -0.0525882095, -0.0427781418, -0.0656957328, -0.0516719446, 0.0418820977, 0.0617672503, -0.0719748810, -0.0315439217, 0.0090391785, -0.0451892801, 0.0399287641, -0.0166027546, -0.0568580925, -0.0133062080, 0.0598044544, -0.0001015812, 0.0037850589, -0.0298444144, 0.0067906380, -0.0055657551, -0.0547965765, -0.0001654178, 0.0251026377, 0.0595163405, -0.0377980024, -0.0624473542, 0.0202707052, 0.0591863990, -0.0067326501, 0.0611532032, -0.0393872447, 0.0536263734, 0.0254844725, -0.0603189021, 0.0039079785, -0.0606448539, -0.0470569544, 0.0325280502, 0.0632773489, 0.0693336576, -0.0602826029, 0.0360440314, -0.0049008727, 0.0195705518, -0.0334174894, 0.0169157684, 0.0797003061, 0.0316392630, 0.0418600589, -0.0117712617, 0.0622598678, 0.0315315053, 0.0426220149, 0.0086726323, -0.0563967973, -0.0438164510, 0.0604757071, 0.0061260015, -0.0841794088, -0.0733835250, 0.0633205771, 0.0348022431, 0.0107524693, -0.0471830331, 0.0681748837, -0.0046810359, -0.0220169574, 0.0115255117, 0.0535087287, -0.0566233769, 0.0331753790, -0.0479499958, 0.0427443534, -0.0638618693, -0.0523546040, -0.0010997429, 0.0475992560, -0.0348273255, -0.0230188072, 0.0573346168, -0.0654751658, -0.0215034634, 0.0546572953, -0.0191955641, -0.0552659184, 0.0445958525, 0.0436612070, 0.0708818436, 0.0670161396, 0.0387520492, 0.0417861789, 0.0701266229, -0.0211195648, -0.0569978356, 0.0052529648, -0.0009060204, 0.0107094496, -0.0636956245, -0.0353883803, -0.0710501969, 0.0772805214, 0.0595110804, 0.0054499656, -0.0190714896, 0.0650906414, 0.0284547433, -0.0278680325, 0.0568886697, -0.0437181331, 0.0381900594, -0.0695305616, 0.0260730386, 0.0213067308, -0.0304362029, -0.0556484982, -0.0482667759, -0.0028297752, -0.0316570997, -0.0732440501, 0.0716456920, -0.0642935485, 0.0315466523, -0.0205450431, -0.0095997229, 0.0208887756, 0.0567495972, 0.0810794085, 0.0487088859, 0.0645420551, -0.0164346471, -0.0259987153, -0.0060191005, 0.0314316303, -0.0731228739, 0.0257705525, 0.0363443941, -0.0405324176, -0.0372728445, 0.0331867188, -0.0312096067, 0.0130923390, -0.0111220554, 0.0588269234, 0.0337495133, -0.0089589953, -0.0156310946, 0.0617757738, 0.0112466291, -0.0382067002, -0.0589302219, -0.0465423875, -0.0413753502, 0.0478360057, -0.0497851782, -0.0741013736, -0.0717332810, -0.0666312724, -0.0002071038, 0.0382046327, 0.0159909800, -0.0252346471, 0.0546024591, 0.0135110393, 0.0488942564, -0.0623883158, -0.0801867172, -0.0316361226, 0.0732399225, -0.0065501109, 0.0783442259, -0.0501000136, -0.0242173932, -0.0472695455, -0.0162636414, 0.0345878676, 0.0169894025, 0.0699140131, 0.0000655577, -0.0153400898, 0.0485978574, 0.0478454977, 0.0514712632, -0.0354339965, -0.0578575507, 0.0194231570, -0.0552850515, -0.0209107846, 0.0379873663, 0.0802983195, 0.0336761400, 0.0209456086, 0.0555169880, -0.0565754101, 0.0750349015, 0.0169997737, 0.0831437409, -0.0127574578, -0.0651145577, 0.0411233157, -0.0311784074, 0.0393699780, -0.0142707154, 0.0847062618, -0.0340476260, -0.0835896581, -0.0647996366, -0.0405718796, -0.0352502987, -0.0048167259, 0.0804959387, 0.0504164100, 0.0189101472, 0.0258832052, 0.0155956820, -0.0489004776, -0.0163751766, 0.0716552287, 0.0116577223, -0.0111483559, -0.0718328357, 0.0510360152, 0.0285099968, 0.0311217383, 0.0221504867, 0.0481528491, 0.0785051733, 0.0063407570, -0.0566663370, 0.0030961856, -0.0397377349, -0.0105626360, -0.0198958963, -0.0632989705, 0.0356761664, 0.0570749640, -0.0315999426, -0.0362284966, 0.0481693298, -0.0730812401, 0.0535255373, 0.0765904039, 0.0456755161, 0.0651347935, 0.0432527810, 0.0833643973, 0.0350574106, 0.0829976499, 0.0581231266, -0.0685091540, -0.0340094604, 0.0108764023, -0.0669953525, 0.0261174440, -0.0235877000, -0.0643571019, -0.0688245371, -0.0292844921, 0.0591882616, -0.0572783351, 0.0721793175, -0.0219084620, 0.0786271989, -0.0645042360, 0.0220410153, -0.0310930870, 0.0370053202, -0.0751584917, -0.0765419453, 0.0114855617, -0.0739275739, 0.0597990453, -0.0396802537, 0.0447625965, -0.0213657022, -0.0333230384, 0.0235476941, -0.0169459358, 0.0251925737, 0.0577783436, 0.0509134829, 0.0479585975, -0.0426621065, -0.0002970770, 0.0564217120, 0.0655933022, 0.0365137532, 0.0011668354, -0.0685763955, 0.0515012294, 0.0553439409, 0.0763695687, -0.0677401274, 0.0442310274, 0.0678850710, -0.0052279606, 0.0443714112, -0.0466148071, -0.0757379904, -0.0622518957, -0.0848635435, 0.0172539502, -0.0282702930, 0.0738615692, 0.0588059425, 0.0694463402, 0.0801489204, 0.0585115850, 0.0703586489, 0.0560469478, 0.0422197133, 0.0270416439, 0.0803040415, -0.0441216491, -0.0641195104, -0.0435392745, 0.0417792052, 0.0709829777, -0.0230757222, 0.0710889548, 0.0444945693, -0.0708558857, 0.0284181759, 0.0106165558, 0.0760765374, 0.0715487301, 0.0398124084, -0.0674986616, 0.0656381547, 0.0704921186, -0.0535890646, -0.0725351870, -0.0336201154, -0.0055919960, 0.0121603683, -0.0260894820, 0.0695665330, -0.0161016434, -0.0384325720, 0.0018287450, -0.0128829107, -0.0555427298, -0.0165065825, -0.0285321847, -0.0302077383, 0.0358132794, 0.0012451708, -0.0111117885, -0.0190596655, -0.0185206234, -0.0585585311, 0.0801965445, -0.0199916810, 0.0406490415, -0.0722020268, -0.0749719366, -0.0472584106, 0.0778695196, -0.0145492330, 0.0810015649, 0.0586357117, -0.0748057365, -0.0793671757, 0.0718058646, -0.0125637800, 0.0394384116, -0.0806690305, 0.0052660033, 0.0844943672, 0.0303836018, 0.0295759588, -0.0622163638, -0.0198060796, 0.0730851293, -0.0531167500, 0.0403913856, 0.0598102063, -0.0162081048, -0.0639810413, 0.0148609728, 0.0607442260, 0.0347856805, -0.0802623183, 0.0091965720, -0.0077832565, 0.0476620644, 0.0751325786, -0.0507610887, 0.0848149955, -0.0425170995, -0.0783819854, 0.0180365816, -0.0124056116, -0.0838694051, 0.0234700665, -0.0787395835, 0.0255131200, 0.0822599530, -0.0464514978, -0.0644542873, -0.0204162970, -0.0799130201, -0.0634869039, -0.0116873831, -0.0274863429, -0.0365079008, -0.0406130627, 0.0514999330, -0.0441271365, 0.0603213906, -0.0790863931, -0.0795427486, -0.0326131284, -0.0466231890, -0.0230676234, 0.0660612881, -0.0369976498, 0.0597153753, -0.0471860282, 0.0802836567, 0.0771542490, 0.0749009103, 0.0707708299, -0.0281360373, 0.0259536430, 0.0084290206, -0.0246043243, 0.0344887227, 0.0416402221, 0.0117800906, 0.0157286823, 0.0154902339, -0.0094388872, 0.0040594190, 0.0458785743, 0.0626376718, -0.0162206963, 0.0407759398, -0.0102762058, -0.0384358950, -0.0758703277, 0.0100283250, 0.0486797243, -0.0411020406, -0.0202924088, -0.0179114789, -0.0488680638, -0.0364329293, 0.0554244220, -0.0664756596, 0.0584959984, 0.0411870927, 0.0365967080, -0.0748244599, 0.0381431878, -0.0573977903, -0.0562044717, -0.0225036107, 0.0152532086, 0.0435378850, -0.0625568703, -0.0737182871, 0.0611601174, -0.0408418290, 0.0650124699, -0.0641444176, -0.0410248600, -0.0589053780, 0.0716141909, -0.0651225299, -0.0194466040, 0.0595726371, 0.0083403438, -0.0718401819, -0.0268889628, 0.0353941694, -0.0151003301, 0.0253534764, -0.0312116705, -0.0523848124, -0.0195244700, 0.0092835501, 0.0746229440, -0.0108363703, 0.0781868100, 0.0685402006, -0.0774893314, -0.0626179129, 0.0119340867, 0.0499736071, -0.0440286174, -0.0481295250, 0.0677764118, -0.0538062081, -0.0520428643, 0.0395109951, 0.0823254138, 0.0078223869, -0.0171231702, 0.0761676878, 0.0337476730, -0.0448474959, 0.0020397156, -0.0539087206, -0.0522964559, 0.0161702409, -0.0011615530, -0.0270116590, 0.0619261265, -0.0005555674, -0.0028582290, -0.0405232273, -0.0201375857, 0.0683758855, 0.0167427957, -0.0374233574, 0.0407858938, 0.0734988153, 0.0667280704, -0.0343603566, 0.0575573295, 0.0786221325, 0.0787691325, -0.0796388239, -0.0634791255, 0.0680429786, 0.0690530837, 0.0139615312, 0.0657938719, 0.0692152381, 0.0065389723, 0.0834842175, -0.0024724454, -0.0656284764, -0.0826709867, -0.0288010798, 0.0354683548, 0.0690009892, 0.0762335509, 0.0045085922, 0.0608256012, -0.0052707419, -0.0735180676, -0.0629065707, -0.0079517066, 0.0126268268, 0.0456816405, -0.0033404008, -0.0844481215, -0.0341801420, -0.0076734722, -0.0118310750, 0.0412876606, -0.0027160347, 0.0261306241, -0.0209680200, -0.0238647759, -0.0683594123, 0.0613831282, -0.0276792310, 0.0330286920, 0.0043677762, -0.0632517338, -0.0251496695, -0.0298057422, 0.0543419570, -0.0425385833, -0.0308695212, -0.0301190205, 0.0255466253, 0.0093036965, -0.0765977651, -0.0554328486, -0.0162122920, 0.0671189427, -0.0411290489, 0.0483754873, 0.0592820048, 0.0786611438, 0.0600094944, -0.0184908807, -0.0832670704, 0.0002041683, 0.0119055808, -0.0345123075, 0.0780689716, 0.0344920233, 0.0785906464, -0.0225775726, -0.0822283328, 0.0602976680, -0.0099850819, 0.0215410814, -0.0143740550, 0.0062946528, -0.0690603331, 0.0634363443, 0.0695526749, -0.0197361335, 0.0713098645, 0.0198361278, 0.0640325695, -0.0377931632, 0.0060166866, -0.0294080973, 0.0576956421, -0.0747334361, -0.0403621830, 0.0427758098, 0.0570320934, -0.0336681232, 0.0006973371, -0.0387615412, -0.0437079892, -0.0200724453, 0.0353533328, -0.0740125105, -0.0582478866, -0.0521059334, 0.0006005391, -0.0769922584, 0.0705759376, -0.0123440027, 0.0660248250, 0.0650018454, -0.0743646175, -0.0384903587, 0.0177124515, -0.0247484818, 0.0104006454, 0.0522790253, -0.0423967540, 0.0376620889, 0.0179397240, 0.0596973896, 0.0240051225, -0.0259694792, -0.0595111176, 0.0270969942, 0.0589613765, 0.0121940523, -0.0620201305, 0.0085831210, -0.0427631177, -0.0712234676, 0.0047010779, -0.0540144667, 0.0318158567, -0.0068601891, -0.0630016327, -0.0303003490, -0.0069274828, -0.0731447786, 0.0396306887, 0.0215381682, 0.0644383281, -0.0333264396, 0.0413158685, -0.0079756752, 0.0081439912, 0.0195318013, -0.0456993952, -0.0003446192, 0.0440768600, 0.0204977468, -0.0794162527, 0.0319203287, -0.0477967076, -0.0657424852, -0.0445519127, -0.0819395930, 0.0074107125, -0.0352379903, 0.0618460923, 0.0132510513, -0.0698836222, 0.0424626321, -0.0757348388, 0.0800448656, -0.0152334273, 0.0100550503, -0.0362266973, 0.0220819116, -0.0557256192, -0.0450415201, -0.0570747964, -0.0270927064, -0.0830673948, 0.0440986753, 0.0313450992, 0.0657667667, 0.0311263502, 0.0181975439, -0.0725100636, 0.0513606668, 0.0050841868, -0.0348950922, -0.0816370696, 0.0386684090, 0.0496872365, 0.0838362426, 0.0323628560, 0.0177698955, 0.0826191157, -0.0059887320, -0.0436177924, -0.0632083490, 0.0566527396, 0.0800676197, 0.0553442687, 0.0571610630, 0.0403630733, 0.0526852757, 0.0335360914, -0.0367729105, 0.0696149021, 0.0241861343, 0.0169236213, 0.0295987427, 0.0377623662, 0.0660060197, -0.0793815702, -0.0378784016, 0.0219566450, 0.0426902771, -0.0752896294, -0.0719797388, 0.0515914112, 0.0730715245, -0.0730968341, -0.0468289182, -0.0573628470, 0.0217162967, -0.0369969420, 0.0658790320, 0.0639269203, 0.0354315490, -0.0165264830, 0.0453900695, 0.0408733338, 0.0431714952, 0.0665197819, 0.0812493712, -0.0692214742, 0.0589180589, -0.0087135062, 0.0762653202, -0.0830184221, -0.0769047514, 0.0245283842, -0.0227652378, -0.0607838705, -0.0534449704, 0.0398837775, -0.0208688080, -0.0729265809, 0.0433927327, 0.0786039978, -0.0506613515, 0.0331848711, 0.0602889955, -0.0469512269, -0.0122837871, -0.0025758445, 0.0006574690, 0.0592814386, -0.0414176844, -0.0324110053, 0.0746564716, 0.0803264380, 0.0710952580, -0.0199682787, -0.0351132080, 0.0113427266, 0.0764681697, 0.0542596579, 0.0467880368, 0.0688754320, -0.0768373460, 0.0810034722, -0.0373943821, -0.0612504110, 0.0623584539, 0.0111896992, 0.0547351092, -0.0394964963, -0.0493551567, 0.0608372390, 0.0509781539, -0.0356155708, 0.0673762858, 0.0626410097, 0.0528085083, -0.0489149317, -0.0533971675, 0.0842261016, -0.0750202462, -0.0200416520, 0.0614414215, -0.0583827719, 0.0109953284, 0.0398857370, -0.0475863442, 0.0371904597, -0.0281093121, 0.0743928850, -0.0628227890, 0.0552067608, 0.0497758240, 0.0775050074, -0.0291130021, -0.0047314689, 0.0126378238, 0.0200168490, -0.0710173175, 0.0729698688, -0.0814849958, 0.0039308146, 0.0059095025, -0.0356503129, -0.0142010301, -0.0606592894, -0.0605633408, 0.0802289993, 0.0404310077, 0.0795862824, 0.0754974186, 0.0386026874, 0.0826492757, -0.0277601182, -0.0146641955, 0.0467841476, -0.0352950059, -0.0553507060, 0.0577746630, 0.0579888523, 0.0357580855, 0.0278971046, -0.0015852973, 0.0639315844, -0.0344612673, -0.0586101227, -0.0453333333, -0.0100403354, -0.0292779729, 0.0700146556, 0.0156131163, 0.0000097826, 0.0436901748, 0.0441835672, 0.0321472138, -0.0390226021, -0.0706702024, -0.0417277217, -0.0224042162, 0.0731293261, -0.0454788469, -0.0009357184, -0.0798628479, -0.0761023089, 0.0337074623, -0.0411413386, 0.0605710149, -0.0525605716, -0.0557157174, -0.0579803698, 0.0063612685, -0.0736346692, 0.0242936388, 0.0343724862, -0.0719950050, -0.0299974978, -0.0435731076, -0.0129206479, -0.0091834366, -0.0250660926, -0.0699820369, 0.0759289563, -0.0155394971, -0.0796278715, 0.0032875165, -0.0446419902, -0.0512501858, 0.0142745674, -0.0035953671, 0.0350031108, -0.0212739706, -0.0416400358, -0.0404518768, 0.0673046112, 0.0799011588, 0.0533899814, 0.0281566903, 0.0588399172, -0.0339125209, -0.0654061064, -0.0699952990, -0.0322877839, -0.0438462347, -0.0753420517, 0.0076092109, -0.0500199385, -0.0106199384, -0.0032643974, 0.0295469463, -0.0592304617, 0.0405177772, -0.0120176673, -0.0346827656, -0.0760343224, -0.0319816135, -0.0820912868, 0.0238883793, -0.0429728329, -0.0308940001, 0.0049150661, 0.0337800235, -0.0416750424, 0.0379633531, 0.0188190341, -0.0490991175, -0.0014033988, 0.0490703881, -0.0326229483, 0.0586388856, 0.0328497514, 0.0304137692, 0.0443468988, -0.0578566417, -0.0031331331, -0.0224837698, 0.0090613440, -0.0680278689, -0.0188119933, -0.0185424834, 0.0042807162, -0.0237736851, 0.0338585004, -0.0052216798, 0.0187085941, 0.0698900968, -0.0646317303, -0.0186848417, 0.0755684674, 0.0440892726, 0.0409007221, 0.0106485635, 0.0560550690, 0.0544101298, -0.0375205614, 0.0437914729, 0.0535289496, -0.0535355508, -0.0478012450, 0.0246420652, 0.0541032702, 0.0402083099, 0.0798486918, -0.0033679977, -0.0777845308, 0.0364101306, -0.0677742362, -0.0469120480, 0.0833970606, -0.0052543804, -0.0443227813, -0.0200943351, 0.0663810074, -0.0164434686, -0.0417684577, 0.0352961794, 0.0177480057, -0.0158268213, -0.0479788892, -0.0022047237, 0.0646589398, -0.0634367689, -0.0459366255, -0.0547698736, -0.0338372439, -0.0018462166, -0.0273645557, -0.0061395466, 0.0169202015, -0.0363563150, 0.0055773780, 0.0106401592, -0.0383799523, 0.0342026353, 0.0632433295, 0.0342624038, 0.0414022356, 0.0427658707, 0.0515775383, -0.0176880956, 0.0611639619, -0.0068804920, -0.0497477800, 0.0173639283, 0.0556657016, -0.0633823276, 0.0831865072, -0.0478591882, 0.0727003813, 0.0477937758, 0.0262679756, -0.0498756580, -0.0002826229, 0.0736929327, -0.0453858934, -0.0052277744, -0.0430480689, 0.0570276380, 0.0373187214, -0.0830942467, -0.0296121612, -0.0787401125, 0.0318830311, 0.0335574150, 0.0700811744, 0.0724424571, 0.0395021886, 0.0435939431, -0.0189218894, -0.0688652694, -0.0143316388, 0.0760961175, -0.0813837200, -0.0123870075, -0.0189703777, 0.0161198303, -0.0381215848, -0.0011193752, 0.0434748083, -0.0460323915, 0.0250480548, 0.0636840910, 0.0522028804, 0.0424724817, -0.0737277195, 0.0294590145, -0.0817184225, -0.0782662779, 0.0669213086, -0.0260415785, 0.0752038807, 0.0631680042, 0.0744616389, 0.0670235604, 0.0573018789, 0.0400177464, 0.0773375481, -0.0077518523, 0.0173349157, -0.0437059067, -0.0299656093, -0.0061724260, -0.0644165874, -0.0394876301, -0.0367991105, -0.0845803544, 0.0413719863, 0.0473549515, 0.0205023289, -0.0728849098, -0.0615557134, -0.0786902830, -0.0809583366, 0.0254361033, -0.0502717234, 0.0309828222, -0.0700330585, -0.0616080314, 0.0165087655, -0.0049639642, 0.0623168498, -0.0762166679, 0.0258791372, 0.0534235835, 0.0790708363, 0.0411293507, -0.0069901496, 0.0540327281, 0.0201123133, 0.0826207101, 0.0654391497, 0.0702960491, 0.0009939522, -0.0016433448, -0.0351723097, -0.0069776773, 0.0167586356, 0.0509518981, -0.0604796819, -0.0231915340, -0.0273012258, 0.0187220722, -0.0413671099, 0.0781603903, -0.0536885336, 0.0513006598, 0.0344063342, -0.0004695803, -0.0587124899, -0.0142115578, -0.0271323696, 0.0280372724, -0.0453115888, -0.0665841848, 0.0756416023, -0.0649888441, 0.0420596302, 0.0681166053, -0.0593529940, 0.0609622449, -0.0320750102, 0.0824461430, -0.0650781319, -0.0296755955, 0.0138582289, -0.0273603648, -0.0030658543, -0.0325384587, -0.0580844805, 0.0248246938, -0.0397088639, -0.0724724829, -0.0717582256, -0.0218892619, -0.0187613741, 0.0425699651, 0.0813227147, 0.0041345134, 0.0581437349, 0.0055440515, 0.0026111528, 0.0750346184, 0.0744788647, 0.0598069429, 0.0126838237, -0.0385553502, 0.0829593539, -0.0631136149, 0.0092366636, -0.0755081698, -0.0683510900, 0.0367279872, 0.0320475996, -0.0239885449, -0.0756871924, 0.0734295100, 0.0430574715, -0.0822058022, -0.0603279322, -0.0205308571, 0.0331473947, 0.0159516633, -0.0261374861, -0.0685539991, 0.0000150204, -0.0724552721, 0.0250815228, 0.0151932761, 0.0213145390, -0.0826804042, -0.0011987090, -0.0295924023, -0.0559341572, 0.0532803088, 0.0450626016, -0.0830841213, 0.0808610320, -0.0044119358, 0.0622536838, 0.0456319600, -0.0682997853, -0.0156007409, -0.0660675839, 0.0298753679, 0.0377045646, -0.0607871674, 0.0407722592, -0.0216363445, 0.0295367241, 0.0487604737, 0.0054350048, 0.0592660904, 0.0501084775, 0.0683615506, 0.0297467038, -0.0133477747, -0.0484317057, -0.0149843916, -0.0163225755, -0.0032432750, -0.0448168628, 0.0809749365, 0.0333189890, -0.0115919188, 0.0096719041, 0.0410819203, -0.0771874934, -0.0149734020, -0.0498302877, 0.0531290770, 0.0208138004, 0.0754384100, 0.0472167581, -0.0541628376, -0.0199530721, -0.0233883895, -0.0504786260, 0.0613869727, 0.0639309734, 0.0619341582, 0.0252091736, -0.0325833447, -0.0496605784, -0.0271133967, -0.0726872012, 0.0156803504, -0.0619469211, 0.0196666867, -0.0011675879, 0.0467750132, 0.0256672204, -0.0423532836, -0.0767464638, -0.0778398663, -0.0270940624, 0.0451570004, -0.0377941355, 0.0409660786, 0.0187365934, 0.0335296988, 0.0449107885, -0.0507390574, 0.0631239563, 0.0154452920, 0.0736681670, 0.0774450302, 0.0134976357, -0.0324024819, -0.0763758644, 0.0726442188, 0.0507793725, 0.0423198193, 0.0257931501, 0.0445935875, -0.0276544504, -0.0361380577, 0.0375526696, 0.0246526971, -0.0258587711, -0.0426697619, -0.0142901167, -0.0030533820, 0.0206940845, 0.0225646570, 0.0184763819, 0.0358085036, -0.0005190000, -0.0644199699, 0.0086394623, 0.0169046521, -0.0366257168, 0.0099091381, -0.0002405271, -0.0247077458, -0.0818011090, -0.0737224147, -0.0672868192, 0.0757130831, 0.0625466108, 0.0730343461, 0.0130960047, -0.0495312028, 0.0257382840, 0.0795709193, -0.0085112005, -0.0754366592, 0.0418084711, 0.0698462427, 0.0403539687, 0.0370449647, 0.0785451829, -0.0136666596, 0.0311339870, 0.0202864185, -0.0783905908, -0.0613969378, 0.0452832282, -0.0364850238, -0.0699671805, 0.0227141157, -0.0752451271, 0.0727398843, 0.0489535481, -0.0665665418, -0.0461537689, 0.0763033777, -0.0798843950, -0.0458708033, -0.0684904307, -0.0022040382, -0.0764218420, -0.0176044777, -0.0640018135, -0.0183785930, 0.0190141127, -0.0358818956, 0.0017980486, 0.0455282480, 0.0194494799, -0.0475777611, 0.0628677458, -0.0113733187, 0.0458402336, 0.0817467868, -0.0519635975, -0.0694440231, 0.0682918280, 0.0424865931, -0.0143827200, 0.0173908174, 0.0804776251, 0.0420042574, -0.0690425336, 0.0371093303, 0.0102951601, -0.0415815599, -0.0119732842, -0.0519398488, -0.0300590470, 0.0126648098, 0.0593760610, -0.0126966387, 0.0659749508, 0.0379130021, 0.0498126149, -0.0727279559, -0.0428360663, -0.0378851630, 0.0007917061, -0.0803390145, 0.0058193058, 0.0309102610, 0.0605783165, -0.0336895026, 0.0530550033, 0.0680910200, 0.0639034957, 0.0231508389, 0.0725466907, 0.0100459233, -0.0624018833, 0.0448173732, -0.0054258928, 0.0164597705, -0.0166597664, -0.0760779753, 0.0630671233, 0.0263890103, -0.0683699176, -0.0790442377, 0.0081591755, -0.0789364874, 0.0048524812, -0.0068697259, -0.0695247874, -0.0107903555, 0.0286812782, 0.0455469787, 0.0493170321, 0.0361915305, 0.0101566538, 0.0534139872, -0.0283051766, 0.0293371305, -0.0839145780, -0.0578262731, 0.0058147088, -0.0416018888, 0.0197680369, 0.0739642829, -0.0506473221, -0.0159828812, 0.0489985943, -0.0390254781, -0.0034718439, -0.0029544160, 0.0620654374, 0.0362128466, -0.0496684946, -0.0602951944, -0.0765414014, -0.0190173537, -0.0077696294, 0.0195579976, -0.0379862562, -0.0470237695, 0.0034943148, -0.0183892176, 0.0181848928, 0.0605825484, 0.0014886782, -0.0055135414, -0.0311806351, -0.0418241173, -0.0753037184, 0.0396862477, 0.0794754922, 0.0026029125, -0.0171959028, -0.0434668735, 0.0552044511, 0.0316243172, -0.0329455584, 0.0221397802, -0.0151586756, -0.0185857117, -0.0332380198, 0.0559719801, 0.0695655942, -0.0631140396, -0.0270116776, 0.0393466130, 0.0596148819, 0.0367842913, 0.0148943961, -0.0196343735, -0.0808129460, -0.0357124694, 0.0327961147, 0.0268665701, -0.0539835691, -0.0528997257, 0.0044226870, -0.0050878078, -0.0231433250, -0.0445605181, -0.0814529657, -0.0028698668, -0.0092062131, -0.0749999210, 0.0499317199, -0.0447658412, 0.0819736719, 0.0458669960, -0.0705999509, -0.0372121222, -0.0417172536, -0.0034912005, -0.0520069897, 0.0268639773, 0.0322481617, -0.0579651222, 0.0283381790, 0.0331649929, -0.0690352470, -0.0158560723, -0.0538245514, 0.0686688274, -0.0497482270, 0.0817949772, -0.0343505777, -0.0127635151, -0.0059004724, -0.0411983728, -0.0389493108, 0.0430665612, 0.0144314170, 0.0166395828, -0.0719692111, 0.0153013989, -0.0069639683, -0.0391091779, -0.0181139037, -0.0712018013, 0.0170350000, -0.0524638146, -0.0810513496, 0.0847691298, 0.0078315437, -0.0344788805, 0.0154497251, 0.0416837335, -0.0119309723, 0.0065189451, -0.0468466319, 0.0475755930, 0.0344526842, -0.0146875158, 0.0825387388, 0.0012276545, 0.0692571104, -0.0680271238, -0.0577900931, -0.0475377552, -0.0680120140, 0.0136390030, 0.0471920669, 0.0404535234, 0.0267312229, -0.0221744627, 0.0009299740, -0.0205910876, 0.0073355809, -0.0294177756, 0.0337300375, -0.0681584030, -0.0662347451, 0.0011702403, 0.0433637351, 0.0744673312, -0.0616593547, 0.0524681211, 0.0026787370, -0.0480098873, 0.0477606505, -0.0077944100, 0.0262921080, -0.0632892326, 0.0308030322, 0.0491298139, 0.0069515631, 0.0559312850, 0.0206555501, 0.0116062760, -0.0746358037, 0.0502525568, 0.0506496876, 0.0787275136, 0.0229453743, 0.0358944684, -0.0676669106, -0.0833724737, 0.0221066922, 0.0609003007, -0.0304484330, 0.0076945722, 0.0263180435, 0.0517655909, 0.0654945672, 0.0586618483, -0.0109980032, -0.0616426542, -0.0686625242, -0.0438151769, -0.0161583796, -0.0289235525, 0.0526005775, 0.0290215090, 0.0591281950, -0.0182870924, 0.0397620350, -0.0638638586, -0.0195328966, 0.0105653703, 0.0253959522, -0.0065954402, -0.0604224056, -0.0391407833, -0.0401228070, 0.0407515615, -0.0685795099, 0.0440675765, 0.0344049186, -0.0043175891, 0.0613010526, -0.0240727291, -0.0015247390, 0.0342843682, 0.0406295061, -0.0446902998, 0.0218477771, -0.0512995087, -0.0498447828, -0.0048547685, -0.0221577138, -0.0746814981, -0.0586265400, -0.0511465222, -0.0371749289, 0.0761513859, 0.0238433331, 0.0713972896, -0.0822400376, 0.0624146312, -0.0636240542, 0.0073733628, 0.0238360837, 0.0326109603, -0.0593596138, 0.0477644354, -0.0021036938, 0.0143250600, 0.0826523751, 0.0415749550, -0.0004264191, -0.0748468935, -0.0036272332, 0.0250845999, -0.0650605559, -0.0088854656, -0.0773952231, 0.0722454935, 0.0046877563, 0.0270666480, 0.0485482216, -0.0245583653, -0.0596151687, -0.0573884398, -0.0063177943, 0.0378326252, 0.0177988485, -0.0739803165, -0.0506799184, 0.0419409275, -0.0083336830, 0.0772269368, 0.0259369835, 0.0815942287, 0.0116777867, -0.0597468130, -0.0331973247, 0.0722713321, 0.0789032578, -0.0590223446, -0.0800302699, 0.0143921748, 0.0614755601, 0.0833466053, 0.0294424742, -0.0530133918, -0.0214014798, -0.0019168928, 0.0544032007, 0.0672310442, -0.0511093698, -0.0114551112, 0.0387960598, 0.0839146674, -0.0477189608, 0.0038972050, 0.0150959939, -0.0567044839, -0.0670937672, -0.0319603346, 0.0544369966, -0.0672409236, -0.0577614009, -0.0138952807, 0.0307268426, 0.0778562576, 0.0178349242, -0.0035554394, 0.0117840171, -0.0492955297, 0.0283224285, 0.0181527808, 0.0710745901, 0.0737889111, 0.0283495411, 0.0313579962, -0.0722776502, 0.0190062746, 0.0644413680, -0.0217716917, 0.0739409328, -0.0661254898, 0.0663952231, 0.0611012131, -0.0133071393, 0.0378379896, 0.0389714763, -0.0181877017, -0.0352611318, 0.0103505775, -0.0834467188, 0.0554450452, 0.0271632448, 0.0028923824, 0.0318136290, -0.0338352583, 0.0416753292, 0.0196861848, 0.0562935174, 0.0106132329, -0.0298302807, -0.0077078566, 0.0350810364, -0.0256459378, 0.0254139528, -0.0610903651, 0.0235826746, 0.0691480339, -0.0392311029, 0.0385571718, 0.0149894133, -0.0086538792, -0.0199221596, 0.0222239643, -0.0498900563, 0.0240094140, -0.0673422590, 0.0294934362, -0.0497349836, -0.0841058716, -0.0752398223, -0.0453058779, -0.0404363684, 0.0105194300, 0.0364998877, 0.0350852683, 0.0678464174, 0.0725570768, 0.0406418145, 0.0422684699, -0.0118627399, 0.0676087588, -0.0732330754, -0.0091863275, 0.0087936223, -0.0479984879, -0.0733298138, 0.0833833069, -0.0739042684, 0.0231082141, 0.0108945444, 0.0707823485, -0.0044126660, 0.0271878615, 0.0644175857, -0.0742581412, -0.0247576758, -0.0021886900, -0.0429671630, 0.0565278679, -0.0058757290, -0.0279730521, 0.0427209437, 0.0736030638, 0.0393125936, 0.0414312333, 0.0815019011, -0.0044038817, -0.0768354014, -0.0196731463, -0.0570526458, 0.0096553415, 0.0817167014, -0.0505600385, 0.0763577670, 0.0509973913, -0.0040647089, 0.0313680992, 0.0355836377, 0.0029606745, -0.0319417864, -0.0160165280, -0.0801201686, -0.0630873740, -0.0757866055, 0.0822286308, 0.0083291233, -0.0785708874, -0.0839465857, 0.0368738025, -0.0034204572, 0.0285728797, 0.0522266775, -0.0219362155, -0.0249929801, 0.0582084060, -0.0642024800, -0.0375772528, 0.0367481932, -0.0613222867, -0.0060548112, 0.0341444016, -0.0123912171, -0.0550162531, 0.0187367126, -0.0165588185, -0.0817020983, 0.0020151138, 0.0679271072, 0.0811773688, -0.0656154975, 0.0022832602, 0.0084714592, 0.0143701881, -0.0084677115, 0.0062960759, 0.0694794208, -0.0020044446, -0.0568546355, -0.0443285927, 0.0363404229, 0.0399186015, -0.0006355047, -0.0169665441, 0.0633707941, 0.0228844732, 0.0048424825, -0.0740241483, -0.0828292519, 0.0405534208, 0.0658759177, -0.0296660997, 0.0155210942, -0.0168571323, 0.0639745295, 0.0572441518, 0.0057805702, -0.0795161873, -0.0671415702, -0.0487552471, -0.0087079406, -0.0630327910, 0.0584349334, -0.0570047423, -0.0186672062, 0.0722055584, -0.0321290493, -0.0441725925, -0.0727081373, -0.0011545867, -0.0012532100, 0.0755227953, 0.0730392337, -0.0675989240, -0.0818992034, -0.0548668951, -0.0540422462, -0.0737590790, -0.0495783351, -0.0335491113, 0.0473015308, -0.0659050867, 0.0240554959, -0.0712579489, -0.0051764548, 0.0152619928, -0.0670332536, -0.0617640316, -0.0517304391, -0.0340137333, 0.0634174943, 0.0621581972, 0.0673908442, -0.0245650671, 0.0083083287, 0.0242310166, 0.0128659606, -0.0444999821, 0.0475180745, -0.0108704865, 0.0834527463, 0.0701983124, 0.0585787743, -0.0306096375, -0.0109015256, 0.0497738719, -0.0486377366, -0.0513008647, 0.0700016022, 0.0147547573, 0.0221178904, -0.0502442494, 0.0065361559, -0.0473933555, 0.0266135707, -0.0347413979, 0.0801218897, 0.0030041039, 0.0815778077, 0.0127022862, -0.0444268100, 0.0486289114, -0.0837320536, 0.0001373962, -0.0434734337, 0.0564437509, 0.0387093052, -0.0630820096, 0.0552832335, -0.0149108618, -0.0596259795, -0.0595841929, 0.0405223221, -0.0517652221, 0.0043052956, 0.0099357218, 0.0798846632, 0.0131455511, 0.0659947544, -0.0054028481, -0.0358537100, -0.0051250830, 0.0603401810, -0.0203876868, 0.0014221072, -0.0640742406, 0.0001223907, 0.0474642515, 0.0610494614, 0.0166275725, 0.0308558345, 0.0368727893, -0.0698290765, -0.0296409130, 0.0105966702, 0.0401581526, -0.0216520131, 0.0062819645, 0.0037972033, 0.0721379966, 0.0570614487, -0.0063812286, -0.0566610768, 0.0235280916, 0.0763406157, -0.0230463855, 0.0250197873, 0.0515698642, 0.0194324926, 0.0512967706, -0.0841872618, 0.0092768148, 0.0796789974, -0.0491051115, 0.0008074567, -0.0793479607, -0.0490628146, 0.0383691639, -0.0420961305, -0.0678097159, -0.0818079486, 0.0252868235, -0.0224301741, -0.0508707836, -0.0287314914, 0.0155309364, 0.0612721443, -0.0535589159, -0.0762270540, -0.0771160051, 0.0146601051, 0.0258364603, 0.0690024048, 0.0197043419, 0.0071592927, -0.0672654212, 0.0593454242, 0.0052768737, -0.0096028671, -0.0849095434, 0.0436222255, 0.0627701879, -0.0657193437, 0.0419524610, 0.0780801475, 0.0286789089, 0.0624357164, -0.0638879687, -0.0102723017, -0.0220105425, -0.0517969690, 0.0433545709, 0.0794510096, -0.0763220713, -0.0445571765, 0.0543383062, -0.0424903333, -0.0708799586, -0.0664318874, -0.0232442766, 0.0372630209, -0.0739371926, -0.0500067547, -0.0366725884, -0.0760868043, -0.0730988979, 0.0102052465, 0.0468440950, -0.0640064925, 0.0613310486, 0.0216388106, -0.0195805728, 0.0716734231, -0.0681585670, 0.0328401923, 0.0429834425, -0.0460852981, 0.0744254142, -0.0177933201, 0.0171011463, -0.0488332585, 0.0377926156, -0.0313355625, -0.0003995448, 0.0543482602, 0.0231737345, 0.0026354715, -0.0786511451, 0.0331182033, -0.0800358355, -0.0051860884, -0.0211610347, -0.0180196762, -0.0345040262, -0.0243749507, 0.0844651908, 0.0683575422, 0.0519209653, -0.0170128122, -0.0111689642, 0.0243426785, -0.0202788636, -0.0435335860, 0.0580280721, 0.0289934650, -0.0355954841, 0.0690959990, -0.0245576985, -0.0352771059, -0.0565796830, -0.0138478279, 0.0257097781, -0.0813315287, -0.0306016393, -0.0428540856, -0.0672452971, -0.0332700312, -0.0545983613, -0.0291172341, -0.0261004157, -0.0091143698, 0.0275047421, -0.0081038997, -0.0279709063, -0.0675211549, 0.0393032432, 0.0639171600, -0.0768126696, 0.0496745855, 0.0482409596, 0.0806400478, -0.0275628753, 0.0145515576, 0.0159143209, -0.0467702411, -0.0372067578, -0.0642527118, -0.0393388346, 0.0598309040, -0.0461878069, -0.0477468818, 0.0168477967, -0.0622182861, -0.0548330396, 0.0010702610, 0.0747319013, 0.0521465689, 0.0425719619, 0.0215080008, -0.0047220737, 0.0555013716, -0.0046736822, 0.0648693293, -0.0569452979, -0.0542709753, -0.0114135221, -0.0144434869, -0.0250248089, -0.0198380947, -0.0334534049, 0.0227365494, -0.0025101826, 0.0306570306, -0.0634343401, 0.0613936782, 0.0662560761, -0.0725805610, 0.0504325777, 0.0343440995, 0.0298333615, 0.0283725783, -0.0733565390, -0.0534319095, -0.0314601175, -0.0455874503, 0.0077536702, 0.0404527932, 0.0798281133, -0.0093648434, 0.0684494674, 0.0686074346, -0.0479062237, 0.0324215516, 0.0354080647, -0.0093723387, -0.0564121418, 0.0684507191, 0.0364397541, -0.0661229640, -0.0514765047, 0.0165470317, -0.0766465440, -0.0285699256, -0.0775722414, 0.0309369043, -0.0667663962, -0.0546477027, -0.0220991448, 0.0741062313, 0.0205870196, -0.0488901511, -0.0523565859, 0.0497190952, -0.0430070311, 0.0306411237, -0.0003891438, -0.0057929233, 0.0398022383, 0.0338358432, 0.0383483469, 0.0436756015, 0.0790284276, 0.0414360762, -0.0341080427, -0.0407724418, 0.0188001841, -0.0678848699, -0.0384559184, -0.0745286569, -0.0279800780, 0.0185563341, 0.0191732123, -0.0028831065, -0.0297045894, 0.0284378976, -0.0285159051, 0.0263960138, 0.0677582324, -0.0599036030, -0.0386425704, 0.0412480384, 0.0156805143, -0.0710164458, -0.0116996914, 0.0476062745, 0.0149504989, 0.0772444457, 0.0409580022, -0.0622344837, 0.0512156636, 0.0808579773, -0.0338825546, 0.0761290938, -0.0591805950, 0.0278050452, 0.0617292225, -0.0076458976, 0.0529264361, 0.0582575202, 0.0838581473, -0.0074527264, -0.0581035092, 0.0812274963, -0.0268453509, -0.0719418973, -0.0432670563, 0.0329898000, 0.0724555999, -0.0240140557, -0.0216536969, 0.0580051541, -0.0699008703, -0.0524151810, 0.0431452394, 0.0143453702, 0.0377651006, 0.0163941309, 0.0267472938, -0.0191290528, 0.0220593363, 0.0506904125, -0.0662891045, -0.0093033761, 0.0413612574, -0.0779159516, -0.0388669856, 0.0355772004, 0.0592620075, -0.0597170517, -0.0017596632, 0.0360053629, -0.0544322580, -0.0747480318, 0.0527932495, 0.0451853722, -0.0832322836, -0.0655850023, 0.0667130947, -0.0398628414, -0.0323961861, 0.0190249234, 0.0711729079, 0.0799841285, 0.0592921376, 0.0834208578, -0.0128554106, 0.0694617778, -0.0530742332, 0.0460072905, -0.0472699702, 0.0117967352, -0.0266118869, -0.0787333101, -0.0490025394, -0.0666809604, -0.0821547806, 0.0479984879, -0.0189820454, 0.0223714635, -0.0566540696, 0.0487485528, -0.0736543089, 0.0276717395, 0.0157418400, 0.0194431841, -0.0742016733, 0.0481457561, -0.0121050924, 0.0488135964, -0.0330410227, 0.0493906289, -0.0254279226, 0.0414558053, -0.0192093328, 0.0661070943, 0.0252696499, 0.0752034783, 0.0065406337, -0.0506862551, -0.0728922412, 0.0494337380, -0.0485352874, 0.0408056527, -0.0218707025, 0.0258318409, -0.0632172972, -0.0284963474, -0.0459184013, -0.0695223361, -0.0023866966, 0.0422196388, 0.0437452793, -0.0212031454, -0.0278008953, 0.0183153227, 0.0285624564, 0.0255316272, 0.0529461950, 0.0146968067, 0.0371120870, -0.0645557642, 0.0254127979, 0.0432208329, -0.0074357763, -0.0280096978, -0.0543526858, 0.0076226965, 0.0633942485, -0.0791476145, 0.0367187709, 0.0774260461, -0.0026567876, -0.0494741276, 0.0602878034, 0.0839510262, -0.0649710894, 0.0463736653, 0.0338989347, 0.0783838481, -0.0365216509, 0.0127798915, 0.0403566957, -0.0487991422, 0.0288514942, 0.0391394645, -0.0067326352, 0.0740265399, -0.0506962165, 0.0165317655, -0.0133922547, -0.0402597561, 0.0049469545, -0.0463681631, -0.0527789146, -0.0806493536, 0.0503451377, 0.0378632173, -0.0269833729, 0.0016067177, 0.0728928447, -0.0514390692, -0.0561100021, 0.0572764724, 0.0521986634, 0.0477214903, 0.0542777181, -0.0552039407, -0.0294740200, -0.0109693930, 0.0662771761, -0.0735217109, -0.0230871588, 0.0366200730, -0.0807368606, -0.0066509768, -0.0638990849, -0.0141499490, 0.0615441650, -0.0207888782, 0.0247278139, -0.0562835932, -0.0223578513, -0.0065775216, 0.0690318644, 0.0215475634, 0.0318117216, 0.0674568266, -0.0443454795, -0.0702469051, -0.0204442590, 0.0543799400, 0.0202130005, -0.0026483461, -0.0787414089, -0.0825326219, 0.0765261799, -0.0027760044, -0.0447043516, -0.0360393114, 0.0692987144, -0.0140793473, 0.0006771088, 0.0834620446, -0.0753742382, -0.0343125351, -0.0149448514, -0.0417431891, -0.0490869097, 0.0188776106, -0.0756110027, -0.0003937781, -0.0395919196, -0.0195300579, -0.0192760080, -0.0825025961, -0.0798412263, 0.0700651109, -0.0390824713, -0.0174289197, -0.0611486956, -0.0145165548, 0.0136099309, 0.0549923629, 0.0537896305, -0.0542934686, -0.0138550550, -0.0499481000, 0.0416958779, 0.0631088763, -0.0798558071, 0.0211316720, -0.0639135242, 0.0627995729, -0.0824756250, -0.0281888396, -0.0134673715, 0.0080987364, -0.0615233369, 0.0736419708, -0.0326745771, 0.0196303651, 0.0302837491, -0.0249237381, -0.0125093162, 0.0098864585, -0.0460230596, 0.0727128386, 0.0614673495, 0.0116147995, 0.0409238487, -0.0571600944, 0.0033818483, 0.0257413164, 0.0381847918, -0.0590335205, -0.0740133822, -0.0320456922, -0.0322269201, 0.0181234181, -0.0282902345, -0.0478447340, -0.0034368560, -0.0342987254, -0.0137106106, -0.0070198104, 0.0665734559, -0.0750481859, -0.0528566390, 0.0386290699, 0.0714991391, 0.0319331810, 0.0708457232, -0.0826942697, -0.0681550652, -0.0605485216, -0.0500235222, 0.0349837318, 0.0195925832, -0.0358781479, 0.0518290848, -0.0335019566, -0.0695696771, -0.0837277845, 0.0299718827, -0.0769656077, -0.0668498576, -0.0609486774, -0.0074988455, -0.0492036901, 0.0603009164, 0.0457326174, 0.0188103318, -0.0623843484, 0.0101078749, -0.0103856847, 0.0251827165, 0.0132516995, -0.0135874748, -0.0279498696, -0.0067499205, 0.0538830310, 0.0030531213, -0.0185827613, 0.0570009351, 0.0266846120, -0.0545165055, 0.0568937957, 0.0177552551, 0.0796200931, -0.0212587044, 0.0540600866, -0.0552477166, 0.0516286939, 0.0227755457, 0.0672677457, 0.0757761598, -0.0011345446, 0.0391635820, -0.0738100633, -0.0708191395, 0.0129579827, 0.0527864248, 0.0109626502, 0.0109687671, -0.0636639372, 0.0397012532, 0.0466073602, 0.0295163170, -0.0732556880, 0.0824785978, 0.0746711940, 0.0172899440, -0.0221803337, 0.0763854831, -0.0232279375, 0.0578192919, -0.0057545155, 0.0593490005, -0.0722034052, 0.0758394152, 0.0052611455, -0.0363850668, -0.0804827884, 0.0059457868, 0.0504401326, -0.0743887350, -0.0079452693, -0.0691334456, -0.0349035971, 0.0797233284, 0.0560633987, 0.0196728632, 0.0437338203, -0.0131918564, 0.0169325322, -0.0744940564, 0.0204776227, 0.0698503703, -0.0096922144, 0.0742162317, -0.0536316223, -0.0473111719, 0.0226894990, 0.0468531698, 0.0292189345, -0.0748281851, -0.0671079233, -0.0171707571, -0.0634032860, 0.0286813602, -0.0681777373, 0.0639633834, -0.0198241845, -0.0053697899, 0.0346856415, 0.0059580579, 0.0001812652, 0.0755809993, -0.0347266793, 0.0645067245, -0.0329365060, -0.0008032098, -0.0288859531, -0.0561938621, -0.0035990924, -0.0659032241, -0.0296959244, -0.0282241702, -0.0656962022, -0.0409057885, -0.0560982563, -0.0446894877, -0.0526696406, -0.0607206970, -0.0310713015, 0.0421737581, 0.0624834001, -0.0544539429, 0.0539378673, 0.0304667354, 0.0546191484, 0.0188138932, 0.0771280676, -0.0819917098, -0.0709665939, -0.0610345416, -0.0688435286, -0.0170579404, -0.0580997244, 0.0162601992, 0.0202994347, -0.0704465434, 0.0218157321, -0.0123735666, 0.0413986295, 0.0595493466, 0.0272523910, -0.0819232985, -0.0762090757, -0.0810193643, 0.0652621090, -0.0348599851, 0.0085809305, -0.0045550019, -0.0239906907, -0.0635052025, -0.0197966471, -0.0276694112, -0.0324765034, 0.0794997662, -0.0493981205, 0.0035158396, -0.0041005388, 0.0322216600, -0.0282129534, 0.0260080919, -0.0727232993, 0.0096353218, -0.0389819480, -0.0549549237, -0.0375465974, -0.0592089184, 0.0531921238, -0.0813181251, -0.0006743744, 0.0570219457, 0.0107705742, 0.0768834502, -0.0356413834, -0.0310058035, -0.0110875145, -0.0341132060, -0.0786218494, 0.0479112267, -0.0436752737, -0.0147758350, 0.0022367761, -0.0189750344, 0.0435542017, -0.0752096325, -0.0301240608, 0.0260746405, 0.0011440217, -0.0264129639, -0.0256407559, -0.0215650946, -0.0756119564, -0.0730782300, -0.0700908899, -0.0401565805, 0.0610266626, 0.0522036254, 0.0607408285, 0.0504121780, 0.0249707103, -0.0037840083, 0.0268728435, -0.0021673441, 0.0495552570, 0.0229269862, -0.0529413931, -0.0332548656, 0.0497561842, 0.0634070933, -0.0185145065, -0.0448446199, 0.0591254681, 0.0145313963, -0.0005424917, -0.0449606925, -0.0604541078, 0.0708097219, -0.0657180697, 0.0710241348, -0.0504643731, -0.0764006451, -0.0616118386, -0.0611651540, -0.0734848827, -0.0231827237, -0.0531757884, -0.0387101360, -0.0132032931, -0.0129520893, -0.0067020804, -0.0129776821, 0.0194772780, 0.0633979589, 0.0314724669, -0.0400776565, -0.0683444887, -0.0661751777, 0.0661867410, -0.0173551217, 0.0834434777, 0.0482717305, 0.0367803425, -0.0119514838, -0.0485100001, 0.0351073816, 0.0043572932, -0.0034830198, -0.0774344206, -0.0065137222, -0.0232307911, 0.0738117844, -0.0402608290, 0.0359402671, 0.0270010084, 0.0796063244, -0.0523771569, -0.0532353744, -0.0751255751, -0.0252547525, 0.0072403774, 0.0191297606, -0.0624176115, -0.0018358082, 0.0010938495, -0.0374470875, 0.0403049290, 0.0417776555, -0.0131839737, -0.0167433023, 0.0511215031, -0.0168173239, 0.0229908675, -0.0443931185, 0.0568273664, 0.0843331367, -0.0714809000, -0.0477170385, -0.0397867113, -0.0135666803, 0.0431113392, 0.0267784148, -0.0611889213, 0.0044545755, 0.0031916052, 0.0617762357, 0.0141381398, -0.0422011912, -0.0434407555, -0.0115071461, -0.0313202552, 0.0169079080, -0.0223358870, 0.0799940228, -0.0610786006, 0.0615626425, 0.0840551108, 0.0791950375, -0.0455972701, 0.0725425333, 0.0356129408, 0.0494957715, -0.0185381100, -0.0074966401, -0.0003276542, 0.0828072429, -0.0225846581, 0.0511353612, -0.0455468558, 0.0816378593, -0.0695805252, 0.0848346055, -0.0496732332, -0.0272883475, -0.0566749834, -0.0730172023, 0.0830916762, -0.0843835920, 0.0641170591, -0.0727489516, 0.0310802907, 0.0767011940, 0.0012705997, -0.0170964450, 0.0266016051, 0.0371894687, 0.0423856229, -0.0669115707, -0.0472389534, -0.0170330927, -0.0331923850, -0.0146070197, -0.0672383085, -0.0619118921, 0.0608352125, 0.0175120533, -0.0407424979, -0.0399418026, -0.0292544849, 0.0291070044, 0.0382010937, 0.0606497377, -0.0837344825, 0.0525845885, 0.0256449282, 0.0497452468, 0.0224715620, 0.0787354410, -0.0813541412, 0.0034274012, 0.0325846002, -0.0634467527, 0.0284367204, 0.0255480036, 0.0153842643, -0.0072173551, -0.0009595305, -0.0279991888, 0.0541028231, 0.0735939443, 0.0634580106, -0.0428612120, -0.0529160053, -0.0732519254, -0.0213177800, -0.0342111774, -0.0561820790, 0.0810002089, 0.0279673412, 0.0525103360, 0.0223770663, 0.0423355550, -0.0396884754, 0.0030817688, 0.0232331380, -0.0422896296, 0.0566869676, 0.0431490839, -0.0777914152, 0.0270428210, -0.0686029941, -0.0800478831, -0.0124702230, -0.0068382993, 0.0799674392, 0.0348054767, 0.0508903414, -0.0653917938, 0.0027342141, -0.0748776123, 0.0718021244, -0.0362910591, -0.0137191787, 0.0299551189, 0.0325893983, 0.0069150329, -0.0432116836, -0.0132326931, -0.0785425007, 0.0641263127, 0.0570053458, 0.0029384047, -0.0555661544, -0.0198018923, -0.0152031183, 0.0559023023, 0.0619469732, -0.0333335251, -0.0394997969, 0.0139899552, -0.0722883791, -0.0792543963, -0.0759445280, -0.0651599467, -0.0577405244, -0.0174052939, -0.0376995020, 0.0079821572, 0.0133411735, -0.0085433573, 0.0285320804, 0.0270093307, 0.0211601406, 0.0441718698, -0.0534407981, -0.0450750478, 0.0169597045, -0.0627094060, 0.0157853514, 0.0372778624, -0.0198843777, 0.0213376060, -0.0680836886, -0.0739301294, 0.0010367930, 0.0812668651, -0.0429154523, -0.0636702552, -0.0821833685, -0.0294501483, -0.0482046604, -0.0736737400, 0.0487609357, -0.0708366111, 0.0514742732, -0.0289650373, 0.0723740309, 0.0063573420, 0.0431277156, -0.0212315693, 0.0488896668, -0.0668406039, -0.0390690491, 0.0344693214, -0.0188739076, -0.0584568158, -0.0045252740, 0.0072035491, -0.0710068867, -0.0796620026, 0.0057933703, 0.0607760549, -0.0702846497, -0.0711733550, 0.0075703561, 0.0438957959, 0.0649788827, -0.0174890682, 0.0463210642, -0.0422150418, 0.0029734895, 0.0336815640, -0.0142807588, -0.0767950118, -0.0778191686, 0.0610096753, -0.0151165873, 0.0276093781, -0.0141175911, 0.0729912668, 0.0803166181, -0.0292938240, -0.0399553478, -0.0628245696, 0.0397238061, 0.0219119415, 0.0521521419, 0.0437987000, -0.0331984609, 0.0079478621, 0.0371578857, 0.0413699448, -0.0694362745, -0.0499312580, 0.0024240166, -0.0607435182, -0.0290774666, 0.0300338641, 0.0745581388, 0.0159688890, 0.0347827226, -0.0286824144, -0.0511397608, 0.0099994391, -0.0467803851, -0.0645595714, 0.0754428804, -0.0328103900, 0.0358722359, -0.0581790097, 0.0338760167, -0.0292412639, -0.0501271822, -0.0009544864, 0.0273267999, -0.0784168094, 0.0495448261, -0.0751675442, 0.0027801767, 0.0503090769, 0.0664393008, -0.0640085191, -0.0504907519, -0.0176212862, -0.0689468458, -0.0174056143, -0.0021388978, 0.0286141038, -0.0525334440, -0.0638935789, -0.0812017843, 0.0130717531, -0.0041661412, 0.0739438087, -0.0765520930, 0.0234965906, -0.0811352581, -0.0466703251, 0.0204033405, 0.0487065315, -0.0065201223, -0.0139017403, 0.0512479395, 0.0447508097, 0.0669217557, 0.0670583993, -0.0067042261, -0.0502482168, 0.0298112482, -0.0005679429, -0.0824635178, 0.0400326699, 0.0721280724, 0.0552291423, 0.0494281501, 0.0758172721, -0.0650194958, 0.0765126795, -0.0205587521, 0.0607245266, -0.0368835814, 0.0636875927, 0.0275762975, -0.0778670311, -0.0122382566, 0.0525846928, 0.0284544751, 0.0065835342, -0.0293278396, 0.0361942798, 0.0746976733, 0.0340024382, -0.0548330396, 0.0707650036, -0.0055634081, -0.0004225075, -0.0105139464, -0.0384763069, -0.0275696553, -0.0701794848, -0.0649017617, -0.0791899711, 0.0478157401, -0.0615464821, 0.0600156635, -0.0057018548, 0.0044864267, 0.0088468939, -0.0415122993, -0.0241532922, 0.0323163942, 0.0003300011, -0.0634455830, -0.0619976781, -0.0006747022, 0.0842046887, 0.0278077349, -0.0569373816, -0.0045345128, -0.0427148491, 0.0816249400, -0.0610848367, 0.0154466853, -0.0382734351, -0.0224171132, 0.0491985530, 0.0096400753, -0.0577252582, -0.0313509889, -0.0727839023, 0.0449361205, -0.0675326586, 0.0435243100, 0.0489777178, 0.0077501088, 0.0434075445, -0.0717987791, -0.0173238963, 0.0593157411, 0.0444996953, 0.0334845260, -0.0589452684, -0.0783102736, 0.0648411810, 0.0242975652, 0.0218829513, -0.0457860082, 0.0157643184, 0.0214473233, -0.0803292170, -0.0515198521, -0.0451669283, 0.0135520622, -0.0089896545, -0.0807581991, -0.0143673941, 0.0060072169, 0.0378919691, -0.0425280556, 0.0726283640, 0.0540917963, -0.0691218227, -0.0809998065, 0.0154791400, 0.0203620568, 0.0355552956, -0.0400716253, 0.0821258873, -0.0147703290, -0.0360290483, 0.0248873755, -0.0449559353, 0.0161098093, -0.0149430484, -0.0758573487, -0.0314578116, -0.0307161547, 0.0060511082, -0.0465689488, 0.0553180873, -0.0493714772, 0.0702887177, -0.0263423845, -0.0328890905, -0.0505051501, 0.0816421509, -0.0037046820, 0.0316822082, 0.0815831721, 0.0595885217, 0.0248716399, -0.0725588351, -0.0265610069, 0.0360774994, 0.0506782830, -0.0760148838, 0.0755306929, -0.0205965117, 0.0700573623, 0.0571002662, 0.0538705736, -0.0200742483, 0.0709261298, 0.0753477365, -0.0145062655, 0.0111963972, -0.0117109120, -0.0456949808, -0.0096017718, -0.0403360873, -0.0273868069, 0.0473725349, -0.0405926928, 0.0463594943, 0.0436321497, 0.0151011199, 0.0768413842, 0.0636344254, -0.0093141273, -0.0379155129, 0.0078801960, -0.0545492433, -0.0204700902, -0.0331791863, -0.0056181699, 0.0732754618, -0.0535022654, 0.0831989944, 0.0398823768, -0.0039458796, -0.0460051186, -0.0762110576, 0.0602678061, 0.0439365208, 0.0152570531, 0.0050068870, 0.0842094123, 0.0330762938, -0.0383709036, 0.0297401026, -0.0204696655, -0.0351828970, -0.0832048729, -0.0498687550, 0.0547850132, -0.0260495767, 0.0125670210, 0.0427398533, 0.0392518565, 0.0361857563, 0.0575211346, 0.0177138895, -0.0241959915, -0.0362047292, -0.0669932812, -0.0531313680, -0.0501122624, -0.0192944258, -0.0671499744, 0.0757296681, 0.0841243565, 0.0487669110, 0.0269005001, -0.0516166128, 0.0311317816, 0.0841614604, -0.0196528137, 0.0243515670, 0.0431311876, 0.0098944604, -0.0065539926, 0.0085577518, -0.0667963624, -0.0255108327, 0.0638869554, 0.0242843479, -0.0140549466, 0.0408846289, 0.0710497946, -0.0174031034, -0.0299315751, 0.0275862217, 0.0826162398, 0.0325406641, 0.0710919648, -0.0719270557, -0.0794433430, 0.0358204693, -0.0640552044, 0.0734317303, 0.0602777749, -0.0078757778, 0.0117121041, 0.0430462807, -0.0554296300, 0.0222265348, -0.0390174985, 0.0116712898, 0.0280266255, -0.0736610442, 0.0047950819, 0.0337990150, 0.0550409108, -0.0093337670, 0.0096491873, 0.0557728261, 0.0410026610, 0.0736638010, 0.0325549617, 0.0131224692, 0.0629562140, -0.0447619930, -0.0284329541, -0.0539166555, -0.0050446242, 0.0247689337, -0.0491430536, 0.0124903843, 0.0596980602, -0.0533900782, 0.0700709224, -0.0708922297, -0.0011750981, 0.0229101852, 0.0356835797, 0.0124137327, 0.0132126063, -0.0142299011, -0.0663167983, 0.0085985437, -0.0528046861, -0.0457778089, 0.0102145746, 0.0251170099, -0.0601612628, -0.0394882150, 0.0662230551, -0.0767773762, 0.0185227096, -0.0290497690, 0.0809329301, -0.0843179971, -0.0255683102, 0.0564334393, -0.0545899197, -0.0769749060, 0.0619844347, -0.0848223418, -0.0070936903, 0.0774091929, -0.0217133388, -0.0304636583, 0.0808985680, 0.0723205209, 0.0190410614, 0.0227895156, -0.0541084334, -0.0522087850, -0.0638894662, -0.0400210693, -0.0018658116, -0.0703527182, -0.0154346377, 0.0320822001, 0.0823240578, -0.0511947721, 0.0021825507, -0.0322775394, -0.0840464681, 0.0009962991, 0.0153282210, 0.0745893568, -0.0325753689, 0.0115432888, 0.0454583615, 0.0359831899, 0.0811316520, -0.0428364500, 0.0809035450, -0.0666378140, -0.0823774934, 0.0015900955, -0.0104674399, 0.0511805117, 0.0433816165, 0.0065579861, -0.0835108161, 0.0318821445, -0.0006492734, -0.0284961648, -0.0232738145, -0.0438833684, 0.0297307074, 0.0068108216, 0.0176771805, -0.0168499425, -0.0639554933, 0.0147931203, 0.0121646002, 0.0509699583, -0.0197458863, 0.0019500181, 0.0484751910, 0.0179855004, -0.0213021711, 0.0102453753, 0.0729226172, -0.0515137389, 0.0791461170, 0.0629987121, -0.0125745311, 0.0367072523, 0.0498292297, 0.0679122657, 0.0308200791, 0.0427773446, -0.0680581629, 0.0759862810, -0.0793018788, 0.0570280254, 0.0436244309, 0.0608361214, -0.0389972553, 0.0358843282, 0.0529397726, -0.0331388339, 0.0083798245, 0.0306698531, -0.0664817095, 0.0840741247, 0.0773983002, 0.0522585362, 0.0543868244, -0.0461135618, 0.0163773671, 0.0745391101, 0.0449218452, -0.0531775318, 0.0825651437, -0.0304966196, -0.0125446469, -0.0708254576, 0.0196387470, -0.0748233497, 0.0705826581, -0.0441581756, 0.0406692028, -0.0566361509, 0.0641637743, -0.0628493354, 0.0665329695, -0.0592125431, -0.0248671472, 0.0816334039, -0.0271385238, 0.0741705298, -0.0677738786, 0.0032215118, -0.0502050929, -0.0588673167, -0.0618196279, 0.0430524796, 0.0217828676, -0.0793838724, 0.0306094140, 0.0565651059, 0.0412884653, 0.0347460583, 0.0006593764, 0.0725912899, -0.0111525431, -0.0101754591, 0.0674682856, 0.0000199005, -0.0813255906, 0.0183476955, 0.0099017844, 0.0695984215, 0.0672626048, 0.0836549997, 0.0274724513, 0.0455005914, -0.0811296701, 0.0563019961, 0.0737805665, 0.0428109467, -0.0067624375, 0.0410508513, 0.0358867720, 0.0446722209, -0.0067268610, -0.0070045069, 0.0798413455, 0.0549195707, 0.0743382424, -0.0182165951, 0.0332965106, 0.0317650512, 0.0629416257, -0.0622350909, -0.0440143012, 0.0823717564, -0.0550545603, -0.0753690600, -0.0208837911, -0.0821016282, 0.0203774422, -0.0642620251, -0.0255783536, 0.0551567078, -0.0190581083, -0.0051539764, 0.0018022582, -0.0082317144, 0.0176383480, -0.0587816536, -0.0198183358, 0.0008986294, 0.0709402561, 0.0191702321, -0.0211614147, 0.0118711218, -0.0699993894, -0.0091016963, -0.0668874532, -0.0788122118, -0.0168963522, 0.0074618608, 0.0047275797, 0.0769239217, 0.0269740224, 0.0114687160, 0.0017319024, 0.0269912109, -0.0508644283, 0.0588002056, 0.0430488735, -0.0053643584, -0.0109585449, -0.0476691946, 0.0711809099, 0.0282511786, 0.0349493101, 0.0636571348, -0.0440635011, -0.0622283071, -0.0368444212, 0.0274737701, 0.0547678024, 0.0254020840, -0.0487889163, 0.0814152211, -0.0699601546, -0.0699361637, -0.0398024656, -0.0524448417, -0.0566641912, 0.0669599771, -0.0725441352, -0.0177577883, -0.0074397698, -0.0705674514, -0.0697281659, 0.0372357517, -0.0384265594, -0.0370595232, -0.0660515726, -0.0090629458, -0.0599854998, 0.0201751217, -0.0215778947, 0.0211485773, -0.0846198127, 0.0144374296, -0.0795621648, -0.0101996362, -0.0546962544, 0.0560386479, 0.0530616641, 0.0678074658, 0.0417005271, -0.0320931934, -0.0694352984, -0.0021923110, -0.0402154550, 0.0435280651, -0.0840542987, 0.0208121240, -0.0445410796, -0.0182336420, -0.0236322843, 0.0298123434, -0.0651489496, 0.0669634640, 0.0646727383, -0.0672496259, -0.0228346251, -0.0554740131, -0.0496050827, 0.0391041562, -0.0551666245, -0.0155383646, 0.0553683788, -0.0563920960, 0.0052745044, 0.0031689480, 0.0252278224, 0.0418554395, -0.0540584251, 0.0131068751, -0.0573074073, -0.0428121760, 0.0782433152, 0.0717508346, 0.0240617990, 0.0009601563, -0.0769298524, -0.0171517655, -0.0581187159, 0.0511322021, -0.0350622274, -0.0778469071, 0.0230195150, -0.0631875545, 0.0633962005, -0.0610645078, -0.0492658094, -0.0356558003, 0.0696349144, -0.0016854182, 0.0155583471, -0.0567306019, 0.0591274202, 0.0633876771, -0.0734086707, -0.0775206536, 0.0547770858, 0.0806499869, 0.0522390604, -0.0724485517, -0.0558647141, -0.0594561510, -0.0832430571, -0.0414065085, -0.0135062262, -0.0285807960, -0.0615723729, -0.0646678135, -0.0213654190, -0.0420839228, -0.0431719199, 0.0730900466, 0.0706329346, -0.0252364464, 0.0485982001, -0.0756490901, -0.0109954327, -0.0185795203, -0.0016338453, -0.0096892565, -0.0596089922, 0.0041436255, 0.0503625572, -0.0741102993, -0.0344592817, -0.0795914009, 0.0068637729, -0.0332882740, -0.0116000175, -0.0662508383, -0.0671733767, 0.0383188054, -0.0842417032, 0.0106305033, 0.0490963906, 0.0638841391, -0.0808147117, 0.0554562509, -0.0189134032, -0.0654275715, -0.0496629067, 0.0113141984, 0.0165987462, 0.0149733201, -0.0785010159, 0.0516270846, 0.0367857069, 0.0659099817, -0.0496355928, -0.0369527414, 0.0097436011, 0.0063609630, 0.0088335127, -0.0594973341, -0.0673945993, 0.0215528458, 0.0620680004, -0.0396311767, -0.0414565168, -0.0477963649, 0.0486192256, -0.0391771235, 0.0244039819, 0.0580008924, 0.0143651888, -0.0140216649, -0.0243557580, 0.0835617334, 0.0246121436, -0.0530463308, -0.0674827471, 0.0457593501, 0.0588138103, 0.0416606516, -0.0383928306, 0.0607327819, 0.0647946298, -0.0530408658, 0.0621566474, -0.0649970025, -0.0820177272, 0.0493506193, 0.0639975220, 0.0141198188, -0.0662932768, 0.0166718736, -0.0382416658, -0.0600144938, 0.0562812835, 0.0248802304, 0.0282177925, -0.0822282284, -0.0788163170, 0.0415578783, -0.0559958071, -0.0689556748, 0.0712427199, -0.0740920752, -0.0468885228, -0.0273259282, 0.0006418005, -0.0080663636, -0.0233157873, 0.0380594507, 0.0844072849, 0.0042352825, -0.0460969582, -0.0354437977, 0.0767916739, -0.0415765420, -0.0532603189, 0.0380879119, 0.0528145432, 0.0691660047, -0.0801925510, 0.0674402863, 0.0011616126, 0.0220370442, -0.0740485489, -0.0360840186, -0.0001042709, 0.0231351852, -0.0681198910, -0.0704324692, 0.0184408873, 0.0087956712, -0.0443331078, 0.0598039627, 0.0551526099, 0.0375501812, -0.0560129359, -0.0208436027, 0.0326902494, 0.0741913468, 0.0636931956, 0.0311140046, 0.0360102803, -0.0179468468, 0.0123045444, 0.0592250824, 0.0739139020, 0.0394700542, 0.0821042210, 0.0421752781, -0.0112022534, 0.0792872608, -0.0846914649, -0.0150737613, 0.0818694830, 0.0848348737, -0.0233029909, 0.0279000252, -0.0836170912, -0.0534152649, 0.0053481609, 0.0119295344, 0.0277380273, -0.0031519830, 0.0145216137, -0.0644897223, 0.0585652143, -0.0597331449, 0.0610689968, -0.0800652355, -0.0415503010, -0.0058977827, -0.0140277967, -0.0361681618, -0.0675929114, -0.0770649016, -0.0496409796, 0.0234390497, 0.0814118385, 0.0836983919, 0.0586632341, -0.0742295533, 0.0121728554, 0.0673814118, 0.0645257533, 0.0185627118, 0.0246770531, 0.0238093212, 0.0620783269, -0.0569805875, 0.0715325177, 0.0800285339, 0.0124456584, 0.0824956149, 0.0290149078, 0.0553572923, -0.0626153797, -0.0396456756, -0.0528620444, 0.0539378077, -0.0771079659, -0.0686326399, 0.0381809101, 0.0171421021, 0.0542454422, -0.0074271560, -0.0693655089, -0.0560007691, 0.0301061198, -0.0774830952, -0.0029904172, 0.0344432443, -0.0075830743, -0.0621698946, -0.0643280298, -0.0128070638, 0.0317739844, -0.0599335656, -0.0609522611, 0.0848975778, 0.0267839804, -0.0008395910, 0.0396210775, 0.0576557070, -0.0268020853, -0.0459606573, 0.0215149447, -0.0764365047, 0.0052610189, -0.0192011148, 0.0506327301, 0.0752923638, -0.0344195776, 0.0716962069, -0.0020425841, 0.0650524944, 0.0241129175, -0.0338454619, 0.0590385795, -0.0316730738, 0.0384689346, -0.0294975862, -0.0145497769, 0.0352323577, 0.0051428229, -0.0416382104, 0.0262035131, 0.0511698127, 0.0142176896, -0.0053907633, -0.0170167163, 0.0063002408, 0.0281202868, 0.0406195372, -0.0350618623, 0.0424185544, 0.0129145533, -0.0015251637, -0.0192728639, 0.0384017006, -0.0270343535, 0.0781094730, -0.0339687467, 0.0650609136, -0.0719785839, -0.0438827202, 0.0058703870, 0.0341270715, -0.0092762858, -0.0549205467, 0.0571813583, -0.0597738996, -0.0836033449, 0.0813732147, 0.0773430765, 0.0300216898, -0.0643136352, 0.0206646621, 0.0842334628, 0.0072578490, 0.0348847061, 0.0478190780, -0.0384182781, -0.0717855543, 0.0580585450, -0.0643797591, 0.0129582882, -0.0508227982, 0.0588888377, 0.0712424219, 0.0242939815, 0.0451449007, -0.0587648675, -0.0524570122, 0.0476599634, -0.0710486174, -0.0059867054, 0.0540082455, -0.0196552649, 0.0772136748, -0.0578388274, 0.0745419860, -0.0084886700, -0.0021023527, -0.0146191418, 0.0730758756, -0.0637215823, -0.0361283571, -0.0092160106, -0.0247351415, 0.0477610379, 0.0828140527, -0.0691389069, -0.0338717438, -0.0447511412, 0.0198030695, 0.0499139279, 0.0009606853, -0.0097293481, 0.0264968872, -0.0366017669, -0.0232753120, -0.0274997056, 0.0203465298, 0.0826643854, 0.0361267775, 0.0038982406, 0.0693427771, 0.0402482003, 0.0013387725, 0.0427804142, -0.0097127035, -0.0185151547, -0.0136274844, -0.0796416402, -0.0054039210, 0.0425561368, -0.0792537928, 0.0805360526, 0.0628073066, -0.0236693136, 0.0036534965, 0.0822113305, -0.0281408168, 0.0266508833, 0.0567141175, 0.0018042624, 0.0658292770, 0.0122665167, 0.0762254596, -0.0822250769, -0.0529803671, 0.0613248795, -0.0544244051, -0.0382735766, -0.0819754750, 0.0832591355, -0.0186351389, 0.0753735602, 0.0130198598, -0.0039687976, 0.0537248552, -0.0157112107, -0.0274051726, -0.0529125221, -0.0377013423, 0.0409595668, 0.0464573056, 0.0240287706, -0.0210120380, 0.0713098943, 0.0479900837, 0.0169505477, 0.0255503953, -0.0352488421, 0.0442159623, -0.0440372229, -0.0705982074, 0.0267428234, 0.0583733171, -0.0368801802, 0.0266940296, -0.0470028780, 0.0210599005, 0.0268044323, 0.0254724249, 0.0583483875, 0.0036962777, 0.0590553135, -0.0300661959, -0.0249358267, -0.0025136098, 0.0486303270, -0.0648198053, 0.0646093339, 0.0254935995, 0.0616236776, -0.0443237945, 0.0202482715, 0.0699561238, -0.0487092063, 0.0255417675, 0.0020978600, -0.0437344126, -0.0573229790, -0.0662369281, -0.0392775089, 0.0823555440, -0.0488969944, -0.0259305649, 0.0084818825, -0.0712875500, 0.0688089430, -0.0246847458, 0.0760551542, -0.0559341758, -0.0561042279, -0.0292507596, -0.0556815192, -0.0148616955, 0.0709448457, 0.0219332576, 0.0448635966, -0.0090915710, 0.0253179446, -0.0135409683, -0.0325659141, 0.0053142533, 0.0762670338, 0.0406485349, -0.0519224368, 0.0303325206, -0.0784396678, -0.0037136450, 0.0429678261, -0.0644275397, 0.0716029257, 0.0141552687, 0.0438192934, 0.0684004724, 0.0564334393, -0.0543879792, 0.0071595311, -0.0340340808, -0.0454146452, -0.0756061226, 0.0321903601, 0.0787692666, 0.0294829085, -0.0610435717, -0.0789879933, 0.0246945620, -0.0392471775, -0.0313672274, -0.0215496868, 0.0409236401, -0.0632618219, 0.0551515073, 0.0769276619, -0.0425771512, -0.0144395977, 0.0339466184, -0.0036533922, 0.0537219495, -0.0350499786, -0.0415203758, 0.0633040965, -0.0118756741, 0.0051261783, 0.0247464776, 0.0189899355, -0.0323671922, 0.0637549907, 0.0407012105, -0.0022725463, -0.0046403632, 0.0014073476, 0.0196788907, 0.0667267144, 0.0677694231, 0.0357905999, -0.0774924532, 0.0613346249, -0.0434030741, 0.0532290041, -0.0237082280, 0.0153318048, 0.0012018457, -0.0469207354, -0.0844734907, 0.0217379406, 0.0783585012, -0.0282940827, -0.0816007853, -0.0324734040, 0.0765136778, -0.0229495019, -0.0199616402, -0.0746996030, -0.0345603526, 0.0721906871, 0.0845726132, -0.0299530178, 0.0082380176, -0.0043946877, 0.0470332205, -0.0340979993, 0.0600490570, -0.0373128094, 0.0762062222, -0.0130639970, 0.0659900457, -0.0812146813, 0.0330298617, -0.0013216436, 0.0566559285, -0.0538807809, -0.0018704534, 0.0003267005, -0.0475191474, 0.0684157014, -0.0700544268, -0.0438269787, 0.0684379041, -0.0558764935, 0.0098303556, 0.0224765390, -0.0213674456, -0.0359991454, 0.0155389905, 0.0614033341, 0.0816157907, 0.0236310288, -0.0491757318, -0.0215937644, 0.0140744895, 0.0710673034, 0.0192062333, 0.0796511173, 0.0436319709, -0.0105025247, -0.0306469724, 0.0381454751, -0.0187655836, -0.0039870217, -0.0520401299, 0.0117186829, -0.0314386785, -0.0047529712, 0.0161121935, -0.0683496147, -0.0484914742, 0.0833586454, 0.0382101610, 0.0171797201, 0.0376992971, 0.0329938903, -0.0217775404, 0.0420990288, 0.0352678746, -0.0819709003, 0.0632217675, -0.0115360171, 0.0425992608, 0.0185690522, 0.0533026159, 0.0134352818, 0.0170637518, 0.0502328873, -0.0568995997, -0.0632728785, -0.0595129654, -0.0515411310, -0.0277762339, -0.0167215988, -0.0491227061, -0.0705397725, 0.0097916052, -0.0798261836, 0.0206639320, 0.0307173505, -0.0152788386, 0.0577163547, -0.0265606642, -0.0725503713, 0.0175536796, -0.0539414175, -0.0442610495, 0.0147157833, -0.0298459902, 0.0313022137, 0.0204428211, 0.0436707139, -0.0534966774, -0.0071267933, -0.0335172042, 0.0793067962, 0.0576501936, 0.0239721835, -0.0522208326, -0.0270184800, 0.0094429553, 0.0842655152, 0.0570190996, 0.0571193844, 0.0447783172, 0.0512208641, -0.0025121048, -0.0202613100, 0.0426432788, -0.0027615502, 0.0239021704, -0.0365603231, -0.0446578860, 0.0372411758, -0.0289180055, 0.0221514627, -0.0452682599, -0.0251885653, -0.0433459803, 0.0791996568, 0.0824641287, -0.0719731450, 0.0450812578, -0.0794788301, 0.0462148786, 0.0006905571, 0.0365741700, 0.0726210326, 0.0716224015, 0.0145155042, 0.0011089295, 0.0229303911, -0.0630916059, 0.0596668571, -0.0518790707, -0.0590618253, -0.0381705388, -0.0149017870, 0.0155119598, -0.0328654423, 0.0705396384, -0.0647530109, 0.0096065104, -0.0810799226, 0.0197338015, -0.0136678517, 0.0498453081, -0.0569815412, 0.0415618271, -0.0796364099, 0.0480863303, 0.0275282711, 0.0098379701, -0.0721578151, -0.0019362718, -0.0514004566, -0.0523161553, -0.0133464187, -0.0115573779, 0.0244001374, 0.0412732065, -0.0405704603, -0.0397032946, 0.0068929419, 0.0097445920, 0.0262815207, -0.0050675049, -0.0671017244, 0.0438811779, -0.0062892735, 0.0677800924, 0.0107076019, 0.0558403581, 0.0286654085, 0.0009533986, 0.0760357380, 0.0407653898, 0.0431304723, -0.0747306198, -0.0667040795, 0.0789006948, -0.0629284158, 0.0055203438, 0.0682759732, -0.0081932917, 0.0512102246, -0.0520613082, 0.0422874242, -0.0527288429, -0.0002051815, 0.0698046982, 0.0053953156, -0.0291871838, 0.0305223763, -0.0842153057, -0.0330004469, -0.0843424350, -0.0081441700, 0.0828519315, 0.0293345377, -0.0282892436, -0.0560046956, -0.0638724416, 0.0412841439, 0.0701790452, 0.0011406615, 0.0304592252, 0.0089116246, 0.0553808957, -0.0400004350, 0.0228603184, -0.0168639570, 0.0151224360, -0.0157425702, -0.0402319990, 0.0182127506, -0.0815093145, -0.0817672536, -0.0365621038, -0.0732327923, -0.0068912432, -0.0629599243, 0.0303351954, 0.0132503659, -0.0037983432, 0.0442207158, 0.0082036927, -0.0686244816, -0.0024241805, -0.0394621566, 0.0331888646, -0.0833202004, -0.0232144110, -0.0546933599, 0.0750632137, 0.0044863224, 0.0389543325, -0.0677450001, 0.0204487145, 0.0688194931, 0.0081338882, 0.0446387380, -0.0560920015, 0.0714145303, 0.0690856725, 0.0166235045, -0.0104891434, -0.0844483599, -0.0816200227, 0.0653950125, 0.0340941325, 0.0304375589, -0.0024102703, 0.0593860596, 0.0127680078, -0.0400388464, 0.0144103765, 0.0151799992, 0.0072551593, 0.0059859529, -0.0736669600, 0.0214285702, -0.0557710081, 0.0455087721, -0.0176311061, 0.0690991431, -0.0253777690, -0.0429815389, -0.0396780707, 0.0731798261, -0.0626919121, -0.0533661060, 0.0678230077, -0.0091426373, -0.0342686996, 0.0472958684, 0.0699515939, 0.0211253986, -0.0585038066, -0.0534639210, -0.0543843731, 0.0000432283, -0.0194278136, -0.0481171720, -0.0044526085, -0.0800010934, 0.0242551714, 0.0777161121, 0.0413301438, -0.0579727963, -0.0488449410, 0.0163583755, 0.0693662614, -0.0841928720, 0.0617602021, 0.0314289629, -0.0300332345, 0.0068449005, -0.0067489296, -0.0418264233, 0.0595448315, 0.0519444495, -0.0285527967, -0.0734845549, 0.0116330236, 0.0790035874, -0.0746326894, 0.0517442673, 0.0436647683, 0.0151542872, 0.0072383136, 0.0064736754, 0.0727564991, -0.0268572159, -0.0603873357, -0.0473483242, -0.0189302489, 0.0136813968, 0.0695181340, -0.0672691911, 0.0016016364, -0.0684192404, 0.0360399634, -0.0709847212, -0.0025127381, 0.0594529510, -0.0012903214, -0.0631687865, -0.0818158090, -0.0491779372, 0.0504710674, -0.0404454172, -0.0061636418, -0.0020632222, 0.0513190329, 0.0250964016, -0.0488299392, 0.0436761826, -0.0696269944, -0.0685243830, 0.0575584471, -0.0331836604, 0.0293523744, -0.0753010064, -0.0050885826, -0.0744997486, -0.0059202164, -0.0612056255, -0.0187255144, 0.0260722339, -0.0391545296, -0.0558795109, -0.0066315606, 0.0384950563, 0.0274256393, 0.0511839241, 0.0496334881, 0.0257613063, 0.0379572436, -0.0105747059, 0.0193386078, -0.0386535451, -0.0446569920, -0.0528976209, -0.0289034694, -0.0512135811, -0.0639716312, 0.0647207797, -0.0334689766, 0.0752087086, -0.0631611124, 0.0537679195, 0.0708154291, -0.0216436759, 0.0077256709, 0.0447264016, -0.0100728273, 0.0463076830, 0.0527237952, -0.0251025148, -0.0707928836, -0.0029643998, -0.0502116121, 0.0343651548, 0.0651249439, -0.0463109650, 0.0224973708, -0.0362762399, -0.0174101517, 0.0600120276, -0.0570840910, 0.0609036535, 0.0026918352, 0.0677300692, -0.0528565980, -0.0723141357, -0.0128151253, -0.0663229376, -0.0068569258, 0.0111878142, 0.0314539820, -0.0535103455, -0.0304509439, -0.0082891136, -0.0337398350, 0.0225234553, 0.0468510091, -0.0445347652, -0.0588487498, -0.0186424032, -0.0337038152, 0.0291010961, 0.0286827981, 0.0224032849, 0.0104888827, -0.0730413347, -0.0159189031, 0.0608259737, 0.0479067117, -0.0815423131, -0.0539555289, 0.0309480429, 0.0512656718, -0.0278077796, -0.0115652159, -0.0067221671, 0.0527584851, -0.0616746843, 0.0800287873, 0.0449081063, 0.0841160715, -0.0363387428, 0.0333960503, 0.0526145697, -0.0094064102, 0.0123693720, -0.0831195489, 0.0263264924, 0.0445690453, -0.0024853796, 0.0751802027, -0.0554216951, -0.0329962373, 0.0129857436, -0.0697821677, -0.0733875930, 0.0090990663, -0.0424676389, -0.0093785524, -0.0568813980, 0.0213718414, -0.0187122971, -0.0566433817, 0.0367990285, -0.0161581337, -0.0838149264, -0.0623889044, -0.0153431222, 0.0200511068, -0.0776535720, -0.0110715404, -0.0285862423, 0.0594894588, -0.0792748481, 0.0848226249, 0.0620707870, -0.0601932518, 0.0323626772, -0.0831201822, -0.0776825249, 0.0843681246, -0.0297425501, 0.0670505762, 0.0509674549, 0.0365312248, -0.0609664097, -0.0269128345, -0.0220478401, -0.0273906775, 0.0295822397, -0.0306567922, -0.0144146308, -0.0770341456, 0.0074620768, -0.0106034130, -0.0769588277, 0.0563906580, -0.0814497471, -0.0553108826, 0.0632618219, 0.0627122819, -0.0238361470, 0.0414046198, 0.0746449530, 0.0160348937, 0.0525636375, -0.0252896361, -0.0750393793, -0.0746350735, 0.0272396356, 0.0559545308, -0.0127891675, -0.0062440559, 0.0025972053, 0.0528058261, -0.0811130479, 0.0573593378, -0.0570892915, -0.0149220154, 0.0102192983, -0.0274010636, -0.0528986715, 0.0078046769, -0.0675160736, 0.0738319755, 0.0328742713, -0.0339403190, 0.0546801835, -0.0739817172, 0.0118694827, -0.0513748266, 0.0125484169, -0.0332314000, -0.0716392547, -0.0250356607, -0.0572764501, -0.0377788469, 0.0238026753, -0.0557699353, 0.0553470254, -0.0517746359, 0.0563426763, -0.0049849376, 0.0460934788, 0.0316504389, -0.0359016359, -0.0022581741, -0.0398691781, -0.0630902275, -0.0167467073, 0.0805872232, 0.0318800136, -0.0269529633, -0.0207797438, 0.0112186894, 0.0258438662, 0.0525833517, -0.0347943865, 0.0501352996, -0.0168716088, 0.0007358864, 0.0726851374, -0.0290882178, 0.0018792748, -0.0385731272, -0.0496739820, -0.0011357367, 0.0409867615, 0.0316097587, 0.0819234252, 0.0451558530, -0.0428853892, -0.0132872537, -0.0282647647, -0.0139615536, -0.0202863738, -0.0655660778, -0.0071866661, -0.0540027656, -0.0823312849, -0.0233041458, -0.0707825571, 0.0732803494, -0.0155732930, 0.0217720568, -0.0099681541, -0.0141457543, -0.0624370910, -0.0816162750, -0.0376551598, 0.0290347040, -0.0507437773, 0.0409904420, -0.0344701149, 0.0799051076, -0.0200520828, -0.0523707382, -0.0044416189, -0.0384517051, 0.0687331855, -0.0522494428, -0.0082036778, -0.0075022280, -0.0141599104, -0.0841742009, -0.0341329873, 0.0029369667, -0.0254158527, -0.0172526687, -0.0220831037, 0.0076747686, 0.0595789701, 0.0542938560, -0.0273253396, -0.0228636153, 0.0074850991, 0.0436662585, -0.0848323628, 0.0791915506, 0.0739344358, -0.0409028120, -0.0021531582, -0.0796017498, -0.0296102799, 0.0083611533, 0.0435283780, 0.0315972492, 0.0205551311, -0.0256336890, -0.0527684651, -0.0164067447, 0.0707274377, -0.0559402704, 0.0400541723, 0.0806234926, -0.0216917172, -0.0819221437, -0.0671895146, 0.0749569386, 0.0029533654, 0.0382889211, 0.0703918785, 0.0204916373, -0.0258586705, 0.0644102097, 0.0778589994, -0.0709699765, -0.0208132714, -0.0308233388, -0.0414493084, -0.0830349028, 0.0173224583, 0.0447569489, 0.0421985537, 0.0555933863, -0.0494732149, 0.0656198114, -0.0451193452, -0.0468628295, 0.0842108130, 0.0651855767, 0.0702473074, -0.0471363813, 0.0451522321, 0.0215537995, 0.0086317509, 0.0671794713, -0.0318433493, -0.0072604641, -0.0163414106, -0.0040228590, -0.0698217079, -0.0754879043, -0.0461436883, 0.0311003774, 0.0623676032, -0.0126851574, -0.0742793977, 0.0736200660, -0.0691485256, 0.0553939939, -0.0782004967, -0.0102873445, -0.0173260421, -0.0812146440, -0.0662267879, -0.0463101752, -0.0756461322, -0.0604866259, -0.0374492519, 0.0222238451, 0.0832806528, -0.0098411888, 0.0629048049, 0.0199325606, 0.0038842037, -0.0344144739, 0.0369612053, 0.0004334375, 0.0352604836, 0.0360912457, -0.0466131493, 0.0391976535, 0.0475014448, -0.0349340886, -0.0258348398, 0.0419865996, -0.0802891627, 0.0786756128, 0.0028925836, -0.0038202479, -0.0253635347, 0.0123601407, -0.0116534680, 0.0599699914, -0.0581342652, 0.0710694939, -0.0451389253, 0.0412281007, -0.0726033226, 0.0421370864, 0.0527700633, -0.0635368899, -0.0765637979, -0.0086173341, -0.0751696080, -0.0138498917, -0.0521195196, 0.0234450847, 0.0068148971, 0.0069856569, -0.0253177173, -0.0282796063, -0.0798016489, 0.0585923493, -0.0692855567, 0.0072975531, -0.0007073209, -0.0745760575, -0.0501609743, -0.0678277761, -0.0130873173, 0.0084387586, 0.0644380897, 0.0650047511, 0.0306972861, -0.0684354380, 0.0412182212, -0.0662881956, -0.0588514656, -0.0010502189, -0.0077441335, -0.0215956047, 0.0255183205, 0.0015454888, 0.0632713586, 0.0821358860, 0.0703515708, -0.0253943913, -0.0215025097, 0.0265642032, -0.0079930872, 0.0847034305, 0.0103829056, -0.0206933320, -0.0483849570, 0.0511796027, -0.0657746568, -0.0248282328, -0.0557814576, -0.0315681361, -0.0792003796, -0.0189033449, -0.0699425787, 0.0057730228, 0.0369630456, 0.0702874660, -0.0341004506, 0.0503844023, 0.0740545392, -0.0165548697, 0.0441421419, -0.0264358222, 0.0658342689, 0.0139289945, 0.0357193127, -0.0535151623, -0.0219847858, 0.0807934105, 0.0003753155, -0.0358683504, 0.0247625560, 0.0663661659, 0.0238055512, -0.0716783106, 0.0502585620, -0.0442141369, -0.0724266246, -0.0532761738, 0.0465560853, 0.0037888885, -0.0560169257, -0.0463397764, 0.0200524479, -0.0173531324, -0.0732982084, 0.0013545230, 0.0416197330, -0.0717089847, 0.0626685917, 0.0482870787, 0.0564142913, 0.0207134783, -0.0709428266, -0.0008515567, 0.0359591767, -0.0220348164, 0.0477571934, 0.0667813271, -0.0333920792, 0.0273869708, -0.0486984141, -0.0394511037, 0.0493248850, -0.0082243681, 0.0313068926, -0.0814890265, -0.0751162171, -0.0487661622, -0.0429120511, -0.0256102420, 0.0114726871, 0.0765883923, 0.0685447901, 0.0839956105, -0.0355620161, -0.0538024642, 0.0738557726, 0.0425993353, 0.0734637827, 0.0847457647, 0.0623655468, -0.0516564362, 0.0248669460, -0.0075190142, 0.0199447349, 0.0018786266, 0.0293097347, -0.0105754510, 0.0285098329, -0.0106231347, 0.0052289292, -0.0263558254, -0.0625361204, -0.0569990501, -0.0220019817, -0.0448370278, 0.0246970356, 0.0766358525, -0.0108601600, -0.0833850875, -0.0577828623, 0.0302545279, -0.0124683157, -0.0431763530, 0.0501169115, -0.0294915140, 0.0213337988, -0.0772065073, -0.0666406900, 0.0500451177, 0.0355626643, 0.0245592743, -0.0425336808, -0.0166886002, 0.0441134572, -0.0121700019, -0.0551171452, -0.0611384287, 0.0533605367, 0.0023200884, -0.0510627218, 0.0460118651, 0.0453695357, -0.0009403974, -0.0831450596, 0.0509562045, -0.0236879811, 0.0128989667, -0.0263260640, 0.0544892102, -0.0803865716, -0.0059896782, 0.0326768234, -0.0513553061, -0.0465792753, -0.0351697169, 0.0134441853, -0.0381916575, -0.0438376106, -0.0130691156, 0.0745199919, 0.0431393236, 0.0018933490, 0.0780059695, 0.0289850235, 0.0052127317, -0.0555433556, 0.0272088572, 0.0335297137, 0.0795429796, 0.0519790202, -0.0839674249, -0.0195129141, 0.0367006734, -0.0148627535, 0.0666770488, -0.0605997443, 0.0335422084, -0.0063693449, -0.0672933608, 0.0016115382, -0.0843167976, -0.0588434450, -0.0762843341, -0.0454677530, 0.0356972888, 0.0498236418, -0.0352437608, 0.0511533320, -0.0498590358, -0.0786933228, 0.0060937703, -0.0320440531, -0.0320354700, -0.0677154064, 0.0783520490, 0.0423653126, -0.0479634814, -0.0240493231, 0.0464501828, -0.0116781294, -0.0529114269, 0.0391504616, 0.0037265867, -0.0587667078, -0.0399894640, 0.0776425153, 0.0804303885, -0.0599668100, 0.0262784436, -0.0847025812, -0.0191828310, 0.0513110757, -0.0732354820, -0.0613492765, 0.0286134556, -0.0062021688, -0.0418833569, 0.0198780820, -0.0250532553, -0.0023931563, 0.0053232014, 0.0836227834, -0.0473577790, 0.0454768389, -0.0464644358, -0.0509291552, -0.0621768199, -0.0182675347, -0.0505872294, -0.0654166937, -0.0567885861, 0.0662366301, -0.0390257016, 0.0222172588, 0.0513560921, -0.0428744145, 0.0373487696, -0.0475220419, 0.0023282245, 0.0658222139, -0.0033892766, 0.0084184557, 0.0644419640, -0.0712797716, -0.0188685209, -0.0556556247, 0.0147115067, -0.0139744282, -0.0688748509, 0.0187346265, -0.0557659492, 0.0722689927, -0.0370696671, -0.0691032335, 0.0062656030, 0.0686567277, 0.0623461455, -0.0525593571, -0.0122627318, -0.0093732849, -0.0098292604, 0.0447096378, -0.0490405858, 0.0344532505, -0.0453691706, 0.0478543043, 0.0425304621, -0.0647734404, 0.0147985294, 0.0049695671, 0.0812688768, -0.0310060456, 0.0048919469, -0.0834306255, 0.0479566157, -0.0477009229, -0.0371580459, -0.0293621980, 0.0048665777, -0.0764990449, 0.0062413290, -0.0413414948, -0.0780241862, 0.0179164186, -0.0549568683, 0.0584477186, -0.0791800544, 0.0463230312, 0.0695054382, 0.0123989135, 0.0708373636, -0.0044236779, -0.0208897889, 0.0381049812, -0.0827889070, -0.0315937474, -0.0080932304, 0.0324659124, -0.0002264157, 0.0410006046, 0.0159940347, -0.0435115993, -0.0374664627, -0.0127271712, 0.0848571509, 0.0727986395, -0.0009730980, 0.0428620428, 0.0660208166, 0.0837303549, -0.0057300329, -0.0168084204, -0.0769978240, -0.0076614320, -0.0679201409, -0.0368733369, 0.0016069561, -0.0346048772, -0.0440347716, -0.0347471088, -0.0197939575, -0.0646549314, -0.0471878313, 0.0556932390, 0.0556918830, 0.0100937262, 0.0342897773, -0.0599350035, 0.0767218769, 0.0355271697, 0.0395867750, -0.0296605937, -0.0792279169, -0.0115252435, -0.0675173923, 0.0702090114, 0.0167221278, -0.0847263932, 0.0049785003, 0.0318406150, 0.0819318146, -0.0090609193, 0.0730567575, 0.0636821985, 0.0725846142, -0.0500544570, -0.0440914035, 0.0688748360, 0.0471699536, -0.0586507395, 0.0193191469, -0.0685523450, 0.0060903430, 0.0371116772, 0.0433232188, 0.0807519406, 0.0737493634, 0.0115831941, -0.0753910467, 0.0192995071, 0.0622530431, 0.0221716017, 0.0662813038, 0.0779747814, -0.0792019963, 0.0287292227, -0.0278363042, 0.0117698237, -0.0488631427, -0.0654287189, 0.0310675725, -0.0136550739, -0.0709524825, 0.0112279430, 0.0173480511, -0.0248273835, 0.0422059447, 0.0802778006, -0.0668141022, -0.0536071248, 0.0734790266, 0.0039273351, -0.0406012386, 0.0401572287, -0.0247249752, -0.0395688191, -0.0718753263, 0.0433652699, -0.0586363599, 0.0586907417, 0.0200756639, 0.0727317184, -0.0827008486, -0.0514144897, 0.0836720169, 0.0459721386, 0.0396970585, -0.0714637563, -0.0535619743, 0.0805289745, 0.0145787895, -0.0114401281, -0.0254019648, -0.0054422691, 0.0062587187, 0.0324255601, -0.0612898730, 0.0322340056, -0.0144472718, 0.0107492134, -0.0358364023, -0.0656731427, 0.0576094538, -0.0567706302, 0.0154277384, -0.0333976671, -0.0631504431, 0.0350965634, 0.0689312816, 0.0798368603, 0.0175150856, 0.0780005604, -0.0076178759, 0.0230603963, -0.0685682595, -0.0623248033, 0.0195989981, 0.0446616858, -0.0006306022, 0.0833668858, 0.0687112361, 0.0150884837, -0.0645361245, 0.0519514978, 0.0305932388, -0.0555249900, -0.0390090160, 0.0789400488, 0.0733325034, -0.0252565518, 0.0712792277, 0.0234195516, -0.0236466154, 0.0569743514, 0.0607259423, -0.0076293796, -0.0783007815, -0.0337205194, 0.0077265650, -0.0220319405, 0.0531278700, 0.0036768168, -0.0511861853, -0.0629112273, -0.0251429491, 0.0618477911, 0.0789259523, -0.0154204667, -0.0802194998, -0.0774893090, -0.0557755455, 0.0363112092, 0.0226961747, 0.0242731497, -0.0383236445, 0.0500636101, -0.0089366883, -0.0368929543, -0.0143457353, -0.0839367881, -0.0305621587, -0.0519275181, -0.0635069087, -0.0745795220, 0.0334169790, -0.0024978518, -0.0685638413, -0.0602014735, -0.0664179549, -0.0241120085, 0.0247345120, -0.0593330301, -0.0671266466, -0.0753338262, 0.0120766461, -0.0367037691, 0.0308847874, 0.0256761461, -0.0580941960, -0.0300048888, 0.0414048731, -0.0647621378, -0.0442438796, -0.0671511441, -0.0700426176, 0.0585241616, 0.0733695775, 0.0798744559, 0.0334956199, -0.0844720528, -0.0057622492, 0.0050515905, 0.0285674706, -0.0436012112, -0.0838498697, -0.0607208610, -0.0722271949, -0.0478566401, -0.0089719370, -0.0217881128, -0.0470586568, -0.0035328269, 0.0568216741, 0.0632274598, -0.0480557643, 0.0322074071, 0.0098677278, -0.0080640316, -0.0587039255, 0.0071617812, -0.0121745765, 0.0431650132, 0.0206760392, -0.0122676715, 0.0499203056, -0.0520820618, 0.0425838679, -0.0092931092, 0.0815128535, -0.0821388215, 0.0061359853, 0.0335672721, 0.0824422836, 0.0554206222, 0.0358844474, -0.0277618580, -0.0440848209, -0.0558978766, -0.0712957680, -0.0252510458, -0.0163815171, -0.0541164503, -0.0112240762, -0.0415653028, 0.0581801236, -0.0778812915, 0.0004034117, 0.0216330215, 0.0173195899, -0.0224075392, 0.0097267330, -0.0565504469, -0.0825125948, -0.0003717318, 0.0026044920, -0.0743723363, 0.0584279001, -0.0338901468, 0.0831223875, -0.0738879889, 0.0513137430, 0.0004516393, -0.0039172918, -0.0817721933, -0.0195436254, 0.0517739952, -0.0099304169, -0.0144302845, 0.0324863046, -0.0408998765, -0.0765383840, 0.0433490425, -0.0278895758, 0.0791602731, -0.0406213216, 0.0745735019, -0.0393176973, -0.0798302516, 0.0028036386, -0.0731345937, 0.0339988545, 0.0514018536, 0.0310306475, -0.0237048455, 0.0096810758, 0.0677588135, -0.0828334466, -0.0706567019, 0.0486882478, 0.0173300356, -0.0749839023, 0.0680835247, -0.0262395702, -0.0268886387, 0.0475655347, 0.0279555619, -0.0063948333, 0.0154898539, 0.0180392787, 0.0271546990, -0.0520061776, 0.0827258974, 0.0454137474, -0.0203025714, -0.0815723985, 0.0432955921, -0.0212332085, -0.0758136958, -0.0106538683, -0.0207016319, -0.0132044852, -0.0610977933, 0.0415160209, -0.0696581304, 0.0053919554, -0.0145578757, 0.0676922351, 0.0010666549, -0.0469867811, -0.0685683787, 0.0501826555, -0.0705398172, 0.0165444240, -0.0840171725, 0.0634561926, 0.0365454629, 0.0656611919, 0.0092809647, -0.0324230939, -0.0743467435, -0.0528626330, -0.0460020229, 0.0792474300, 0.0717233568, -0.0302555002, -0.0317497291, 0.0243113562, -0.0717987791, 0.0391121954, 0.0251662359, 0.0114060119, -0.0650457144, 0.0184663385, -0.0212953910, 0.0599734336, -0.0015388280, -0.0425040834, 0.0236334950, -0.0162361264, 0.0473918170, -0.0837751180, -0.0832605064, -0.0310084373, 0.0454970151, 0.0078844428, 0.0710275173, -0.0695321560, -0.0344306342, -0.0103042275, -0.0037194416, -0.0049916208, 0.0604981631, -0.0084013864, 0.0290256590, -0.0011541620, 0.0566662997, 0.0307622999, -0.0600318462, 0.0064934343, -0.0099134892, -0.0798302740, -0.0197406262, -0.0602252185, -0.0568398535, 0.0125414655, -0.0237325244, 0.0732447356, -0.0661891699, 0.0693079680, 0.0707549453, -0.0132190883, -0.0608336329, -0.0377456024, 0.0248647779, -0.0805049986, -0.0141158551, 0.0530990809, 0.0224237740, 0.0102510452, -0.0390469804, 0.0455767661, 0.0594752878, -0.0244974419, 0.0775203109, 0.0686576515, 0.0655258000, 0.0419943780, -0.0508486964, -0.0150602162, 0.0579052716, 0.0689359605, 0.0591223687, 0.0651900321, -0.0409341939, -0.0769162327, 0.0771258473, 0.0721227229, -0.0325219557, 0.0422476530, -0.0602143705, 0.0233042017, -0.0691562817, -0.0388131291, -0.0162335113, 0.0672097802, -0.0775656626, -0.0391746163, -0.0792171434, 0.0336691365, 0.0074636191, -0.0462801903, -0.0784698799, 0.0466771126, -0.0252040923, 0.0377310291, -0.0799646303, -0.0586165600, -0.0831681266, -0.0474894866, 0.0400876999, -0.0105144307, 0.0682128519, -0.0757835656, 0.0519139916, -0.0107757375, -0.0779576600, -0.0069683865, 0.0342694297, -0.0150225982, -0.0210084766, -0.0450592153, -0.0507187322, 0.0624879748, -0.0790366083, 0.0699259788, -0.0688301623, -0.0580073595, 0.0562036484, -0.0138530284, 0.0834452957, -0.0151879713, -0.0692300573, 0.0500261188, 0.0469067395, -0.0387400202, 0.0214544088, 0.0391815603, 0.0276241377, -0.0120634660, 0.0735002905, -0.0129543394, -0.0237398334, -0.0736198872, -0.0802823603, 