//Numpy array shape [256, 43]
//Min -0.141644269228
//Max 0.141637831926
//Number of zeros 0

#ifndef W15_H_
#define W15_H_

#ifndef __SYNTHESIS__
dense_1_weight_t w15[11008];
#else
dense_1_weight_t w15[11008] = {-0.0951388478, 0.0902247578, 0.0578237772, -0.0047012120, -0.1343012750, 0.0470269322, -0.0688875392, 0.0669418573, -0.0141304284, 0.0751366466, 0.1020969898, 0.0219998509, -0.1407875419, 0.0833505392, -0.1361477524, -0.0105468184, -0.1210451871, -0.0069782138, -0.0638423413, -0.0037725717, 0.0334730297, 0.0145345926, -0.0319272354, 0.1059187800, -0.0343309492, 0.0099111646, -0.0804599673, 0.0963794887, -0.1175334528, -0.0875441954, -0.0951662660, 0.1338403225, 0.0376590937, -0.0614242330, 0.1060882211, -0.1410563141, 0.0365978479, 0.0567420721, -0.0733484849, -0.0076432824, -0.0000012517, 0.0776774734, 0.0573083907, 0.0768371224, 0.0273517519, -0.1122763604, 0.0438649952, 0.0016309023, -0.1287714243, -0.0828179568, 0.0572566092, -0.0237915218, 0.1187238395, -0.0863038152, 0.1212402880, 0.0871062130, 0.0770080090, 0.0371478945, -0.0566892177, 0.0258850902, 0.0828720331, 0.0603913963, -0.0120418221, -0.1154599786, 0.0741195828, 0.0363705903, 0.0204876959, -0.1350122541, -0.1189508066, 0.0682120323, -0.1005843282, 0.0454871804, 0.0081114173, -0.0482188463, -0.0157102346, 0.0033476204, -0.1063433141, -0.1227108762, 0.0476930141, 0.0973803848, 0.0069420785, -0.0055057704, 0.1210730076, -0.0092972517, -0.0831656232, -0.0553121865, 0.1352800131, -0.0052173138, -0.1153075546, 0.0293927789, -0.1037947088, -0.0172708482, 0.0140590966, -0.0727842301, 0.0442101657, -0.0840840638, -0.0990162492, -0.0190199241, -0.0477377027, -0.0458983779, 0.0723700523, -0.0426494032, -0.1358161271, -0.0161992759, 0.0011793077, -0.0435237065, -0.1025163680, -0.0825127363, -0.1029672101, 0.0463311970, -0.1070659682, -0.0873318911, 0.0075820833, -0.0741209313, -0.0064312816, 0.0503087640, -0.0486452729, -0.1226293817, -0.0505575091, -0.0337596312, -0.0756027177, -0.0868546367, -0.0835484117, -0.0984852910, -0.0169182494, 0.0839367807, 0.0270722061, -0.0791459307, -0.0450988188, 0.0950132757, 0.1148596406, -0.1335206628, -0.1054291204, -0.0872979835, 0.0478033870, -0.0201133862, 0.0898140669, -0.0282644257, -0.0258451104, -0.0155896842, -0.1054893434, 0.0459437072, 0.0083903670, -0.0503202826, -0.0753316507, 0.0090606064, 0.0552584529, -0.0938885063, -0.0819218010, -0.0518850908, 0.0261603892, -0.1078222692, -0.1101553589, -0.0218573660, -0.0065114498, -0.0309574828, 0.0178533792, 0.0406221598, -0.0726573765, -0.0672329962, -0.0371832848, -0.0457954034, -0.1390822232, -0.1040052846, 0.1381566823, -0.0771374032, 0.0092615932, 0.0161566138, -0.1075435653, 0.0698964000, -0.0083186626, -0.0076263994, 0.0130967796, -0.0550521612, -0.0968779325, 0.1257976592, 0.0699935257, 0.0873205811, 0.1000995487, 0.0491604954, 0.0736873746, -0.0871715024, -0.0130204409, -0.0462174714, 0.1335152686, 0.0372991562, 0.0724300146, 0.0371391326, -0.0340074301, 0.1028843671, 0.1053624153, -0.0710501149, 0.1389969289, -0.0128525645, -0.1377868056, -0.1190128475, -0.1349421591, -0.1214379445, -0.0175291821, -0.0436985865, 0.1304424703, 0.0872315466, -0.0286192596, 0.0121219307, -0.1218832508, 0.1170899272, 0.0519404113, -0.1248014122, 0.0636159182, 0.0608034730, -0.0862152278, 0.1031655669, -0.0806486607, -0.1208273768, -0.1217065156, -0.0521706492, -0.1351858079, 0.1152484715, 0.0154838115, -0.0163800269, -0.0086220503, 0.0708091408, -0.1137942821, 0.1177550852, 0.1296478510, 0.1301916540, -0.1242566705, 0.0256960988, 0.0674995780, 0.0345612913, -0.0756910071, -0.1322561651, 0.0160595179, 0.0881978869, 0.0576503426, 0.0441304892, 0.0499037504, 0.0195171386, 0.0915243328, -0.0852884799, -0.0842425004, 0.0156627446, 0.0504601449, 0.0050294548, 0.0478509516, -0.0385100171, 0.0013179183, 0.0758081675, -0.0862314403, -0.1033776253, 0.0644995123, 0.0279807895, 0.1148619652, 0.1030264795, 0.0123666525, 0.0037726313, 0.0009506643, -0.1214179844, -0.1326517314, 0.1172978580, -0.0470343605, 0.0428906530, -0.0024492443, -0.0039841980, 0.0238454640, -0.1355935335, 0.0805259943, -0.1365189254, 0.1164816916, 0.0757489651, 0.0296792835, -0.1230972484, 0.1220521629, 0.1048139036, 0.1135812998, -0.0700476691, 0.0496404171, -0.0722875819, -0.0445531681, 0.0089713782, -0.1021240130, -0.0082266629, 0.1140671074, 0.0595951080, -0.0426588953, 0.1177151203, 0.0691931248, -0.1193046197, -0.0641343519, -0.0757344067, 0.1358658671, -0.0827244669, -0.0096908510, -0.0693055913, -0.0054278970, -0.1065185294, 0.0911197662, -0.0344742537, 0.0097127110, -0.0887891948, 0.1205181777, 0.1315309703, 0.0722867697, -0.1031607985, -0.0708417594, -0.1017078534, -0.0469367579, -0.0223593116, 0.0235694349, 0.0603531301, -0.0000808239, -0.1221309155, 0.0283039808, 0.0783085376, -0.1088533476, 0.0184282809, 0.0375635028, 0.1234137416, -0.1074417382, -0.0424839482, 0.0919895321, 0.0316481590, 0.0131196082, 0.0589197427, 0.0060575306, 0.0006428808, -0.1045508683, -0.1007717103, -0.0941069201, -0.0850996152, 0.0877696723, 0.0045764893, -0.0505965874, -0.0847565085, -0.1378289461, 0.0295387208, -0.0620962977, 0.0224593878, 0.1100352407, 0.1199206114, -0.0841178745, 0.0811855346, -0.0881727636, 0.0511464626, 0.0402519107, -0.0046169162, -0.0349544808, 0.1113848686, 0.0104483068, 0.1080088317, 0.1210131645, 0.1144464314, 0.1211677194, 0.1250080168, 0.1348963976, 0.0858965069, 0.1053466797, -0.1255242079, 0.0530812889, 0.0075056553, 0.1239246130, 0.0332884789, -0.1368919611, -0.1196413115, -0.0187156573, 0.0437036902, 0.0803746283, 0.0604983270, -0.1129377186, -0.0638833717, -0.0377500057, -0.0330123529, 0.0223679990, -0.0089331120, 0.1012337655, 0.0531688631, 0.1148936450, -0.1167337596, 0.0996632874, 0.0159761012, 0.0397149324, -0.0445479304, 0.1175090969, -0.0749737173, -0.0033880919, 0.0507515818, 0.0719376504, -0.1174405366, 0.0950854570, -0.1059035733, 0.0783355683, 0.1021676511, -0.0908480883, 0.0477306098, -0.0523885936, -0.1164349616, -0.0542517230, -0.0600999668, -0.0327301025, -0.0156556815, -0.1327156276, -0.0438616499, -0.0652691126, -0.0433596373, -0.1405678093, -0.0051582754, 0.0925166756, 0.0004839152, 0.0631239712, 0.0926528275, 0.0161584020, -0.0287070647, -0.0367010236, 0.0576876998, 0.0707833618, -0.1103677303, -0.0609488338, 0.0133971274, 0.1012105644, -0.0853018165, -0.1103558391, 0.1365703940, -0.1062006205, 0.0759433955, 0.0815516412, -0.1105455160, -0.0756202117, -0.0680383295, -0.0446269289, -0.0309968665, -0.0888795406, 0.0320257545, -0.1297508627, -0.1103418246, -0.0392255485, -0.1014385745, 0.0863779932, 0.1064067036, 0.0856388807, -0.0256639794, 0.0645226389, -0.0831679255, 0.1194667220, -0.1158870831, -0.0656706169, -0.0800104067, -0.0232035220, -0.0587465093, -0.0902521163, -0.0798905417, -0.0434594005, 0.0427886248, 0.0756681412, 0.1013153046, -0.0377543643, 0.1184830070, -0.0348698422, -0.0678198114, 0.1173858047, 0.0983295888, -0.1040781662, -0.0845572054, 0.0034832656, -0.0118280649, 0.0437161475, 0.0129357725, -0.0420318544, 0.0420228690, 0.0760596097, 0.0845455229, -0.0998752862, -0.0659371614, 0.0088521838, -0.0269262418, -0.1019821987, -0.0713201016, 0.0322444737, -0.0836992487, -0.1374912858, -0.1177661866, -0.0925287753, -0.1012558639, 0.0149325132, -0.1255099177, 0.1220489442, 0.0751745999, 0.0313825905, -0.0125323534, 0.0743632615, 0.0970519036, -0.0508960560, -0.0897390544, -0.0610651225, 0.1176399291, 0.1199436784, 0.0803313553, 0.1198143065, 0.1276845336, -0.0865846425, -0.0915350765, -0.0405080765, -0.0253313109, -0.1012350544, -0.0781393722, -0.0234553069, -0.1019508243, -0.0143221170, -0.1235826463, 0.0810416490, 0.0648727119, -0.1198596954, -0.0824461728, 0.0925726444, -0.0247011557, -0.0211030617, 0.0712093860, -0.0494139269, 0.0266842246, 0.0963851660, 0.0867632031, -0.0824091285, -0.0917980075, 0.1410323679, 0.1151925921, -0.0825645179, 0.0963905007, -0.0080407411, 0.0565272421, 0.0829026550, -0.0811070055, 0.0255758017, -0.0026535392, -0.0834388211, -0.0514339060, -0.1232265383, 0.0415187925, 0.0169918835, 0.1190893650, -0.0500627607, 0.0780525357, 0.1389007866, -0.1273529232, -0.1333668828, -0.1192289293, -0.0676572919, -0.0918519497, -0.0763664469, 0.0905872434, 0.0312514454, 0.0889944136, 0.0727106035, -0.1026003212, 0.1174434125, -0.1242261380, -0.0660340562, -0.0446815789, -0.1168758422, 0.0345025808, 0.0559931993, 0.0157364309, 0.0706103444, 0.1183451712, 0.0291618258, 0.0659801215, -0.0294619128, -0.1002127230, 0.0830263346, 0.0365756601, -0.1071310490, 0.1403458714, -0.0992521271, 0.0209903568, 0.1123718023, 0.0032449216, 0.1144926250, -0.0383218005, -0.0119487643, 0.0509580076, -0.1083391756, -0.0170078501, -0.0565284193, 0.0397084206, 0.1290316880, -0.0123475790, -0.0756791830, -0.1179370508, -0.0699248016, 0.0090383738, 0.0623282641, 0.0646691918, 0.0403916538, 0.0334904194, 0.1115704775, -0.1364862770, 0.0690474659, -0.1266477853, -0.0730029792, -0.0128091574, -0.0678404197, 0.1086820066, 0.0712517351, 0.0729650855, 0.0005157292, -0.0886123925, -0.0733584166, 0.1412773132, 0.1115450561, -0.0188999996, 0.0728210062, 0.0837580562, 0.0728621781, -0.0426328927, 0.0770778209, 0.0331509858, 0.1174685061, 0.0012921542, 0.0083444566, -0.1112997532, -0.0266610831, 0.0392159224, 0.0122556090, 0.0567813218, -0.0305205211, -0.0072202384, 0.0731194317, -0.1389607042, 0.0761696547, -0.0703078657, -0.1316066980, 0.1170763373, -0.1266089529, -0.0567142442, 0.1070132107, -0.1336730123, 0.0049396902, -0.1259335428, 0.0083322674, -0.1030631661, -0.0431301445, 0.0342278332, -0.0612501651, -0.0821322799, -0.0430729315, -0.0652266964, 0.1085366607, -0.0105818063, 0.0442504883, 0.0447478443, -0.1020835191, 0.1087825298, -0.0936078131, 0.0360866487, -0.0929148793, -0.0843167007, -0.0902871042, 0.0541052520, -0.0898296013, 0.0802919716, 0.0760461092, -0.0703250244, 0.0934165120, 0.0337144434, 0.1083406657, -0.0768266469, 0.0000733882, -0.1082543284, -0.1391285360, -0.0385840535, -0.1041729376, -0.1057463586, 0.0175478905, 0.1318751574, -0.0846381262, -0.0986764506, 0.0043635070, 0.0465277880, -0.0903545171, 0.0248199701, -0.0492886305, 0.0658672452, 0.1184163094, 0.0228985846, 0.0191212893, -0.0293010175, 0.1164102852, 0.0214537382, -0.0902081430, -0.0579867363, -0.1304829717, 0.0284742713, 0.0443221182, 0.0878906101, 0.1353518069, 0.0440023243, 0.0273251384, -0.0077996850, -0.1056534797, 0.0846593678, -0.0829921663, 0.1413484812, -0.0727540329, 0.1367503405, -0.0956505537, -0.1280689240, 0.1030575633, 0.1203039289, -0.1260033250, -0.0661624670, -0.0761426613, -0.0216644183, 0.0025657564, -0.0573946163, 0.0381343514, -0.1416442692, -0.1315401942, -0.1150976866, -0.0858261585, 0.0554540008, -0.0060330778, -0.0797531828, -0.0760201290, 0.0552425832, -0.0570319518, 0.0121479332, 0.0985508412, -0.0583214015, -0.0962790176, -0.0813418031, 0.1352475882, 0.1067635268, -0.0985957310, 0.0329832733, 0.1397354007, -0.1094027758, -0.0895830542, -0.0339263380, -0.1128099114, 0.0359261930, -0.1017950252, -0.0874373317, -0.0967652947, -0.0009642690, -0.0019262880, 0.0022317767, -0.1383217722, 0.1103027463, 0.1330647171, 0.1257990897, -0.0565591827, -0.1215298399, -0.0116077214, -0.0436532646, -0.0815017223, -0.1004196554, -0.0628128126, 0.0382822156, 0.0489076525, -0.0764067397, 0.0355191380, -0.0721552223, -0.0723059922, -0.1218255609, 0.0689755827, 0.0851938426, 0.1191501617, 0.0824092925, 0.1384315491, -0.0468651578, 0.1091050506, -0.0927797109, -0.0152030736, 0.0943863392, -0.1197446287, -0.0577121899, -0.0599361584, -0.0056207776, 0.0741913170, -0.0490307957, 0.0400147140, -0.1214519590, 0.0076963454, 0.0207966268, 0.1066100895, 0.0320460796, -0.0057191849, -0.1390949935, -0.0884311944, 0.1347237825, -0.0566359162, -0.0258617923, -0.0813368708, 0.0234132260, -0.0252017155, 0.0148447454, -0.0330253914, 0.0600014180, -0.1098128259, 0.0181630552, 0.0435182005, 0.0086275935, 0.0175543725, 0.1070010513, -0.0499996990, -0.0285526216, -0.0799465030, 0.0207841992, 0.1017403454, 0.0526833385, 0.0211814195, -0.0419668034, -0.1367332935, 0.0018851906, 0.0095449835, 0.0548828542, 0.0285189152, -0.1349078864, 0.1186159849, -0.0272338539, -0.0915945917, -0.0242148787, -0.0064065158, 0.0579172969, -0.0392651334, 0.0650749803, -0.0678456500, 0.0031999946, 0.0049310178, 0.0472598076, -0.0416564867, 0.0529578775, 0.0108474046, 0.0510328114, 0.0565981567, 0.0342766345, -0.1391528845, -0.0848742053, -0.0938003883, 0.1052173972, -0.0429796800, -0.0396094546, 0.0992240906, -0.0229936540, 0.0717246383, 0.0766560584, 0.0099337250, 0.0373826176, -0.0815628916, 0.0757551044, 0.0361872613, 0.0234764814, 0.0823157728, -0.0236710235, 0.0219353139, -0.0924965143, 0.1343907416, -0.0680437386, -0.0890073776, 0.0871347934, -0.0652359501, 0.0582082570, 0.1200682521, 0.0281276405, 0.0796190351, -0.0282807723, 0.0474772751, -0.0363043174, 0.0646038055, 0.0296912044, -0.0387121886, -0.0792084485, -0.0337671638, -0.0799173936, -0.0474875718, 0.0807846636, -0.1218298525, -0.0594444126, -0.1363626868, -0.0450641289, 0.0386746377, 0.1133549213, -0.0544931069, 0.0135217160, 0.0595655590, 0.0152213871, 0.0815383047, -0.0876327157, 0.1060025692, 0.0938126445, -0.1125330031, -0.0772480816, 0.0435120612, -0.1217414364, 0.0197515041, 0.0497682840, 0.0181565732, 0.1302607656, -0.1078634709, -0.0217894837, -0.0661607087, -0.0174757242, 0.0355504900, 0.0756738782, 0.0363686979, 0.0394045115, -0.0807949379, -0.0128832608, 0.1088680923, -0.0973987877, 0.0931830108, 0.0968127102, -0.0528782085, 0.1296739578, -0.1233721003, 0.0667220652, 0.0752443522, 0.0204860419, 0.0592651069, -0.1188300252, 0.1334726810, 0.0381988287, 0.1120945513, -0.0915142074, 0.0507219881, 0.0822242796, 0.0001960248, -0.0021562576, -0.0660046414, 0.1058853418, -0.1035806462, 0.0584257990, 0.1040073037, -0.0529689640, 0.0035107881, 0.0007630885, -0.1272711158, 0.1068629473, 0.0141949058, 0.0119744390, -0.1405361593, 0.1263301075, 0.0769626498, 0.1188703775, -0.0971027315, 0.0281737149, 0.0670325160, -0.1386071295, 0.1368859112, 0.0303477347, 0.0914800912, 0.0465048850, -0.0868075937, -0.0583234653, -0.0208849832, 0.0779096335, 0.0435958207, 0.0172677785, -0.0477796793, 0.1332461536, -0.0053486228, -0.0556289554, 0.0615711212, 0.0829356611, -0.0495280847, -0.0721028447, -0.0259718597, -0.0391251445, 0.0048325658, -0.1246583462, -0.0317481607, 0.0623745918, 0.0645203143, -0.1383527070, -0.0215884969, -0.0114599317, -0.0741603747, 0.1008943170, -0.0846440718, -0.0767732561, -0.0806195512, -0.1070517451, 0.0305746198, -0.0548746809, 0.0296337903, 0.0341791958, -0.0173445418, -0.1123366803, -0.1174524277, -0.0604665130, -0.0279613063, -0.0381466150, 0.0129100382, -0.1227112487, 0.1167114377, 0.1158329546, 0.1155837476, -0.0617055744, -0.0691039637, 0.0129458010, -0.0887445211, -0.0509793833, 0.0536818206, 0.0538093150, -0.0357488766, -0.0221366063, -0.0917474180, 0.0143416077, -0.0339205936, -0.0950644091, 0.0756461471, 0.0342348665, -0.0449300483, 0.0086459666, -0.1124254316, 0.0534709096, -0.0810270607, -0.0450465009, 0.1400168836, 0.0830202252, -0.0488310307, -0.1240921244, -0.1288028359, 0.1243059933, 0.0749511868, -0.0667615458, 0.0426576734, 0.0633732527, -0.0771598592, -0.0487284213, -0.0065399259, 0.1093213558, -0.0829680413, 0.1075327545, 0.1404925585, 0.1052550822, 0.0239771456, 0.1319923699, 0.1018456519, -0.0452109501, 0.0658602864, 0.0988165438, 0.0209634751, 0.0742752105, 0.0626987964, 0.0431581140, 0.1211479604, 0.0034002811, 0.0121783316, 0.0844371766, 0.0232352316, -0.0672134086, 0.0783927441, 0.0644211918, 0.0456384569, -0.0384524316, 0.0449354500, -0.0566549674, -0.0396206677, -0.1175694242, -0.0937420949, -0.1037600860, 0.0512046814, 0.0072064251, -0.0127499551, -0.0807498172, -0.0834504366, -0.0016723722, -0.0166050345, -0.0044385195, 0.0813632905, -0.0893649757, 0.0979037732, -0.0900318399, 0.0759560615, 0.0647880137, -0.0513286665, 0.0760095865, -0.0910608917, 0.0827713460, 0.0100327134, 0.0446583778, -0.1331405342, 0.1130256653, 0.0232992768, -0.1321715713, -0.0492974073, 0.0684431493, -0.0692485496, 0.0578815043, -0.1212758645, 0.0898959339, 0.1214287877, 0.0961804986, -0.0199443847, -0.0553348809, -0.0290774330, 0.0833800882, 0.0383858681, -0.0926738307, 0.0460823178, -0.0242966488, 0.0988624394, 0.0476137102, -0.0547312424, 0.0011755973, -0.1089138016, 0.1392025352, -0.0227174535, 0.0961599350, -0.1213085204, 0.0160962939, 0.1264412701, 0.0706327707, -0.0736575872, 0.0287915319, -0.0029979348, -0.0169688463, -0.0842776299, 0.1323008239, -0.1051230580, 0.1342279315, -0.0226453096, 0.0856405348, 0.1224548519, 0.0678652078, 0.0787087232, -0.1104668528, -0.0619497597, -0.1264105290, -0.0222986564, -0.0676651299, 0.0999155492, -0.0208138600, -0.0142216831, 0.1372505426, 0.0392920524, 0.0307465345, 0.1204052866, 0.1059753448, 0.0760445893, 0.1337144971, -0.0031525195, -0.0530659929, -0.0019411445, 0.0035812110, -0.1100651175, 0.0574228466, 0.0965552181, 0.0694769323, -0.1108461320, -0.0154152811, 0.0001176298, -0.0193281099, 0.0219395012, 0.1277706623, -0.1238569617, 0.0414438099, -0.0043286532, 0.1259956658, -0.1248800009, 0.0351271033, -0.0877134055, -0.0506982133, -0.0579172000, 0.0890544206, -0.0762801543, -0.1029220223, -0.1116896346, 0.0848035216, -0.0756879300, -0.0792141557, -0.1208395734, 0.0328331739, 0.0551106632, 0.0171863139, -0.0262563750, -0.0929528326, -0.0637847930, -0.0359367952, 0.0373246670, -0.0870978087, 0.0058431774, 0.0629325807, -0.0375380740, -0.0028347671, 0.0812368989, -0.0060518682, -0.1093786955, -0.0168214217, -0.0254232064, -0.0273801982, -0.1311400831, -0.1350343078, 0.1252756417, 0.0641346574, 0.0134492069, -0.0897946805, 0.0275152624, -0.0245261714, 0.0946638882, 0.0091246068, -0.0746002495, -0.1057211906, -0.0887316465, 0.0055876374, -0.0540177077, -0.1259675920, -0.1107057035, 0.0352609456, 0.1128667593, -0.0899716169, 0.0384181142, -0.0528655797, -0.0966664702, 0.0000266880, -0.0607445017, 0.0143222958, 0.0298016369, -0.0831952766, 0.1392754912, -0.0156897902, -0.0690864027, 0.1180995405, -0.0684812441, -0.0157127678, 0.0902268440, -0.0107744932, 0.1077807546, 0.0052626431, -0.0219910443, -0.1330344230, -0.0520621017, -0.0037379116, 0.0102934837, -0.0489587560, 0.0351326019, 0.0831653923, -0.0831453204, 0.0623762459, -0.1389933079, -0.0172230229, -0.1127577722, -0.0111573189, 0.0374203771, 0.1171655357, -0.1230945438, -0.1133502275, 0.0554078370, 0.1410869062, -0.0600356907, 0.0617348850, 0.0855356306, -0.1153469011, -0.0394827425, 0.1242235303, -0.0872394890, -0.0107600689, -0.0937304497, -0.0655017793, 0.0268914253, 0.0422373712, -0.0294036865, -0.0374817401, 0.0473591238, -0.0288354754, -0.0610996336, -0.0128200054, -0.1063880250, -0.0901378542, 0.0580435097, 0.1084338427, -0.0726763532, 0.0956628174, -0.1074453443, 0.1001909077, -0.1245870441, -0.0618343204, -0.1268215179, -0.0416999906, 0.0265754014, 0.1053915024, -0.0181566328, -0.0609736964, 0.0368162692, -0.0908636898, -0.0492511392, -0.0350357071, 0.0902955085, 0.0559931695, -0.1222006530, 0.0539539754, -0.0049261749, 0.0445044041, 0.0606933087, 0.0792480260, 0.0192370564, -0.0298887491, 0.0663615912, 0.0723014325, 0.0774809122, 0.0212407261, 0.0820724964, 0.0792031139, 0.0012432188, 0.0191412717, -0.0324837267, -0.0848963633, 0.0786473900, 0.1375724673, -0.1285914034, -0.0103051662, 0.0227278471, -0.0118214488, 0.0476662666, 0.0950897336, 0.0152176321, -0.0505330563, 0.0099401027, -0.1207172722, -0.0271310136, -0.0231291875, -0.0501824543, 0.1064057946, 0.0003893375, 0.1159799993, 0.0099925250, 0.1039577276, 0.1315753460, 0.0197930783, 0.1108748913, 0.0522350222, -0.1137004942, 0.0941362977, -0.0518316254, 0.0892942250, 0.1344730258, 0.0178729296, -0.0918156728, 0.0999069363, -0.0809338540, -0.0214653164, 0.0459587723, 0.1024199426, -0.1288363636, 0.0250243396, 0.0108666271, 0.0063596070, 0.0863111764, -0.1068731844, -0.0246232077, 0.0992638767, -0.0150576830, 0.0356940627, 0.0818726569, -0.0206321552, 0.1270134449, -0.0786105469, 0.0560950339, 0.1259400249, -0.1354825199, -0.0077817291, 0.1107903123, -0.0706683993, 0.0781049281, 0.1162879467, -0.0045270026, 0.0843421966, -0.1288427114, -0.0939988792, -0.0384588167, 0.0396891683, -0.1106031016, -0.0159041286, -0.0395366773, 0.0145498663, -0.0347091481, 0.1029796451, -0.0087321252, 0.1138662994, -0.1042870581, 0.0103939623, 0.0576037019, -0.1314187497, 0.0095804483, -0.0154323429, -0.0423629060, -0.1078068987, -0.0455276072, -0.0896490514, -0.0496264994, -0.1052718014, -0.0944040269, -0.0167735294, 0.0614393950, -0.0809414536, -0.0474964529, -0.0460668057, 0.0632958859, -0.1090367362, 0.0675492585, -0.0501674935, 0.0285085142, -0.0513129309, -0.0519866496, -0.1091654450, 0.0625170171, -0.1000845432, 0.0220863521, 0.1282270849, 0.0476898849, -0.1039637774, -0.0498183742, -0.0596436113, -0.0101131946, -0.0250190720, 0.0595282763, -0.1048366949, -0.0657370836, 0.0325703174, 0.1124582291, 0.1353968084, 0.0270945728, -0.0815326571, -0.1119334176, 0.1210495532, -0.0999365523, 0.0175794810, 0.1070488840, 0.0216154158, 0.1085313261, -0.0070904344, 0.0902332962, 0.0034536123, -0.0280325040, -0.1292802840, 0.1255245209, -0.0614463612, -0.1095213294, 0.1014890373, -0.0019196719, -0.1230102852, 0.0389028788, 0.0849232078, 0.1373793185, 0.1111709774, 0.1338717639, -0.1369956136, 0.0838250220, 0.0862522423, -0.1011925638, -0.0907690898, 0.0141952336, 0.0668905228, -0.1306788027, 0.1338946819, -0.1272096783, 0.1080258936, -0.1373014003, -0.1382335275, -0.0468229055, 0.0007768720, -0.0190780535, -0.0058947504, 0.1298357248, -0.0821797997, 0.0182411969, 0.0855981857, 0.0934152305, 0.0911004096, -0.1398840249, -0.0128501207, -0.0111859590, -0.1365994513, 0.0835517943, -0.0065242946, -0.0716472641, -0.0541743115, -0.0878091156, 0.1325035691, -0.0964839906, -0.0222420469, -0.0381514728, 0.0043253154, -0.0260249898, 0.0086497068, -0.0030970573, -0.1217440665, -0.0821666569, -0.0286961570, -0.0766583905, -0.0796737522, -0.0486567169, 0.0273491889, 0.0495260954, -0.0364655554, -0.1310333908, -0.0503229499, -0.1369964629, -0.0827264637, 0.1193771660, 0.1357959211, -0.1089389324, -0.0197579190, 0.1134328246, 0.0000629872, 0.0517003536, -0.0261165798, -0.0174621418, -0.0715729967, -0.0345028266, -0.1108712628, -0.1362726539, 0.0875827670, 0.0807098895, -0.1161710471, 0.1090866327, 0.0080969632, 0.1082508564, 0.0859593898, 0.0326577574, -0.0334438086, -0.0377123132, -0.0122229159, -0.0202482492, 0.0624642670, 0.1224562228, -0.1304942220, 0.0762087852, -0.0128497183, 0.0519592315, 0.1162687838, 0.1387607753, 0.0440767556, -0.1130612567, 0.1131718457, 0.1204818487, 0.0526719540, -0.0441334248, -0.0156443715, -0.0298641920, -0.0067605376, 0.0380053669, 0.1081912369, -0.1134209484, 0.1371276975, -0.0780578777, -0.0509786680, 0.0324941278, 0.0160877109, 0.0670319796, 0.1309209764, -0.1064061970, 0.0292554945, -0.0883832425, 0.1280912459, -0.1354693770, 0.0880735964, -0.0031712651, -0.1211155728, 0.1329089403, 0.0452073365, -0.0210325792, -0.0141366422, -0.0536980703, 0.0677680373, 0.0562004745, -0.0263897106, 0.0987770259, -0.0655112416, 0.0411955118, 0.0760035515, -0.1380176395, -0.0476797447, -0.0872497857, 0.0372288078, 0.0715301037, -0.0735965520, 0.1224122941, 0.0258111358, 0.0802666545, -0.1138567701, -0.0070452839, 0.0336771160, -0.0261745378, 0.0712064505, 0.0105663687, 0.0877330303, -0.1365126073, -0.0522733256, -0.1393304318, 0.1165758669, -0.0104436129, -0.0975427032, -0.1398151219, 0.1164016128, 0.0304382741, -0.0426431894, 0.1133068502, 0.0003105849, 0.0997271538, -0.0219360963, -0.0493945107, 0.0764025450, -0.0366179422, 0.1320396662, -0.1366593242, -0.0118538290, 0.0946254432, -0.0465348139, 0.0909787267, 0.0550854951, 0.1358765066, 0.0066733360, 0.0186594278, -0.1217430234, -0.0297416300, -0.1283737272, 0.1371620297, 0.1145803034, 0.0942539722, 0.0390887707, 0.0452859253, 0.0467149913, 0.0254736692, 0.0109207928, -0.0081755668, -0.0511046126, -0.0883203149, 0.0607191771, -0.0498563349, 0.0343867391, 0.0564493835, 0.1365784705, 0.0163190961, 0.0916197896, -0.0296980217, 0.0189144462, -0.0424254835, 0.1300695837, 0.1408499777, -0.0746717080, 0.0403561592, 0.0958893299, 0.1076315790, 0.0706877559, -0.0883229524, 0.0197231621, 0.1399888396, 0.0509894788, 0.1021032780, 0.0893096924, -0.0068536848, 0.0807623863, -0.1019227579, 0.1169229448, -0.1140113175, -0.1251235455, -0.0066347271, 0.1111194193, 0.0550578982, -0.1271903366, -0.0653529391, 0.0623179227, 0.1261485219, -0.0817542523, -0.0550602674, 0.0529451817, 0.0807099640, -0.0388560966, -0.0120279342, 0.0988950282, -0.1231378764, 0.0481009334, -0.0423436835, 0.0353599638, -0.0549879298, -0.0592530891, -0.0218723938, 0.0710069537, 0.1229436398, 0.1079145968, -0.0085850954, -0.0047080666, 0.0178433210, -0.1375361234, -0.0601041168, 0.1324453354, 0.1331966817, 0.0246457607, 0.0581206828, 0.0392652750, 0.0842472911, -0.1066307575, -0.0795630068, -0.1179383993, -0.0241087303, 0.0277201235, 0.1052454859, -0.1385065466, 0.1335451007, 0.0227008015, -0.1396165341, -0.0362085029, -0.0351351723, -0.0654509217, 0.0687699020, 0.1225769222, 0.0744854510, 0.1255021095, -0.1321394444, 0.0780929923, 0.0271566063, -0.0276551843, 0.0149240345, -0.0003921837, 0.0518055260, 0.0191933215, -0.0506519452, 0.0398653001, 0.1023600250, -0.0525265262, -0.1273256987, -0.1329927742, -0.0581064671, 0.0955484509, 0.0829373151, 0.0442264676, 0.0840716064, 0.0972250849, 0.0455095470, 0.0904845744, -0.0696857199, -0.0148353875, -0.0075237602, 0.1169651449, 0.0434059054, -0.1111259162, 0.0579796433, 0.1049687862, 0.0201835334, -0.0967626870, 0.0945739150, 0.0233050138, 0.0178732425, 0.1229175329, 0.1018804014, -0.0535406843, 0.1342036128, 0.0679824650, -0.1105360910, -0.0357386097, -0.1162350178, 0.0696860254, -0.1259712279, -0.1114561558, -0.0037014782, -0.1286512911, -0.0002639741, -0.0132845640, 0.0510274470, 0.1193087995, -0.0720960498, -0.0779906958, -0.0185849220, -0.1015994102, 0.0450344831, -0.0661783069, 0.0317932218, 0.1229522228, -0.0526704043, 0.0044842213, 0.0962147415, -0.0209282860, -0.1250780225, -0.0049511790, -0.0380635262, 0.0838462263, 0.1351819634, 0.1344037056, -0.1190581024, 0.0126238465, 0.0257661492, 0.1186591983, -0.1153031290, 0.0648303181, -0.1214886010, 0.1252870858, -0.1213383451, 0.0974729955, -0.0566641912, -0.1051530838, -0.1108407006, -0.0731355399, 0.1406456530, 0.1167815328, 0.1265373230, -0.1319768280, 0.0114402324, 0.0626641065, 0.0375645906, 0.0091421306, 0.0064403266, -0.0194486156, -0.0191335082, -0.1108299941, -0.0591257960, -0.1201021522, -0.0963414311, -0.0138979256, 0.0193317235, 0.0794552714, -0.0520709157, -0.1370522529, -0.1303470433, 0.0500373244, 0.0827433169, -0.0331275538, 0.1114358306, -0.0069304556, 0.1330058575, -0.0092646033, -0.1359118074, 0.1320087016, -0.0510452688, 0.0559328496, -0.0396505967, 0.0653740764, 0.1145409048, 0.1266462505, 0.1313441396, -0.0296953246, 0.1040669829, 0.0839635283, -0.0767714605, 0.0660234541, -0.1377348602, -0.0512451082, 0.0580763668, 0.1232945025, 0.1149722934, -0.0200097337, 0.0202475339, 0.1349317729, -0.0742510259, -0.0573497936, 0.0791531950, -0.1102009565, -0.1396402121, -0.0755170733, 0.0653930306, 0.0098909587, -0.1062234491, 0.1323508024, 0.1237680614, -0.1106733829, 0.1328194439, -0.0896875486, 0.0325127393, -0.1340124011, -0.0634183064, -0.1010301486, 0.0806081742, 0.0666366816, 0.0349248946, 0.1017711461, 0.0637349337, 0.1298986673, 0.0391875207, 0.1011285931, -0.1380858719, 0.0144712329, -0.1124905795, -0.1161211357, -0.0385520980, 0.0103383362, 0.0067743808, 0.1147243977, -0.0032359362, -0.1156844720, -0.0306861773, 0.0299968272, 0.1021212488, 0.0563451946, 0.0869898647, 0.1223702431, 0.1133406162, -0.0033182800, -0.0064122230, -0.0672590360, -0.0867107585, 0.0708718598, -0.0624295101, 0.0573062897, -0.0374341235, 0.0465905070, 0.0633993298, 0.0258278549, -0.0395507291, -0.0433533862, -0.1380792111, 0.1169669628, 0.0029529482, 0.1332741678, -0.0941819698, -0.0896026045, -0.0971663594, 0.1358090639, -0.1327047795, 0.1217339635, -0.0216546580, 0.0508747101, 0.0971057266, -0.1333273053, 0.0127449930, -0.0869213715, -0.1206792146, -0.0517921150, -0.0442638621, -0.0325743407, 0.1246260703, -0.0535643622, -0.1320214719, 0.0398671180, 0.0034259856, -0.0093798935, 0.1411513090, 0.0410757214, 0.1134561896, -0.1040286198, -0.0653759390, 0.0746058524, 0.0765033662, -0.1105603129, -0.0572775230, -0.0457854420, -0.0414517894, -0.0212003961, -0.0219133645, 0.0020117015, 0.0165394694, -0.0930462554, -0.0386115760, -0.0790891275, -0.0021740198, -0.0915725380, 0.1011582166, -0.1345310360, 0.1259936988, 0.1248106360, 0.1305483282, -0.0544925332, -0.1143403053, -0.0377440974, -0.1054140925, -0.0259196833, 0.0243353844, -0.1267398298, -0.0380111486, 0.0846356601, -0.0045468956, -0.1255117357, 0.0115009248, 0.0681696832, 0.0006586909, -0.0079814643, 0.1062992066, 0.0674635321, -0.0896277353, -0.0488287657, 0.0320090353, 0.0019752234, -0.0322999954, -0.0356780812, -0.0199483037, -0.0520100519, -0.1399608254, -0.0912676901, 0.0947002620, -0.0789589584, 0.0643138587, -0.0290851668, 0.0100641251, -0.0174373910, -0.1159623265, 0.0315825045, 0.0887784660, 0.0451155007, -0.1084532589, -0.0341604948, 0.0299408883, 0.0445520133, -0.1148175672, -0.0456978306, -0.0900335908, 0.0339831412, -0.0650335103, 0.0673806518, 0.0501056165, -0.0612616166, 0.0884916186, 0.1345449090, -0.0026518255, -0.0092591196, 0.0450948626, -0.0863476545, 0.0612449944, 0.0216908306, 0.0356227010, 0.0896900445, -0.0000396222, -0.0994972214, -0.0422322303, -0.0625541061, -0.0692355484, 0.0980760157, -0.0766038448, 0.1066015065, 0.0540685058, -0.0017358661, -0.0879757553, -0.0376818180, 0.1040225029, -0.0563701168, 0.1369560659, -0.0787466541, -0.1309203506, 0.1110226512, 0.1031137854, -0.0780961365, 0.0887530893, -0.0684055910, 0.0517617464, 0.1160119474, 0.0516238511, -0.0505587235, 0.0064971000, -0.0896255746, -0.0168978497, 0.0235823691, 0.0782183409, -0.0917774066, -0.1204408705, -0.0507557318, 0.0469008535, 0.1342635155, 0.0705738664, 0.0823543370, 0.0156312585, -0.0976406783, -0.1124448180, -0.0599531829, 0.1261284351, 0.0099909306, 0.0953394026, -0.0478748530, -0.0950851142, -0.1237243265, 0.0709503442, 0.0579104424, 0.0809561461, -0.1206527054, 0.0679132640, -0.0867725983, 0.0145194978, -0.1027562916, 0.0880841315, -0.0818495899, 0.0670380890, -0.0509460419, -0.0585060418, 0.0694177151, 0.1115240753, 0.1239466667, -0.0011121035, 0.0065354407, -0.0177106485, -0.0349328965, 0.1257373095, -0.0761464760, -0.0425454825, -0.0821007341, -0.1083571762, -0.1285254508, -0.1088390276, -0.0630412623, 0.0789995939, 0.1016813070, -0.1204868034, 0.0489458591, -0.0755994469, 0.0963882804, -0.0135293156, -0.0794235170, -0.0554301590, -0.1050327495, 0.0506592095, 0.0755565912, -0.0614493266, -0.0322430506, 0.0716223717, -0.0014311373, -0.0976195335, -0.0552609563, -0.0162008256, 0.1117347181, -0.0903483629, -0.0909540355, 0.0819460154, -0.0460241884, 0.0641529560, 0.1202680767, -0.0940929353, -0.0177498609, 0.0429854542, -0.0677072778, -0.0311433077, 0.0856385082, -0.0351024121, -0.0523036867, -0.0602054745, 0.1174390912, -0.0293496177, -0.0386607498, -0.0241299719, -0.0959391519, -0.0093737245, -0.1003361940, -0.0615223125, -0.0442417413, 0.0464935452, -0.1066301465, -0.1306884289, -0.1121632457, 0.1371061504, -0.0200501978, -0.0718167797, 0.0825218260, -0.0224714428, -0.1040410548, -0.1040038615, 0.0402374119, 0.0646115392, -0.1110487804, 0.0557043701, -0.0080828220, -0.1080138981, -0.0534703359, 0.0109890252, -0.1078830585, 0.0154000223, 0.0417023897, -0.0328674614, 0.1192510426, 0.0256559402, -0.1110477000, -0.1048921198, -0.0724747553, 0.0536875725, -0.1189706326, -0.0141292065, 0.0690408349, -0.0356918275, 0.1017013341, -0.1069561690, 0.0631794930, -0.1317495257, -0.1395203024, 0.0694261044, -0.1121920571, 0.1360006332, -0.0327005833, 0.0685485899, 0.0700406730, 0.0011438876, -0.0957492068, -0.0301011503, -0.0827487558, 0.0412199348, -0.0836518258, -0.0557087958, 0.1186270416, -0.1122400165, -0.1355965286, -0.0996625423, 0.0753057152, 0.1411158442, -0.1243146956, -0.1270564198, -0.0230598822, 0.0525600910, 0.0379243493, -0.1113235280, -0.1036933139, 0.1123693883, -0.0197110772, -0.0536672324, 0.1157080829, 0.0958091617, 0.0620405376, -0.0202437192, 0.0550007224, 0.0147692263, -0.0880988985, 0.0790659934, 0.0958584696, 0.0406094342, -0.0305647254, -0.1148210466, 0.0848443210, 0.0431195647, 0.0563543439, 0.0394913852, -0.0979972631, -0.0753454342, 0.0938332826, 0.0955449045, 0.0069154948, 0.0579035133, 0.1262195706, 0.1363161802, -0.0087504238, -0.1397049129, -0.0570947677, -0.1264110357, 0.0027372986, -0.0425899327, 0.1005718410, 0.1110343635, 0.0027067661, 0.1053419858, 0.0510338545, 0.1392246783, 0.0619153380, -0.0839328617, 0.0295848846, -0.0671551153, 0.0546133071, 0.0060445964, -0.0863936916, 0.0020578653, 0.1363548338, 0.1084946394, -0.0493580028, -0.0333335102, -0.0603998750, 0.0909877419, -0.1187265143, -0.1054417193, 0.0453930497, 0.1092970073, -0.1008689106, 0.1042413265, -0.0587259755, 0.0586935580, 0.1078179479, 0.0390947759, 0.1076750159, -0.0895843357, 0.0992387533, 0.0187833756, -0.0959160477, 0.0318259448, 0.1261394322, -0.0456896201, -0.1019615233, -0.0573984310, 0.0200853944, 0.0959177762, -0.1323283762, 0.0247335136, -0.1199870855, -0.1377833188, -0.0234212950, 0.0095883161, -0.0139676630, 0.1140919924, -0.0485236198, -0.0475790352, 0.0191218555, -0.0145212263, -0.0731040314, 0.0041254014, -0.1341314912, 0.0727768242, 0.0100204945, 0.1102472842, 0.0045839548, 0.0434303582, -0.1016135514, -0.0249377042, 0.0391514450, 0.0586031824, 0.1184520721, 0.0719180256, 0.0379567295, 0.0446586460, -0.0781583190, 0.0435887873, 0.1168113947, 0.0258187652, -0.1203366145, -0.0357849449, 0.1293529272, -0.1239472032, 0.0610199273, -0.1286339611, 0.0373570174, 0.0128002763, 0.0852194428, 0.0091471672, 0.0545049906, -0.0457496420, 0.0201936662, -0.1297385991, 0.0146301687, -0.0352144688, -0.0944184512, 0.0482083410, 0.1163809299, 0.0235565305, 0.0074421912, 0.0305040330, 0.0283433199, -0.0196042806, -0.0211830363, 0.0336336941, 0.1094875634, 0.0903243870, 0.0246670097, -0.0665710270, 0.1273644269, -0.0090788752, -0.0979299471, -0.1166877598, -0.1056770235, -0.0716006234, 0.1106310189, 0.0686394423, 0.1326159239, -0.0955277234, 0.0402591974, 0.0148028284, -0.0147639513, -0.1406666934, -0.0026756227, 0.1055751890, 0.1158701479, 0.1106992662, -0.0942659229, 0.0006200224, 0.1132850051, -0.1176323742, 0.0184906274, -0.0512099862, -0.0301716328, -0.0391766801, -0.0920316204, 0.1411932707, 0.0267758816, 0.0585830510, -0.0103919059, 0.0877077579, -0.1023365557, 0.0987495035, 0.0713452995, 0.1070568562, 0.1024957299, 0.0781248510, 0.0078632534, -0.1231138706, 0.1395238638, -0.1108634323, -0.1408748478, -0.0912193954, 0.0204432607, -0.0761923790, 0.0656478852, 0.1169877946, -0.1118474603, 0.1196717322, -0.0429578274, 0.0153682977, -0.0929756686, -0.1062650234, -0.0066931993, -0.0427855104, -0.0780318007, 0.1163239479, -0.1300804615, 0.0289914757, 0.1313064694, 0.0940432847, -0.0585418418, -0.1094619855, 0.0316588283, -0.0368709415, 0.0101172477, 0.0287420899, -0.0453694165, -0.0002988279, 0.0275881439, 0.0854790211, 0.0673242807, -0.0846582949, -0.0082365274, -0.0891814157, 0.0193042755, -0.1173262149, 0.0703514963, 0.0991231054, 0.0069442391, -0.0018974841, -0.0220551491, -0.0478834659, 0.0186541229, 0.0495253801, 0.1402138770, 0.1118430495, -0.0687952712, -0.1173816770, -0.0342836976, 0.1222109199, 0.0698201656, -0.1393485367, 0.0586146265, 0.1236575842, 0.0405347943, 0.0487208515, -0.0306810811, 0.1056610495, -0.1063449681, 0.0126874447, -0.0736612305, 0.0199653506, -0.0789683163, 0.0802420676, 0.1120029986, 0.1053370833, 0.1068872362, 0.0694553852, 0.1101921499, 0.0602694154, -0.1410109103, 0.0443476140, -0.1211981475, -0.0715139955, -0.0876669288, 0.0722086579, 0.1189718544, -0.0036978275, 0.1299400926, 0.1210340858, 0.0042680353, 0.1325783432, 0.0469138175, 0.1347313523, 0.0717666298, 0.1008924544, 0.1015121043, -0.1226218194, 0.0192807615, 0.1351046860, 0.1121381223, -0.0960343927, -0.0517312214, 0.0380129665, 0.0187035650, -0.0257577375, 0.0330470353, -0.1285205185, -0.0818228424, -0.0513386652, -0.0019900203, -0.1196159795, -0.1133298948, 0.0800912976, -0.0745906904, -0.0348949060, 0.0627032518, -0.0202456117, 0.1141349077, -0.0902350545, -0.1145844236, -0.1014346182, -0.1354350299, 0.1405351758, -0.1379624605, 0.0649852753, 0.0410885811, 0.0769043565, 0.0457493365, 0.0393125564, 0.0621244758, 0.0025822818, -0.1187688336, -0.0144496858, 0.0936317593, 0.1121620536, -0.0966280997, 0.0231876522, 0.1286225319, -0.0456039757, -0.0010339916, -0.0939307213, -0.1175267994, 0.0619143248, 0.1101521552, 0.0018358082, -0.0469444916, -0.0280248001, -0.0522303954, -0.0802185833, -0.0253608897, -0.0355842933, 0.0604318231, 0.0081017911, 0.1186806858, -0.0893091857, -0.1334323138, -0.0207862332, 0.0594040602, -0.0136906505, 0.0328788161, 0.0845654458, 0.1194530427, 0.0112037510, -0.0212142766, 0.0255398005, 0.0178903341, -0.1327704489, -0.0179740563, -0.1253036559, -0.0143102705, -0.1389323473, -0.0937902927, 0.0071765929, 0.0735763311, -0.0025143921, 0.0907176137, 0.0782439411, -0.0621994436, 0.0479756743, 0.1151647270, 0.0618586391, -0.0188288987, -0.0064912587, -0.0040119886, 0.0812583417, 0.1152384877, -0.1287976652, 0.0709506124, 0.0184789002, 0.0096104443, -0.1251659989, -0.1029975116, -0.0340366438, -0.0804005936, -0.1278019100, 0.0693323016, 0.1383902431, -0.0444262102, 0.0344920158, 0.1281091869, -0.0809934959, -0.1395218968, 0.1254316866, 0.0361112058, 0.0535156578, -0.0562665388, -0.0905803293, 0.1172609329, 0.1111462414, -0.1198938042, 0.1228581369, 0.0917191058, -0.0866649002, 0.1080057621, 0.1293254495, 0.1006382406, 0.0412831157, 0.0296007246, 0.0703556240, 0.0451989621, -0.0827459171, 0.0001970381, 0.1011598408, -0.0119085759, -0.1174218282, -0.1009389907, 0.1111413538, -0.0153412223, 0.0091094375, 0.1408126056, -0.0833611414, -0.0747251064, -0.0016714334, 0.0803418010, 0.1261589229, 0.0648175627, 0.1107191741, -0.0134761631, 0.0496053249, 0.0826832354, -0.0319144353, 0.1013217121, 0.0332026035, 0.1212844551, 0.0762615502, 0.0994036645, -0.0857183486, -0.0885289013, -0.0291873291, -0.0188512281, 0.1189964414, -0.0099438876, -0.1033917516, 0.0822760612, -0.1383379847, 0.0908885747, 0.0988326520, -0.0282342657, -0.0449248478, -0.1118958294, -0.0483106375, 0.0314423740, -0.1030074060, 0.0260280669, 0.1358500123, -0.0928114206, -0.0289797932, 0.0105731338, 0.0626550913, -0.0288502723, 0.0375010967, 0.0829938799, 0.1354582608, -0.1324929893, 0.0585232973, -0.1083778143, -0.0239554271, 0.0443789661, -0.1166618168, -0.0627597198, 0.1252568364, -0.0050201118, -0.0421830937, 0.1062932611, -0.1077298224, -0.0445851833, -0.0738790035, 0.0515840948, -0.1245236173, -0.0699399635, -0.0344762132, 0.1174872220, 0.0350657254, -0.0291342363, 0.0509273708, -0.0414425656, 0.0599098802, 0.0337879956, -0.0716140643, -0.1291255057, -0.0731619224, 0.0589427352, -0.0659989640, 0.0602271259, -0.0846965909, 0.0979719013, 0.0810329467, 0.1241526008, -0.1266897321, 0.0921730995, 0.0012508184, 0.0227413625, -0.0246142223, -0.0159903467, -0.0409050882, 0.1131622195, 0.1107107699, -0.0858897567, 0.1100469530, -0.0447429121, -0.0267649740, -0.0855972320, 0.1169436276, -0.1098720655, 0.0788450390, 0.0593671799, -0.1267077029, -0.0760668740, -0.0782832503, -0.0185156167, -0.0350060165, 0.0438662469, -0.1321144551, -0.0340951085, 0.0141293705, -0.0453485101, -0.0877572075, -0.0964636579, 0.0379099250, -0.0972379893, -0.1389768571, -0.1117540076, -0.1087064594, 0.1312872171, -0.1143341586, 0.1213944852, -0.0477991700, -0.0664092153, -0.1015802920, 0.0822800100, 0.1310510635, 0.1181100607, -0.0343921110, 0.0314221829, 0.1365010738, 0.0778294951, 0.1098000705, -0.0228023604, 0.0288497359, -0.1109827533, -0.0715176091, 0.1245358586, 0.1271929741, 0.0789755434, -0.1365747601, -0.0439883322, 0.0147091746, -0.0055812299, -0.1271834075, 0.1312287748, -0.0290847272, -0.0961807370, -0.1258533001, 0.0417374074, 0.0828862786, 0.0033191592, 0.0503711402, 0.0463005900, -0.0426000282, 0.1128478050, -0.0109738559, -0.0434694365, 0.0158042163, 0.0875683129, 0.0066856295, 0.0133632571, -0.0695079342, -0.0015208423, -0.0112628639, -0.0237919986, -0.0233297721, -0.0620292947, 0.0489889532, 0.0581835061, 0.1291625798, -0.0761328340, 0.0302076787, 0.0995629132, 0.0874591470, -0.1287978590, -0.0472959429, -0.1065953672, -0.0998286754, -0.0080559701, 0.0239415765, -0.0903453231, -0.1066241711, 0.0675803572, -0.1027019843, -0.0589298382, -0.0620261878, 0.0283563584, -0.1061720401, 0.0740090311, -0.1268357337, 0.1400016844, 0.0636485815, -0.0304571912, -0.0731626973, -0.0336292610, 0.0072146207, -0.1284335107, 0.1323361397, -0.0974152982, -0.0481679142, -0.1364536732, -0.1162676811, -0.0258182958, 0.1366283298, 0.0842065364, -0.1223045141, 0.1189386249, 0.0364405960, 0.0186062604, -0.0497186705, 0.1054485440, -0.1158861369, 0.0443797112, -0.1125261784, -0.0413395241, -0.0028751940, -0.0216922835, -0.1208409220, 0.0735593438, 0.1062046736, -0.0950281695, -0.0736329630, -0.1397433132, 0.0538729578, -0.1157245636, 0.0942574888, -0.0467508957, 0.1034962386, -0.0885664225, -0.0046222210, -0.0277700797, -0.0344765782, 0.1294330955, -0.0812690854, 0.1152612865, 0.0794356465, 0.0736385733, -0.1300320625, 0.0147330165, -0.1063562110, -0.1409586370, -0.0026671886, -0.1350675672, 0.0614605397, 0.0197752416, 0.1308517754, -0.1009441316, 0.1333071887, 0.1296148896, -0.0216758326, -0.0747289881, -0.1278954893, 0.1331876516, 0.0670942217, 0.0521319509, 0.1046168655, -0.0295995101, -0.1367798001, 0.0166434348, -0.1141132489, -0.0622313991, 0.0526418984, 0.0971650332, 0.0460052043, -0.1377473474, 0.1228962541, -0.1020516381, -0.0560059696, -0.0628962666, 0.0395692736, 0.1047078073, 0.0402481556, 0.0222158432, -0.0820783749, -0.0895704925, 0.0360557139, -0.0963439345, 0.0971147120, -0.0883529484, -0.1176658422, 0.0054161400, 0.0738972723, -0.0171370059, 0.0036266595, -0.0635317191, 0.0862543434, -0.0488780066, -0.0013894141, 0.0534683764, -0.0584034026, -0.0493433103, 0.1103508770, 0.1346282959, -0.0655946583, -0.0227537900, 0.0027850866, -0.0967241228, -0.0787474364, -0.1185636222, -0.0423464552, -0.0957144499, 0.0225558132, -0.1055948138, -0.0241275430, 0.0361688584, 0.0754080117, 0.1383718550, 0.0744449198, -0.0777966306, -0.0420596451, -0.1394989938, 0.0731232762, 0.0856537074, 0.0799047649, -0.0135336816, -0.0087829530, 0.0654447675, -0.0456945524, -0.0887334347, -0.0336189941, -0.0617238432, 0.1160322130, 0.0731070787, 0.1355733275, 0.0322532505, 0.0462514162, -0.0205893293, 0.0426964462, 0.1010830998, -0.1263855100, 0.0657826811, 0.0366507322, 0.0780970901, 0.0485433042, 0.0788692534, -0.0032156110, -0.0644034222, 0.0079375505, -0.1408690661, 0.0661257505, -0.1268250346, 0.0542893559, 0.1003260314, 0.0440820903, 0.0695815533, 0.0289787501, 0.0590873212, -0.0843409896, 0.0248421878, -0.1354233027, 0.1248833835, -0.0701856017, 0.0530586243, 0.1160287559, 0.1372318268, 0.0827274770, -0.0345464945, -0.0839249939, -0.0495744571, -0.1337731928, -0.0710577816, 0.0641058832, 0.0474262387, 0.0346129239, 0.1287809014, -0.1230146736, -0.1055219322, -0.1151332110, -0.0515227690, -0.0669794232, -0.1232323125, -0.0227715895, 0.1139982045, 0.0045616329, -0.0661689490, 0.1324647963, 0.1235626936, -0.1399067491, 0.1234119236, -0.0961276069, -0.0604719147, 0.0157488286, 0.1108051538, 0.1386899054, 0.0131129473, -0.1237390563, 0.0574322790, 0.0220834464, -0.0011385828, -0.1097384542, -0.0489693657, 0.0038573444, -0.0205884874, 0.0593659282, -0.1134065613, 0.1102882326, -0.0158632249, -0.0526226759, 0.1331032515, -0.0236191079, -0.0120895356, -0.0283346474, 0.0175020695, 0.0910135061, 0.1346649528, 0.1252385676, 0.1217861474, 0.0326721072, 0.0332953483, -0.0041601956, -0.0171570331, -0.1214578673, 0.0205910206, -0.0453628600, 0.1013184041, -0.0576767251, 0.1347776055, -0.0176474974, -0.1331277043, -0.0812237263, 0.0701896846, -0.0128112882, -0.0516344905, -0.0166129321, 0.1234031022, -0.0647812188, 0.0573082864, -0.0330839828, -0.1147855148, 0.1098074317, 0.1021533012, 0.0398281366, 0.0947385281, -0.0723675266, -0.1144526377, -0.0506959185, 0.0547313094, -0.0717719570, 0.0599863827, -0.0416525751, -0.0645372346, -0.1300836354, -0.0802280158, 0.0162953585, 0.0198400915, -0.0945322663, 0.0544914454, -0.1274255961, 0.1130714118, 0.0963469744, -0.0941039175, 0.0570626110, 0.0718819946, -0.0473082364, 0.0722549558, -0.1384296566, 0.1177627444, -0.1273586005, -0.0620972142, -0.1015862972, -0.1363506019, -0.1167866811, 0.1070886701, -0.1378466189, 0.0684129447, 0.0766122937, -0.0030312389, 0.0123071820, -0.1179843694, -0.0954659432, 0.1329309940, 0.0577398539, -0.0187194422, 0.0869605541, 0.1204256713, 0.0399338901, 0.1159450114, 0.1311018169, -0.0174229667, -0.0488120466, -0.1131076962, -0.0166511387, 0.0206916630, 0.0963379890, 0.0334351957, -0.0130727589, 0.1230318546, 0.0005137324, 0.0293865651, 0.0418606550, -0.0199766383, 0.0919488370, 0.1150079966, -0.1325027794, 0.0981610566, 0.0289263278, 0.0483445525, -0.0798576176, 0.0071627796, 0.0908667296, 0.0124546736, -0.1214032918, 0.0442076921, 0.0049979240, 0.0824630260, -0.1214767843, 0.0504360199, -0.0760684311, -0.0131544918, -0.0760230049, 0.1133592725, -0.0634227991, -0.0488837808, -0.0504959747, -0.0977393985, -0.0876571387, 0.1372832060, 0.1355501413, 0.0407703966, -0.0086471438, 0.1130965948, -0.0662401766, 0.0862648040, -0.0348126665, 0.0731307417, -0.1399874687, -0.1343963742, 0.1041003913, -0.0234703720, 0.1263836920, -0.0334393904, 0.0857989639, -0.0901453495, -0.1215480790, 0.0251865834, -0.0059367567, 0.1078816056, 0.1274008453, 0.0717377067, 0.1224281788, 0.0502532721, 0.1309920847, 0.0504476130, -0.0452931896, -0.1305273920, -0.0064114481, -0.0750151202, 0.1008053869, 0.0836882740, -0.0371162072, 0.1117380559, 0.1266270578, -0.1278678030, -0.0011128187, -0.0258428827, -0.1049999893, -0.0540782586, 0.1005965620, -0.0884532854, -0.0267927647, -0.1265895665, -0.0427166149, -0.1029221863, 0.0428408086, 0.1174900234, -0.0275613591, 0.0882895142, 0.0721635669, 0.0792470127, -0.0401393026, 0.0392185599, 0.1209323704, -0.0884589553, -0.0418330953, 0.0216653645, 0.0538676083, 0.0270614326, 0.1153727472, -0.1401795000, 0.0618347973, 0.0921458453, 0.1212257147, -0.1015510410, -0.0399981290, -0.0606833026, -0.0724736452, -0.0347072259, 0.0641415119, 0.0132128596, -0.0660955235, 0.0621766895, -0.1340749264, -0.1088841856, -0.0554674789, -0.1261067986, -0.1234462038, -0.0773681477, 0.0586123019, -0.0290679783, -0.0474772006, 0.0112985522, 0.0087082386, 0.0815820992, 0.0835031569, 0.0282107890, 0.0717436969, -0.0015450865, 0.0978424102, -0.0899330229, 0.1107538342, 0.0160497278, 0.0540579259, -0.1066961139, -0.1070010513, 0.1293853521, -0.0953319669, -0.0684426054, 0.0020957738, 0.0558429062, 0.0973669738, 0.0332678556, 0.1356211007, -0.0802643150, -0.0003807396, 0.1358921230, -0.0538286716, -0.0830708593, 0.0519736111, -0.0969323665, 0.1372231543, -0.0498501882, -0.0308227912, 0.0410750657, 0.0966320485, -0.0927351266, 0.1119951010, 0.1017035991, -0.0782986134, -0.0967630967, 0.1042883098, 0.0711940527, 0.0291834176, 0.0976389199, 0.0685393959, 0.0811058581, 0.0068042129, 0.0425925702, -0.0690945387, 0.1381819546, -0.1264941245, -0.1154312715, 0.1021823436, 0.1412780881, -0.0885021240, 0.0404549241, 0.0035048723, -0.0683283806, 0.1049017757, -0.0424222425, 0.0608528107, -0.1199950874, 0.0417639613, 0.1376888156, 0.1041252762, 0.0330803394, 0.1223546863, -0.0531358719, 0.0365090966, -0.1336769313, 0.0311861336, 0.0637328774, -0.0883906335, -0.0697846413, 0.0943327993, -0.0138406456, -0.0675406083, -0.0084878057, -0.0690498576, -0.0724484473, -0.0350737721, -0.0493007228, -0.0559499413, 0.1134837270, 0.0149944574, -0.1035174578, 0.0687434226, 0.1309254169, 0.0693939179, -0.0876924992, -0.0287062228, 0.0389985591, -0.0632064119, -0.1089301482, -0.0304937735, -0.0024932176, -0.0333088860, 0.1165049970, 0.0652117282, 0.0942358971, -0.0765035376, 0.1058304161, 0.0895891637, -0.0672622398, 0.1001300812, 0.1127789319, -0.0269155726, -0.1118890718, 0.1085197330, 0.0587670207, 0.1160032749, 0.0591645986, 0.0007513613, -0.0842919499, 0.0132903010, 0.0435467362, -0.1004217416, 0.1254652739, 0.1051089168, 0.1106595397, 0.0818547308, 0.0925480276, 0.0297247022, -0.0980260670, 0.0436173230, -0.1250445545, 0.0840490758, 0.0646084994, -0.0182634294, 0.0191854239, 0.0214624852, -0.1207767203, -0.0359224379, -0.0116110295, 0.0978036076, -0.0172233954, 0.0402438045, -0.0032940954, 0.0597777218, 0.0203552097, -0.0502925590, -0.0689462721, -0.0513454527, -0.0903145969, -0.0361443311, -0.0183951110, -0.0039222240, -0.0136846453, -0.1173242256, 0.0331583917, 0.1196281314, 0.0640487969, 0.1108555198, 0.0058682412, -0.0060226768, 0.1369065642, 0.0351994485, 0.1044983864, -0.0850241631, -0.0230832174, -0.0667572245, 0.0186897814, 0.1016550362, -0.1377581954, -0.0665149614, 0.1128503978, 0.0829471350, 0.0892357975, 0.0007428825, -0.0413417146, 0.0953911990, -0.0906764418, -0.0543411896, -0.0920586437, -0.1362326294, 0.0972743034, -0.0379818305, -0.0416007265, 0.0657767653, -0.0308328941, -0.0185284540, 0.1224172711, -0.0331242457, 0.0547067970, -0.1352580935, -0.0740102530, -0.0473514646, 0.1272607446, -0.0914684758, 0.0448358208, 0.0011781603, 0.0236302912, -0.0552617311, 0.0981136411, 0.0587559044, 0.0864501297, 0.0287549943, 0.0967613459, 0.0669890791, -0.1100509018, 0.0935460329, 0.1050592959, -0.0477261469, -0.0395722389, 0.0604839772, 0.0769290924, 0.0478807688, 0.0076605827, -0.0474982783, -0.0961076468, -0.0975407362, 0.0403399467, -0.0114460140, -0.0310900137, -0.1344097555, 0.0474595428, 0.1210859120, -0.0476660356, -0.0899536908, 0.0675697923, -0.0067057163, -0.0452068597, 0.0486885309, -0.0228850693, 0.1276056170, 0.0196254849, -0.0545971617, 0.0104685724, 0.0451736599, -0.0793741792, 0.0263756961, 0.0712900013, 0.0744408369, 0.1224945784, -0.1263387948, -0.0580799207, 0.0663368106, -0.0121999085, -0.1126660407, -0.0415398702, 0.0011019111, -0.1037724465, -0.1245698556, 0.0462235212, 0.0099159181, -0.0335724875, 0.0772924274, -0.0476175994, -0.0455339253, 0.0034096390, 0.0582796931, 0.0904732943, 0.1388889551, -0.0797947943, 0.0835561901, 0.0865748823, 0.0229038447, -0.0626587719, -0.0624083057, 0.0536484867, 0.0159282386, 0.1375255585, 0.1039920747, 0.0896252990, -0.1266079396, 0.1187488437, -0.0764665529, 0.0720859170, -0.1320393384, 0.0484951735, 0.0750847608, 0.0219896287, 0.0179877281, -0.0353321061, -0.0458659530, -0.0906851292, 0.0446278155, -0.0371256620, -0.0288601294, -0.1076864302, 0.0231809616, 0.0591273457, 0.0081359446, -0.0294227675, -0.0777158439, -0.1068163812, -0.0756733418, 0.0461117923, 0.0849035829, 0.0065076798, -0.0397825167, 0.0173524171, 0.0984373689, 0.1087338328, 0.0694596618, 0.0457978696, 0.0952853858, -0.1257669330, 0.0704171509, 0.0194741488, -0.1404923201, 0.0786896795, -0.1122690961, 0.0330865830, 0.1005112082, -0.1030245572, -0.0826211572, 0.1086305976, 0.0199157149, -0.0064321607, -0.1278769225, 0.1200179160, -0.0728720427, 0.0744633675, -0.0996889174, 0.0388314128, 0.1143080294, -0.1070513427, -0.0489508584, -0.0719368085, -0.0163906366, 0.1139257550, 0.0279278457, -0.0227612182, 0.0773928612, 0.0232578665, 0.0599468946, 0.1393026412, -0.1316149086, 0.0734140426, -0.0123313218, 0.0465018153, -0.1183642596, -0.0733163357, 0.1135179102, 0.0152139217, -0.1358080208, -0.1144049838, -0.0572352335, 0.0865331143, 0.0889221728, 0.0508941412, 0.1042000204, 0.0787999928, -0.0052285194, -0.0226806030, 0.0013202131, -0.0059092641, 0.1376245618, -0.0440764874, 0.1292829514, 0.0057601631, -0.1343549788, 0.0430153459, -0.0040227324, 0.0168356001, 0.0060122460, 0.0117227584, -0.1112424359, 0.1145514846, -0.0365606248, -0.0821481198, -0.0174916983, 0.1356733739, -0.0061502755, 0.0423433781, -0.1159811765, -0.0842531770, -0.1282114536, 0.0552223474, 0.0114809424, -0.0323707536, 0.0944778621, -0.0082390904, -0.0317146257, 0.0686118454, 0.0851831287, 0.1001891792, 0.0697593391, -0.0987111330, 0.0367703289, -0.1039843112, 0.0848657936, 0.0305777937, 0.0509613156, 0.1199359000, -0.0524738356, 0.0353807360, -0.0320148394, 0.1140476465, 0.1022049338, -0.0260082334, 0.0688384622, -0.1108230650, 0.0521607548, 0.0966438055, 0.1389880776, 0.0649218559, 0.0294101387, -0.0601402894, -0.0929261893, -0.0215849131, -0.0354404151, 0.1127490103, -0.1024142653, 0.0037607104, -0.1245994717, -0.1361687630, -0.1000100076, 0.0466148257, -0.0089792013, -0.0331968889, 0.0642202049, -0.0147523284, 0.0995648652, 0.0757139027, 0.0606179833, 0.0951553285, 0.0384729356, 0.0226930976, 0.0680318177, 0.0069052577, -0.1102487147, -0.0129359812, 0.0298315734, 0.0222344100, -0.1205560416, 0.0994585454, -0.1099665314, -0.0514053032, -0.0710175857, 0.0507230014, -0.0153250396, 0.0219945163, 0.0620741397, -0.0491944700, 0.0014209598, 0.0487642288, -0.0974795371, 0.0308886170, -0.0438894108, 0.0275886208, 0.0590249747, -0.0812328830, 0.0206044912, -0.0217410475, -0.1109915972, -0.0090219676, -0.1371241212, -0.0944008902, 0.0448276848, 0.1303375065, 0.0690758973, -0.0242981687, -0.0174883828, -0.0056862682, 0.0226224065, 0.0346774012, -0.0121476352, -0.0065001100, -0.0415988714, 0.0940932781, 0.0972670317, -0.0466476530, -0.1365074515, -0.0874628350, -0.0982257426, -0.1277624667, -0.0803993791, -0.0112502575, 0.0289998502, -0.1134110913, -0.0312927589, 0.0929536819, 0.1321714222, 0.0520898253, 0.0211249888, 0.0406569541, -0.1017185897, -0.0517715812, 0.1414920688, 0.0102660507, 0.1246032715, -0.1118008196, -0.0332287773, 0.0252314657, 0.0173443407, -0.0953143016, 0.0702730119, -0.0070993602, 0.0574384481, -0.0591496006, -0.1019777358, 0.0450734943, 0.0117428899, 0.1114817858, 0.1343401074, 0.1358225048, -0.0480253547, -0.0376899540, 0.0435326248, -0.0946544632, -0.0390162915, -0.1311788112, -0.1087345332, 0.0643544197, 0.0942710340, 0.0791560560, -0.0975601226, -0.1233298182, 0.1232981682, 0.0901196152, 0.0837941170, 0.0191050321, -0.0216944739, -0.0236695707, -0.1024775207, -0.0587451607, 0.0163124204, 0.1088029444, 0.0641479641, 0.0805319399, -0.0595851541, -0.1211357340, 0.0806371868, -0.0895708650, 0.0436348617, 0.0780753344, -0.0676352084, -0.0249504745, 0.0473633856, 0.0822009444, 0.1103004813, 0.0032463372, 0.1051950008, 0.1254757941, -0.0792189837, -0.0540784672, -0.0429779887, 0.0764610171, 0.0236794651, -0.0114334226, 0.0678944886, -0.0636211187, -0.1013284773, 0.1029664278, -0.0906923190, 0.0773264319, -0.1230635419, 0.1268909872, -0.1250511408, -0.0885645375, 0.1372239590, 0.0367956609, -0.1319027990, 0.0931412280, 0.0042493939, -0.0060606152, -0.0944796205, -0.0927000716, -0.1159611791, -0.1232960448, -0.1227885932, -0.0979385599, 0.0502265990, -0.0816851109, 0.0870500803, -0.1288391650, 0.0368436128, -0.1233441010, -0.0118473768, -0.0968227088, -0.0194271728, -0.0572421923, -0.1230351776, 0.1326337457, 0.0578395128, 0.0545043200, 0.1281201243, 0.0491812676, 0.0619742125, -0.0206265152, 0.0899741948, -0.0341618434, 0.0312402099, -0.0709656402, 0.1390631199, -0.0057707578, -0.0349218249, 0.0837607831, 0.1331487894, -0.0998218507, -0.0365019962, 0.1317476630, 0.0445748866, -0.0142880082, 0.0055558532, -0.0635832921, -0.0472637862, -0.1182295680, -0.0873975456, -0.0531653911, -0.1146930754, -0.0582876652, -0.0408688486, -0.0083420724, 0.0928408056, -0.0322566628, 0.0009843111, 0.0396131128, 0.0593433678, 0.0952450633, 0.0002576560, 0.0409584194, -0.0270872414, -0.1321404874, 0.0477752239, -0.1387872100, 0.1374567151, -0.0998547822, -0.0404875800, 0.1259377301, -0.1189129129, -0.0965080038, -0.0817176700, -0.0911108106, 0.1166698337, 0.0498014838, 0.0988687575, -0.0422183871, 0.0773313344, -0.0522304326, 0.0578293800, 0.0203362256, -0.1097991765, 0.1121470630, -0.1111747175, -0.0673038885, 0.0650911927, -0.1382896900, 0.0064696372, -0.1019622087, -0.0211254507, 0.1019507498, -0.0277218148, -0.0393103585, -0.0879788697, 0.0335197300, -0.0319122672, 0.1071536094, -0.0738439187, -0.1235391125, 0.0172425508, -0.0465169102, 0.1219646037, 0.1060591042, 0.0804675967, -0.1210542694, 0.1366624832, -0.1030138209, -0.1323349625, -0.0892573372, -0.0763365924, 0.1358951032, 0.0849900842, -0.0668592528, 0.0102787912, -0.0628622919, -0.0634213164, 0.0211281180, 0.0686037093, -0.0501694158, 0.0935892314, 0.0980492085, -0.0183996707, -0.0896866024, -0.0271537080, 0.0717631429, 0.0743085146, -0.0664447844, -0.0928197652, 0.1137394309, -0.0197911486, 0.1166765988, 0.0332216769, -0.0167496875, 0.1039571613, -0.0989637971, -0.0470495597, -0.0674813017, 0.1329798102, -0.0915988088, 0.0740748644, -0.0054188669, 0.0348758250, 0.1283010244, -0.0735774040, 0.0859426707, 0.0021045208, 0.0339698792, 0.0714927167, 0.0325290859, -0.0471475720, -0.0862606913, -0.0713326633, -0.1287708133, -0.1041332856, 0.1112900972, -0.0161198080, -0.0224678591, 0.0382384509, -0.0173150897, -0.0148106664, -0.0768441111, -0.0302456021, -0.1237028167, 0.0817654580, 0.1415033340, -0.0122637153, -0.1103677005, 0.0426204205, -0.0669625998, -0.0367222354, -0.0035261512, -0.0412877128, -0.0536323488, 0.0763469934, -0.0714416206, 0.1156057119, -0.1115582213, 0.0332048237, -0.0976736099, 0.0515921712, 0.0007023960, -0.0580723211, 0.0113469511, 0.0467426628, 0.0749174505, 0.1352949739, -0.1309879571, 0.0603370517, -0.1063349694, 0.0527972281, 0.0614119470, -0.0830236077, 0.1269761920, -0.0103163123, -0.0742298514, 0.1069497913, -0.1119140685, -0.0212682486, -0.0088671744, -0.0025523156, 0.0926153958, -0.0032198876, -0.0789059997, -0.0927784592, -0.1114664972, 0.0493224710, 0.0069287717, -0.1218989193, 0.0955078602, 0.0754562169, 0.0747890025, -0.1376625150, -0.0453228727, -0.0076756328, -0.0101308227, 0.1151326001, 0.0311407447, -0.0643521920, 0.0636030138, 0.0967419595, 0.0056777149, -0.1203856170, -0.0516582653, 0.1080051214, 0.0250118375, -0.0300614312, 0.1367331445, -0.1206731647, 0.1229214370, -0.0177954882, -0.1219533980, -0.1058863178, -0.0361689553, 0.0322533250, -0.0494003892, -0.0998286754, 0.1250083447, -0.0171846896, -0.0648912862, -0.0158278346, 0.0186639875, -0.0918549523, 0.1231505573, 0.0010513067, 0.1285616755, -0.0503343642, 0.1273929775, 0.0356915891, -0.0933917612, 0.0472134650, 0.0796377808, 0.0872974396, -0.0428517461, -0.0540323630, -0.1175840124, -0.0824431032, 0.0735343099, -0.1066349447, 0.0180559605, -0.0651729256, -0.0861577466, -0.0755300075, 0.1165603697, 0.1058510244, 0.0207804888, 0.0363360047, 0.0923873335, -0.0617351606, -0.0230384022, 0.0893687308, 0.1314280927, 0.1136600077, -0.0209904611, -0.0547805876, 0.0173309296, -0.1356602311, -0.0612218976, 0.1031234860, -0.0284960121, 0.0701400489, 0.0476093888, 0.0072526932, 0.1060603261, -0.1181226075, -0.0895844698, -0.0407518893, 0.0232563466, 0.0917587280, 0.0824428350, 0.0147582740, 0.0092571378, 0.0596746802, -0.0839867294, -0.0148880035, -0.0302415490, -0.1250655204, 0.1222433746, -0.0180002600, 0.1400372088, -0.0286168605, 0.0359618813, -0.1222795844, 0.0777106434, -0.0453927144, -0.1107016504, -0.1133088917, -0.1063237190, -0.0335427001, 0.0449061096, -0.0740980282, 0.1135617197, 0.0596357733, -0.0674099028, -0.0095858574, -0.0245762244, 0.0350435823, -0.1230059266, 0.0576199889, 0.0639497787, 0.0408683717, 0.0852520317, 0.0271110535, 0.1191430092, 0.0756987780, 0.0497402847, -0.0132028610, 0.0549827218, -0.0497167483, 0.0550681055, -0.1404849887, -0.0336179137, -0.0623463616, -0.0979698673, 0.0336285233, 0.1251528263, -0.1401145309, -0.0702535585, -0.1266678125, -0.0180250853, 0.0983517766, -0.0080324262, 0.0114521235, 0.1083168536, 0.0646826327, -0.0477609709, -0.0436029062, 0.0020044446, -0.0649869666, -0.0141953081, -0.0057064891, -0.1176153570, -0.0859795883, 0.0012426376, 0.0353759080, 0.0520214736, -0.0011365265, 0.0431098789, 0.0988228917, 0.0690163821, 0.0685665905, 0.1296934187, 0.0346033275, -0.0100672692, 0.0734681189, 0.0020495951, -0.1414136738, 0.0384677947, 0.0467783511, -0.0573753938, -0.1414246112, 0.0050130486, 0.0345156193, 0.1032097787, 0.1229874194, -0.0813748688, -0.1218053028, 0.0091714859, 0.0897231847, 0.0432178825, 0.1355877221, 0.1176955402, -0.1228258759, -0.0188516676, 0.1386725903, -0.0074755251, -0.1120809093, 0.0856934190, 0.0179331899, -0.1298969686, 0.0561810583, 0.0631328225, -0.0782574117, 0.1226100028, -0.1333214343, -0.0509630665, -0.0366587788, 0.1067336649, 0.0831118524, 0.0737346262, 0.0766408294, -0.1360955387, 0.0982476622, 0.1327991784, 0.0512706041, -0.0494664833, -0.0231666416, 0.0917889625, -0.0323574767, -0.1071077436, 0.0780335516, 0.0524390489, -0.0621005893, -0.0133721977, -0.1051582843, -0.1180659309, -0.0247965977, -0.0661697239, -0.1170987859, 0.1086639464, -0.1355314553, -0.0866086259, -0.0511625707, -0.1099963859, -0.0864286125, 0.1100204289, -0.0027397722, -0.0477607325, -0.0980124250, -0.0012553036, 0.0517905951, 0.0430549234, -0.0244882107, 0.0741669685, 0.0628169626, 0.0433128923, -0.1167233586, -0.0881974101, 0.0208792835, 0.1159026921, 0.0297387838, 0.0857437402, -0.0913204476, 0.1292185783, 0.1254849434, -0.1285137534, 0.1391504109, 0.1053899825, 0.0277325213, -0.0385102183, 0.1356073618, 0.0700558424, 0.0472838432, 0.1129305065, -0.0282453150, 0.0984587818, 0.0458487272, -0.0390597880, 0.1275829077, -0.0111166537, 0.1222244203, 0.0591826290, 0.1249932051, -0.1125417501, 0.0887339413, 0.0118127316, 0.1004195809, 0.1230046749, -0.1346728504, -0.0823864266, -0.0042758286, -0.0121620893, -0.0994579047, -0.1342822313, -0.0935627520, 0.0514483303, 0.1152803898, 0.0270738602, -0.1270630360, 0.0010559112, 0.0342141241, -0.0538013205, 0.0782406628, -0.1103773266, 0.0812546611, -0.0104984194, 0.0837244391, 0.0216440558, -0.0319675952, -0.1110283434, -0.0671774670, -0.0329979658, -0.0682093650, -0.1328256577, 0.1204756796, -0.0782458559, 0.0876364708, 0.1001043469, 0.0363878012, 0.0223045051, -0.0664725751, 0.0463019758, 0.0425964147, -0.0041383058, 0.0133262426, -0.0245378911, -0.0958981141, 0.0045311898, 0.0742603838, -0.0007426143, 0.0592398196, 0.0448812842, 0.0894144922, 0.0747068673, -0.0230101347, 0.1075257659, 0.0993193388, -0.0784060806, 0.0498299599, 0.0416022092, 0.0344093740, 0.0015650839, 0.0577689260, -0.0495070443, -0.1219502240, 0.1191908717, 0.0509167910, 0.0785249323, -0.0384131223, -0.0358677581, 0.0704398453, 0.1023640782, -0.0091350675, -0.0740080550, 0.0455896854, 0.0001086146, 0.0228274912, 0.0026686788, 0.0248876810, -0.0927486047, 0.0820945203, 0.0604343861, 0.1174468994, 0.0524865687, 0.0991303027, -0.1211801469, 0.0775357038, 0.1290813386, -0.0965697467, -0.1059746668, -0.1202796996, 0.0658226013, 0.0312162191, -0.0627109185, -0.1113940477, 0.1315141022, -0.0267988145, 0.0898500085, -0.1029708609, -0.1039193645, -0.0870198607, 0.1143130958, -0.0241458789, -0.1050344408, -0.1080388278, 0.0121279061, -0.0940246135, 0.1145448685, 0.0259222835, 0.0439502001, -0.0371113792, 0.1182031929, -0.0119626522, -0.0171634108, 0.1072728634, 0.0271390826, 0.1329673231, 0.1008606106, 0.1360844970, -0.0009178072, -0.1128826961, -0.0726069137, -0.0336081535, 0.0515775830, 0.0976247042, -0.1207540557, -0.0171278194, 0.0745819062, 0.0176183134, 0.0648953766, -0.0688750073, -0.0236956775, 0.0885057002, 0.1355411112, 0.0896924436, -0.1288468093, -0.0046530813, -0.0789765567, 0.0387252867, 0.0529961437, 0.1358664632, 0.0930678695, -0.1239939481, -0.1194478199, 0.0311563164, -0.0433762148, 0.1375578046, -0.1048249081, -0.1197277382, -0.0972202271, -0.0748984665, 0.0726698339, 0.0476814359, 0.0938555747, 0.0207709968, 0.1199703217, -0.0643225685, -0.0029410571, -0.1386353970, 0.0957261324, -0.0844552442, 0.1198974252, -0.0315990150, -0.0428918004, -0.0121343583, -0.1004333645, -0.0433528498, -0.0214247257, -0.0125263631, 0.0705259442, -0.1303416044, 0.0659058541, -0.0316575840, 0.0311765075, -0.0916225910, -0.0073349923, -0.1063750535, 0.0651337206, -0.0859131962, 0.0069514960, -0.0183601230, 0.0743722320, 0.1218817532, 0.1415032446, -0.0295311511, 0.0074794888, 0.1309206486, -0.1161186695, 0.0580399632, 0.1136154234, 0.0834975243, 0.0037980080, 0.1129715443, 0.1124157608, 0.0924590975, -0.0582453087, 0.0169519186, -0.1066050231, 0.1188726127, -0.0532708988, -0.0273384526, -0.0478784740, -0.1013367772, -0.0914747566, 0.0514660925, 0.1216705441, -0.1303711534, 0.0484184474, -0.1054118946, 0.1313476861, 0.0661042780, 0.0039632171, 0.0275363624, 0.0569702536, -0.0992081538, -0.1088845581, -0.0701334551, -0.0131051838, 0.1365998089, 0.0699672848, 0.0295699537, -0.0920970067, 0.0539605916, -0.0472941473, 0.0416512936, -0.1359775066, 0.0635909289, 0.0555118322, 0.0333741754, -0.0820014775, 0.0229918361, 0.1113491654, 0.0517741740, -0.1308909357, 0.0625769049, -0.0840701535, 0.1276016831, -0.0563213825, 0.0695375204, -0.0555127040, 0.0592762828, -0.0314304903, -0.0755065978, 0.0264419317, 0.0236607939, -0.0334524214, 0.0672223866, 0.1190812290, 0.1285403073, -0.0771472678, -0.0279580653, 0.0947945267, -0.0873390585, 0.0864057839, -0.0592103973, -0.0898738801, -0.0481392071, -0.0049246252, 0.0815638304, -0.0080468208, -0.1337143481, -0.1108638346, -0.0885471776, 0.0138304830, -0.0992977172, -0.1005433649, -0.0099302828, -0.0979573429, 0.0651395619, 0.0423621535, -0.0731986985, 0.1199971139, 0.0016877502, -0.0622480437, 0.0381059796, -0.0661963746, 0.0689709932, -0.0463932678, -0.0360450000, 0.0311076790, -0.0842130482, 0.1184295714, 0.0608985871, -0.0011105835, -0.0888101384, -0.0656026304, -0.0175177678, -0.0935939997, -0.0343395919, -0.1013072282, -0.0315367728, 0.0725756139, -0.0626015589, 0.0681731552, -0.1113637239, 0.0532758683, -0.0641574487, 0.0472954661, -0.1381465644, -0.0127534717, -0.0056543797, 0.1226120591, 0.0059981346, 0.0691874176, 0.0990008116, 0.1237776875, 0.0672063828, 0.1000077426, -0.1165302992, 0.1331494451, -0.0111867934, 0.0210303515, -0.0293723121, 0.0806999654, -0.0215582624, 0.1230129302, -0.0882781669, -0.1287434846, 0.0980390310, 0.0790269822, -0.1130592003, 0.0796337873, 0.1143980324, -0.0142421424, 0.0942823142, -0.0755801946, 0.0713523477, 0.1170979738, 0.0096463412, 0.0604559779, -0.0540753603, -0.0972316116, 0.0337014049, 0.0566673279, 0.0949790627, -0.0371797010, -0.1046542525, -0.1150484085, 0.1365267038, -0.1060296893, 0.0523033142, -0.1147923693, -0.1243759245, -0.0939821601, 0.0997829437, -0.0710707828, 0.1261281669, 0.0448091775, 0.0508015305, 0.0659024119, -0.0349299610, -0.0919121280, -0.1177864522, 0.0178766549, -0.0759435296, -0.1141345575, 0.1262649000, 0.0808333009, -0.1042999253, 0.1263641119, 0.0679520071, -0.0074046999, -0.0278475955, -0.1025665179, -0.0724791139, -0.0163745880, 0.0525074452, -0.1218233332, -0.1364905238, 0.1011344790, 0.0703610182, 0.0725041777, 0.1320766211, -0.0893144459, -0.0934331715, 0.0077279508, 0.0360078812, 0.0958698541, 0.0963122547, -0.0855669752, -0.0946666598, -0.1400417387, -0.0670435876, -0.1228235811, 0.0960266292, -0.0211241394, -0.1067695022, -0.0400244743, 0.0073196292, -0.1409054697, -0.0497907773, 0.0782872587, 0.0137417912, 0.0764780641, 0.1292357147, 0.0625841916, -0.1159617528, -0.0006640553, -0.0738637075, -0.1153130978, 0.0685696304, 0.1366288960, -0.0126513690, 0.0921604335, 0.0680534691, 0.0100580454, 0.1281180084, -0.0289294720, 0.0866632015, -0.0298363939, -0.0418450460, 0.0010097325, 0.0870468020, -0.0377415270, 0.1099214852, 0.1182366014, -0.0191244930, 0.0828508139, 0.0087529272, 0.0538201332, -0.0247116610, 0.0656199902, -0.0951802880, 0.1013974696, -0.0292120576, -0.0330660865, 0.0482328981, 0.1323734224, -0.1010268703, 0.0283653140, 0.0709861070, -0.0669920519, 0.0495605469, 0.1085808873, -0.1184784099, -0.0087358356, 0.0794822574, 0.0500770807, -0.0779926926, 0.0227872282, -0.0460946709, -0.1200956404, 0.0358384699, -0.1194573790, 0.0686387569, -0.1164021641, -0.0843467936, -0.1262023449, -0.0112239569, -0.0769475624, 0.1113181114, -0.0644826889, 0.0858653337, -0.0638985038, 0.0311925560, -0.0851885080, 0.1045250297, 0.0388330370, -0.0020556748, 0.0819170773, -0.0406300053, 0.0736684948, 0.0251561850, 0.0356106758, 0.0157200545, -0.1364230067, -0.1327444017, 0.0985531807, -0.0041793734, -0.0148895234, 0.0606708378, -0.0474129021, 0.0253105760, -0.0683897138, 0.0357008874, -0.0019030869, 0.1094425023, 0.0611909628, 0.1018812209, -0.0886760205, -0.0714451969, -0.0684749261, -0.1366422772, -0.0052393377, -0.0919497162, 0.0841415524, -0.1284590065, 0.0844946504, -0.1372306496, 0.0449445099, 0.0516608059, 0.0920052081, -0.1246680692, 0.1174463034, 0.0748111904, 0.0151270628, 0.0890750885, -0.0518790111, -0.1084706187, -0.1158920825, 0.1310997605, 0.0251778066, -0.1125951782, 0.0323101580, 0.0752740353, 0.1304679215, 0.0544959754, -0.0875631124, 0.0304204822, 0.0120465457, -0.1346785575, 0.1303026676, -0.0334857255, -0.0098566562, 0.0626963228, -0.0631479174, 0.0217427760, -0.1360573173, -0.0364954770, 0.0813133270, 0.0917930454, -0.1211524531, -0.1338150054, 0.0091337264, 0.0858783424, 0.1281507015, 0.0370319039, 0.1042615324, 0.1124099195, -0.0630488917, 0.1284758747, 0.0925859809, -0.1380112916, 0.0434127599, 0.0460798740, 0.0048447847, 0.0240898430, 0.0277502835, 0.0997291058, -0.1293934584, 0.0907867849, -0.0168227032, -0.0734868571, 0.0003239512, -0.1206202433, -0.0010989606, -0.1301024854, 0.0566789806, 0.0782643706, 0.0789084733, 0.0069608241, -0.0981359035, -0.1405149102, 0.0744741708, 0.0194997191, 0.0009540468, -0.0560138375, 0.0351286530, 0.1245253384, -0.0473360941, 0.1213530302, -0.0550346673, -0.0129402727, 0.0765945613, -0.0341516063, 0.1391613483, 0.1361753643, 0.0721246302, 0.0454062968, 0.0772705376, 0.0397878140, 0.1083383262, -0.1076992601, 0.0846746415, -0.1103956625, 0.0844691545, 0.0356246829, -0.0657640696, 0.1148465872, -0.0171649680, 0.0105501562, -0.0462511107, -0.1388767213, -0.0848601609, 0.1224885583, 0.0199847370, 0.0094765276, -0.1370549202, 0.0104850084, -0.0854598135, 0.1094298661, 0.0573727340, 0.0115285218, -0.1026052535, 0.0567688495, -0.1336066872, -0.1317360550, 0.1060799062, -0.0642868727, -0.0923478156, -0.0156951696, -0.0149670392, -0.0292598754, -0.1405049562, 0.1125051379, 0.0340058357, 0.0564787984, -0.0382227376, 0.1307059228, 0.0017585754, -0.0142091513, 0.1390763819, -0.0696929470, 0.0519593209, -0.0009226054, 0.0193139911, -0.0565112978, 0.1281489134, 0.1394543350, 0.1157661080, 0.1207233965, -0.0904098749, 0.0022670329, 0.1287544966, 0.0574236661, -0.0830344409, 0.0620713383, -0.1142780259, -0.1059151888, 0.1355766654, 0.1189973652, 0.1100027561, 0.0814634562, 0.0869587958, -0.0374260470, -0.1379233450, -0.0733665526, 0.0620472580, 0.1312070489, -0.0183270201, 0.0239139944, 0.0321147442, -0.1175073087, -0.0832939297, 0.0448924601, -0.0172821656, -0.0382178426, -0.0679968596, -0.0074268579, -0.0699932575, -0.0125251561, 0.0088067651, -0.0781290680, 0.0197325200, 0.0189189464, -0.1214967743, -0.1124139503, -0.1282996386, -0.0633148625, 0.1154973507, 0.1298892200, 0.0397155136, 0.1301993132, 0.0456554145, -0.1348240525, 0.0127156377, -0.0678507537, 0.0457616895, -0.0789098516, 0.0050084144, 0.0249876231, -0.0943807214, 0.0476934165, -0.0052586496, 0.1205334365, 0.0073949844, 0.0582693964, -0.1353465468, -0.0303155482, -0.0167717710, -0.0916832834, 0.1104704142, -0.0007588267, 0.0775908828, 0.1121960878, -0.1280928701, -0.0632969961, 0.0972114503, 0.0358247608, -0.1051677465, -0.0490737632, -0.0505211353, -0.0283109322, 0.0885581523, 0.0646239966, 0.0972174257, -0.0986301824, -0.0625326931, 0.1065897942, -0.0975890309, -0.0092533827, -0.0017007440, -0.1011392325, -0.0284981802, 0.1289995611, 0.0141404569, -0.1254086345, -0.0100619644, 0.0489134341, 0.1262017190, -0.0231280699, -0.1384921670, 0.0472839773, 0.0074675232, 0.1335135698, 0.0907898545, 0.0148479193, 0.1106748581, 0.0032056719, -0.0534339622, -0.0736743361, -0.0518009290, -0.1199955642, -0.0186260566, -0.0421600938, -0.0651537105, -0.0952155814, -0.1226831526, 0.1119371951, 0.0460171551, 0.0955857784, -0.0305960029, 0.1223219633, -0.0805342048, 0.1161377430, -0.0796469003, 0.0937246680, 0.1343885064, -0.0806991607, 0.0246710330, -0.0333489105, 0.1242022812, 0.0363339782, -0.0244611949, 0.0658169240, 0.1245711744, 0.0937971175, -0.0905078128, -0.0370672718, 0.0083844811, 0.1169483364, -0.1065203547, 0.0923372358, 0.0302555263, -0.1358291060, 0.0827470273, 0.0197346210, -0.0593932495, 0.0626551956, 0.0706026107, -0.0115833730, -0.0211565569, 0.0316522121, 0.0643617064, -0.0519414917, 0.0939448476, 0.1046977192, -0.0677333847, -0.0786192268, 0.1165404320, -0.0125568956, -0.0181065127, -0.0057375580, -0.0954266638, 0.0777873844, -0.0183329359, 0.0904263556, 0.0926593393, -0.0022184402, -0.0741282552, -0.0877298117, -0.0284913853, 0.1285473704, 0.0736008435, -0.0207856596, -0.0019132793, 0.0217484534, 0.0912555605, 0.0181246847, 0.0574217290, -0.0081423223, 0.1329872906, 0.0916377455, 0.1382663548, 0.1195549369, -0.1248929054, 0.0934041291, -0.1012938172, -0.1192041039, 0.0711109042, 0.0800586641, -0.1329684258, -0.0950411707, 0.0477771759, 0.0564000160, 0.0327994376, 0.1352688074, 0.0529696047, 0.0995732397, 0.1147422493, 0.1103486717, -0.0271610022, 0.1401271522, -0.0560553148, 0.0746008605, 0.1320237815, -0.0457419381, -0.1259228736, 0.1101396978, -0.0923969522, 0.0016073585, 0.0944514424, -0.0052264631, 0.0343530029, -0.0194338262, 0.0886438787, -0.0805636495, -0.0261225253, 0.1141106784, 0.1095313132, -0.1015147343, 0.0408815444, 0.0534736067, -0.1370260715, -0.1337712556, -0.0514594093, -0.0751261413, 0.0627246946, 0.0230477303, -0.1147324890, -0.1037549227, 0.0418139398, 0.0730548501, -0.1397420019, 0.0869333893, -0.1066340059, -0.1204321235, -0.0736609995, -0.0239041299, -0.1127109230, -0.1341380775, -0.0874563456, -0.0150925666, 0.1275912821, 0.1020794064, 0.1145603359, 0.0688555837, -0.1363376379, 0.1362381279, 0.1097218096, 0.0674217939, -0.0065124035, -0.0413045287, -0.0741309896, 0.1143833101, 0.0962002575, 0.0800492167, 0.0780893117, -0.0103950351, -0.0217295662, -0.1179599464, 0.0620389581, 0.0592752695, 0.0854990631, -0.1220338792, 0.1405490637, -0.0301296562, -0.0857086927, 0.1074766517, -0.1118177101, 0.0001635700, 0.0324098617, 0.0124905407, 0.1073131859, 0.1072572321, -0.1264514625, 0.0513150245, 0.0410627127, -0.0473476797, -0.0701253489, 0.1264469326, -0.1214568913, 0.1096761525, -0.0432016775, 0.0655716211, -0.0151219964, 0.0224384815, -0.0960874185, 0.0452785641, -0.0038532168, 0.0260695368, 0.0919541717, -0.0089408457, -0.1111479700, 0.1285908222, 0.0780392289, 0.0917438418, 0.1066341698, 0.0072102994, -0.0081241876, 0.0377283543, -0.0612712726, 0.0906841457, 0.0314424783, 0.0395818949, -0.0028862059, 0.0767096579, 0.0419335663, -0.1234107018, -0.0264540166, -0.0540590137, 0.0399142057, -0.0391947478, 0.0166542083, 0.1374681890, 0.0608024299, 0.0256096423, 0.0675293207, 0.1383583248, 0.0543796867, 0.0922275782, -0.0892444700, -0.0475500524, -0.0900557190, 0.0490747392, -0.0599483550, 0.0412385315, -0.0712771416, -0.1304230988, 0.0803218335, -0.0242679417, 0.1176439524, 0.0233949572, 0.0048862994, 0.0949728787, 0.0165496469, 0.0757423341, 0.1396690607, 0.0694748312, -0.1074363664, -0.0637583807, 0.0795547962, 0.0833486468, 0.1412978172, 0.1384141445, 0.1320580542, 0.0087473541, 0.1144674420, 0.0391089618, -0.0305903628, -0.1183960736, 0.0939780772, -0.0782767311, 0.0370154530, -0.0869162083, 0.0561433583, -0.0541183203, -0.0332238078, 0.0233716816, -0.1076094210, -0.1127351373, 0.0500422567, -0.0832377300, -0.0842550322, -0.0489218459, 0.0970804691, -0.0234277472, -0.0057970434, -0.1380396932, 0.0554786325, 0.0051658452, 0.0792546123, -0.1043935120, -0.0538678169, -0.0081650168, 0.1402986348, 0.0086223483, 0.0087403208, -0.0816959590, 0.0669247359, 0.0053480119, -0.1137285605, -0.0939338654, 0.0206267834, 0.0966109782, 0.0491576940, 0.0753651559, 0.1299179494, -0.1029686630, -0.0006408989, 0.1337439716, 0.0973749161, -0.1287820935, 0.0120808631, -0.0415484458, 0.0943942666, -0.0167478248, 0.0292837620, -0.0404034778, 0.0600783229, -0.0612391233, -0.0634358078, 0.0083111972, -0.1410765648, 0.1075188071, 0.1013675183, 0.1355618536, 0.0520786494, -0.1328455955, 0.1065737754, 0.1142460704, -0.0946004912, -0.0002719462, -0.1010177881, -0.0058361143, 0.1316167414, 0.0232205838, 0.1235070825, 0.0594061166, -0.0155739784, 0.0678141117, -0.1171838269, 0.1352930367, 0.0778288245, -0.1276666522, 0.0221051723, 0.1159646213, 0.0866612792, 0.0639822930, -0.0403427184, -0.0897055566, 0.1266479492, 0.0123704374, 0.0461545885, -0.1405426413, -0.0719558224, 0.0160035938, -0.1413498372, 0.0048990995, -0.1162530184, 0.1226764023, 0.1202651858, 0.1001774222, -0.1068856120, 0.0708752275, 0.0448515564, 0.0532716066, -0.0937509090, 0.0924396813, -0.0794975162, 0.0016479939, 0.0934937298, 0.1301464736, -0.0466892943, -0.1217690632, 0.0862117112, 0.1078054458, 0.1030229330, -0.0967336148, 0.1010349840, 0.0039052963, 0.1270097792, 0.0411398113, -0.0118849725, -0.1147835851, -0.1392129064, -0.0608599111, 0.0014607459, -0.1268928200, -0.1107256636, -0.0962213650, 0.0847895294, 0.1354706883, 0.0059198737, 0.1183036864, -0.0416139662, -0.1291146278, -0.0950034484, -0.0992816091, -0.0495303497, -0.0652166307, -0.0366850868, 0.0193354040, -0.0433188677, -0.1259321272, -0.1004451215, 0.0172030926, 0.0176277012, -0.0932813585, 0.0402658135, 0.1136396825, -0.0409517959, 0.0508361757, -0.0310361758, -0.1144818515, 0.1024660468, -0.0558926612, 0.1343025267, -0.1160709113, -0.0481263697, 0.0409401506, -0.0915883780, 0.0661387891, -0.0126254261, 0.0528811812, 0.1256030500, 0.1213786006, 0.0036628097, 0.1399498880, -0.0776633248, -0.0577971339, 0.0188854039, -0.0712179020, 0.1070983559, 0.0195019841, -0.0807852149, -0.0339448154, -0.0920983553, -0.0242580101, 0.0466465056, -0.1237020344, -0.0608533919, -0.0111148953, 0.0001102984, 0.0091333240, -0.0072800070, 0.0045223087, -0.0675590783, -0.1333992481, -0.0552328900, -0.0180031657, 0.0942089111, 0.1290536821, -0.0301393121, -0.0745186508, 0.1028068811, 0.0811335146, -0.0704183355, 0.0382753611, -0.0833436400, -0.1403645873, -0.1248026565, 0.0937666148, -0.1207368970, -0.0052267611, 0.0208629668, 0.0089751929, -0.0877055675, -0.0725368038, -0.0693502426, 0.0182406306, 0.0308075249, -0.1205060184, 0.0272356421, -0.0691883266, -0.0927352980, -0.0660874918, 0.0298427194, -0.0009952784, 0.0312412232, 0.0751389712, 0.0756192654, 0.1165087223, 0.1369522810, -0.0013087690, 0.1283953190, 0.0662148148, -0.0313545614, -0.0270289183, -0.1111134589, -0.1108189523, 0.0074978918, 0.0940940231, -0.0342790037, 0.0617301315, -0.0379069895, -0.0142351836, -0.1200734451, -0.0233585089, 0.0190396458, -0.0220437944, -0.0149134994, 0.0109003931, -0.0979001969, 0.0976510048, -0.0428829193, 0.0286033154, -0.0037558824, 0.0549799502, 0.1373445392, 0.0630536824, -0.0888257474, -0.1165226996, 0.0472319722, 0.0637074411, 0.1311185658, 0.0319971144, -0.0181921273, -0.0159060210, 0.1090786159, 0.0226792544, -0.0494060293, 0.0604069680, -0.0074889064, 0.0240997076, 0.1383696198, -0.0054185092, -0.1031733006, -0.0873708725, -0.0269825086, -0.1331680268, 0.0550693870, -0.1080713421, 0.1030885875, -0.1000612453, -0.1269862652, -0.1160256565, -0.0208290219, 0.0907348692, -0.1173340529, 0.1357004344, -0.1286848634, 0.1068376899, -0.1059920639, -0.0572806969, 0.0788764507, 0.0601303875, 0.0317697823, 0.0267857760, -0.0199346542, -0.1347784996, 0.0715256184, 0.0238683224, -0.0829104632, 0.0005404800, 0.1375505626, 0.0332220793, -0.0844901353, -0.0701896250, 0.0164141357, -0.0025687069, 0.0093699098, -0.0777801499, -0.0423419997, -0.1000372991, -0.1043643355, -0.0555230081, -0.1328248829, 0.0584852993, 0.0118118227, -0.0209849179, 0.1320154071, 0.1066736877, 0.0919241458, -0.1222914085, 0.1229075193, -0.0943636373, -0.1140242517, 0.1289480031, -0.0825676620, -0.1064126790, -0.0467590019, 0.0421494544, -0.1394908577, -0.0031963885, 0.0563159138, -0.0651173666, 0.0527908653, 0.1077153683, 0.0048490018, -0.1401485354, -0.0350614116, 0.0714609325, -0.0451041907, 0.1155706644, 0.0494839102, -0.1114887148, 0.0058493167, -0.1063966006, 0.0478397608, 0.0673981160, -0.0866557807, 0.0097603649, -0.0528208315, -0.1190331131, 0.0036969781, -0.0303615108, 0.0757796317, -0.0445775166, -0.1401046962, -0.0423543900, 0.0768912882, -0.0433572009, 0.0225012004, 0.0452762991, -0.0882956311, 0.0431462824, 0.0036581755, 0.0210496634, -0.0776586011, -0.0922669619, -0.0505476147, -0.0744397491, -0.0610359758, 0.0224964321, -0.1246748567, 0.0048553199, 0.0157540739, 0.1247375011, 0.0248765498, 0.1213350594, -0.0482976362, -0.1095779613, 0.0643876493, -0.0439657047, 0.0683740079, 0.0988034010, -0.0948120207, -0.0756607801, 0.0220473111, 0.0261098593, 0.0302234441, -0.0798276886, -0.0461307764, 0.0246033818, -0.0569251925, 0.0023867637, -0.0505087748, 0.0360631794, -0.0064393431, -0.0193649232, 0.1046230346, 0.0606971234, 0.1022461057, -0.0450799689, 0.1026367396, -0.0260839239, 0.1266004741, 0.1221698225, 0.0957897305, 0.1322314441, -0.1320791990, -0.0784840286, 0.0269910246, -0.0834700912, -0.1217946932, -0.0114556104, -0.0914802626, 0.1038930863, -0.0254549533, -0.0078282356, 0.0467387736, 0.1260071695, -0.1111327708, -0.0865229815, 0.0923708826, 0.1145093739, -0.0668276399, 0.0772657096, 0.1155067980, -0.0986052603, 0.0369662791, -0.0269080698, 0.0772866458, 0.0006628484, -0.1412818134, 0.1148399711, 0.0593327880, 0.0073148608, 0.0601122230, 0.0260822624, -0.0944731981, -0.0936289877, -0.0163355172, 0.0359862745, 0.1369899809, -0.0989764631, -0.0514253974, -0.0777241215, 0.0568191707, -0.0000763237, 0.0901990831, 0.0719422102, -0.0505798683, -0.0247346908, 0.0601520389, 0.0238498151, 0.0111887306, 0.1101287901, -0.0530224591, -0.1325602680, 0.0976010263, 0.0444361717, 0.0008929819, -0.1185899302, 0.0360314995, 0.0840217918, -0.0317037180, -0.0896633714, -0.0183515772, 0.0818112195, 0.1203508675, -0.0140024573, 0.0844718218, 0.1099746227, -0.0908523798, 0.1000173688, -0.0138385445, 0.1031828523, -0.0440399721, -0.1368768960, 0.1185947061, 0.0590161979, 0.0420872420, -0.1111942753, 0.1293753684, 0.0891245753, -0.0827756673, 0.1311252713, -0.0968578979, 0.0981401503, 0.0654556155, 0.0424188972, -0.0450275242, 0.0801876783, -0.1361564100, 0.0478464812, -0.0444834903, -0.0048450977, -0.0767603517, 0.1368443966, 0.0717285275, -0.0888822824, 0.0220448822, 0.1179258227, 0.1169912815, 0.1408155560, -0.1087052822, 0.0803064406, 0.1027406901, 0.0920657367, -0.0280522928, -0.1095326096, 0.0137416571, -0.0264000148, 0.0337931365, 0.0819531083, -0.0170918778, -0.0921412185, 0.0300383270, 0.0776217878, -0.1032419950, 0.0713360757, 0.0781911463, 0.0836280882, -0.0176968053, -0.0155979991, 0.0814778805, 0.0076295733, 0.0565375984, 0.1331439912, 0.0309993327, -0.0225805640, -0.0536265746, 0.1275005341, -0.0463748574, -0.1250804067, -0.0308750123, -0.0997124612, -0.0504726022, -0.1190380454, -0.0950103030, -0.1245392933, 0.0549830943, 0.0369057357, -0.1079000831, 0.0565350354, 0.1031374037, -0.0202495977, -0.0798849314, -0.1074964479, 0.0011710674, 0.0424514562, -0.0863633975, -0.0808210820, 0.0778168589, 0.0107274055, 0.0266267657, 0.1214677095, -0.0472030640, -0.0004429817, -0.0520942882, 0.0322869569, -0.0112188160, 0.0306316018, 0.1041032225, -0.0508176684, 0.0287959874, 0.0609540641, -0.1318758428, -0.0238692015, -0.0084614903, -0.0965165794, -0.0036960393, -0.0719444081, -0.1095525622, -0.0054349899, 0.0626696050, 0.0034631640, 0.1120579541, -0.0844904706, 0.0782428533, 0.1175224185, -0.1371410042, -0.0449257270, -0.0956910104, 0.0743779540, -0.0581514165, 0.0092431158, 0.1099299192, 0.0241199136, 0.0388049930, 0.0128511041, -0.0258580074, -0.0004226863, 0.0001626164, -0.1090744957, -0.1306081414, -0.0466106683, 0.0233294368, -0.0817898810, 0.1055381149, 0.0345213711, -0.0176103786, -0.0884507149, -0.1318036020, -0.0648010746, -0.0723623261, 0.0615284592, 0.0348460674, -0.1061822101, 0.0361358821, 0.0431916416, 0.1307923496, 0.1264824271, -0.0142423809, -0.1250523776, 0.0413090885, -0.0244583562, -0.1195498183, 0.0529869348, 0.0505661964, -0.0402529836, 0.0560657531, -0.0817822516, -0.0843658745, 0.0551727414, 0.1267210841, 0.0143470764, 0.0700119734, 0.0616605580, 0.1191736162, 0.1324390173, 0.0351468921, 0.0033376366, 0.0366011858, 0.1121567488, -0.0086018890, -0.1201125532, 0.0454047769, 0.0939846933, -0.1279830337, 0.1270374656, 0.1135759056, 0.0860068053, 0.0094239712, 0.1216355860, -0.0985938758, -0.1213913709, -0.1106452197, 0.0999230742, -0.1358634830, -0.0132810771, -0.0912507027, -0.1169038415, 0.0563557595, -0.1039586067, 0.0300710946, 0.1010207534, 0.0558810085, 0.0162812471, -0.1242726445, 0.0697257370, -0.0742827356, -0.1143454090, -0.0627796128, 0.0905461162, 0.0105523616, -0.1101999432, -0.0808066279, -0.0484102741, -0.0252220854, 0.0927420557, -0.1312554181, 0.1112931967, 0.1258870065, 0.1064095795, 0.1219710708, -0.0079854131, 0.0259184986, 0.0584057719, 0.0738237500, 0.1037545055, -0.1165881902, 0.0464365035, 0.0435864329, 0.0485639721, 0.1062829196, -0.1388561726, -0.0609358996, -0.1395799816, -0.1355765462, -0.0591935441, -0.1324436069, 0.1068872362, -0.0241714492, 0.0331127197, -0.0402761847, 0.0335347354, 0.0486329794, 0.0877148956, -0.0598257184, 0.0991159827, -0.0909500122, -0.0838903412, -0.1051994264, 0.0737005770, 0.0959223360, 0.1065780669, -0.0873262584, -0.0292118192, 0.0023810267, -0.1297987103, 0.0498338044, -0.0557508767, 0.0574398786, -0.0207767710, 0.0681387782, -0.0101577491, -0.0976742506, 0.0926108807, -0.0788265020, -0.0890473723, -0.0828673691, -0.1090673655, 0.0587833673, 0.1346943378, -0.1326649040, -0.1013592780, 0.0257622302, 0.0927832872, 0.0438214988, 0.0808694065, 0.0038840622, 0.0317228287, 0.1226989925, 0.0953314900, -0.0557615161, -0.0586972684, 0.0605506748, -0.1191494986, -0.0697877109, 0.0452528298, 0.0453375578, 0.0148282200, -0.0791381598, 0.0787842870, 0.0214328319, 0.0909978449, 0.0606411844, -0.0564375967, 0.0618731976, -0.0063396096, 0.1220720708, -0.0952091292, -0.0735436305, 0.0088235438, 0.0405760258, -0.0784303620, -0.1017535850, 0.1207253635, 0.0078399777, 0.1035551727, -0.0583982021, -0.0166428238, -0.0472009033, 0.0079228282, -0.0804148167, 0.1349797845, 0.0685347319, -0.0711757466, 0.0347687900, 0.0521987826, -0.0891945511, 0.0393293649, 0.0932921618, 0.0628673881, 0.0482357591, -0.0602938607, -0.1339266151, 0.1302185655, 0.0829087049, -0.1309740543, -0.0690041631, -0.0586880520, 0.1311407685, -0.1405701041, 0.0426201224, 0.0364249945, 0.0950849056, -0.0361148119, -0.0245117173, 0.0414262861, 0.0159869045, -0.0645265654, -0.0777438432, 0.0655700713, -0.0504937470, -0.0297326073, 0.0341936648, 0.0220259279, -0.0609350204, 0.1213068664, 0.0075671971, -0.0499420837, -0.0616715923, -0.0026414841, 0.0559768528, 0.0898903608, 0.1337107122, 0.0163862109, 0.1260927916, -0.0898236930, -0.0772602707, -0.0645424053, -0.0477509424, -0.1390097439, -0.0810058564, -0.1096197069, 0.1284142733, 0.0948446095, 0.0806055665, -0.0307934433, -0.1287861466, -0.0117786825, -0.1365495622, 0.0304028839, -0.0405738726, -0.0539016947, -0.0033758581, -0.1214932948, -0.0296338201, 0.0176427662, -0.0406581014, 0.0145479292, -0.0021930635, -0.0517264903, -0.0664099231, 0.1298616827, 0.0384076834, 0.0346518308, -0.0887668133, 0.0091100484, 0.1226817966, 0.1376855373, 0.0868181884, -0.0761996731, 0.0772871226, -0.0488424450, 0.0199053138, -0.1402893364, -0.0917766243, -0.0369604081, -0.1364151388, 0.0264347047, 0.1346037388, -0.1094392538, -0.0698904842, -0.0751597434, 0.0177289546, 0.0294307321, 0.1251479983, -0.1387008131, 0.0574361235, 0.0960535705, 0.1348892450, -0.0920103490, 0.1152603626, -0.0038320124, 0.0155528784, 0.0672746450, -0.0937667191, 0.0107173771, -0.0676732361, 0.1307637990, 0.1141709387, 0.0184474289, 0.0740400106, -0.0907751024, -0.0341745391, -0.0734971240, -0.1051757783, 0.0445516109, -0.0700257868, -0.0997707546, 0.0386692286, -0.0943140239, -0.0318038538, 0.0055543780, -0.1328810453, -0.0257079527, -0.1175546944, 0.0915504396, 0.0053546429, -0.0597348735, 0.0019897223, 0.1189801395, -0.0131083280, -0.1076772735, -0.1089778990, -0.0400883406, 0.1396877468, -0.0512318760, -0.0672787577, -0.0357536674, -0.0823433697, -0.0006650090, 0.0912029147, -0.1257014871, -0.0848621503, 0.0571475327, -0.0263038278, 0.0736437440, 0.1318259537, -0.0823326558, -0.1211786568, -0.1372673512, -0.0762748197, -0.0496748313, -0.0234709755, -0.0841894448, -0.1327967793, 0.0359498262, 0.0080954432, -0.0169425309, 0.1114836633, 0.0404239148, 0.0280145407, -0.0380135477, -0.0020237565, -0.0036937445, -0.0122650564, 0.1184827983, -0.0351806954, 0.0508464128, 0.0301989913, -0.0665305704, -0.0079193115, -0.0084905326, -0.0476967320, -0.0161328465, -0.1271100938, -0.0101979375, 0.0280452371, 0.0462251008, 0.0768129677, 0.0951477587, 0.0021473020, 0.0146036297, 0.1194123924, 0.0731387585, -0.1253359467, 0.0870747715, -0.0016202331, 0.0761792064, -0.0408903956, -0.1117551923, 0.0681869984, 0.0253571421, -0.1290864646, 0.0001646131, 0.0495456457, -0.0681479946, 0.1247645319, 0.0585917681, 0.1233295798, 0.0076447427, -0.0159830600, -0.0972602144, -0.0642955154, 0.0773967206, -0.0729137510, 0.1133606434, -0.0011884719, 0.1092048287, -0.1184680760, -0.1022876501, -0.0311145633, -0.0093733072, 0.0910817385, 0.1198264360, 0.0263681263, 0.0202550292, 0.1342554688, 0.0722403079, -0.0554440394, -0.1292233467, 0.0447349995, 0.0436874479, 0.0925036371, 0.0290423036, -0.0555055439, -0.1033271700, 0.0203454196, -0.0400719196, -0.0896526948, 0.0068455189, 0.1131535172, -0.0265542567, 0.0299597383, -0.1406200230, 0.1268937886, 0.0231202692, 0.0598617196, 0.0342009813, -0.0802376345, 0.1089541316, -0.0054755062, 0.0833428353, 0.0103777796, -0.1079570949, 0.0244450122, -0.0874260888, 0.0968340933, 0.0217058212, -0.0317065194, -0.1101262122, -0.0617869645, -0.0079596043, -0.0228363648, 0.0832955539, 0.0858491510, 0.0854720026, -0.0657354668, 0.0451169610, 0.1139036715, -0.1354850829, 0.0794973522, -0.0044331551, 0.0110228956, -0.1061451286, -0.0348977372, 0.1279566586, 0.1383104026, -0.1141304076, -0.0538190156, 0.0957957506, 0.1141288877, 0.0245970935, 0.0803128779, 0.1206630468, -0.0243926346, 0.1062918752, -0.0402981713, -0.1113438308, 0.1342254281, 0.0333662033, 0.1075892597, -0.1404880583, 0.1263549030, -0.1002113074, -0.0653293654, 0.0069098920, 0.1297282875, -0.0168271959, 0.1036689579, -0.0983739719, 0.1391150653, 0.1324085593, 0.0892508179, 0.0953411460, 0.0340328962, 0.0686374158, -0.1341656744, -0.0883895904, -0.0191055089, 0.0567209572, 0.1081081927, 0.1376132965, 0.1010886729, 0.1036116779, -0.0843408182, 0.0513575524, 0.1073694527, 0.1270959675, 0.0821438581, 0.0447244048, -0.0715581030, -0.0466967896, -0.1019400135, 0.0432665944, -0.0046847612, 0.0072626919, -0.0542333201, -0.0335474983, 0.0533947498, 0.0000756532, 0.0847447217, -0.0617423877, -0.0520110354, 0.0785192549, -0.0421960279, 0.0106442273, 0.1307994425, 0.0717456788, -0.1173123047, 0.0336172134, -0.0538972318, 0.0232255459, 0.0172502100, -0.0340835527, 0.0765445679, -0.0256901905, 0.0110437274, 0.1017953306, 0.1104266047, 0.0586666763, 0.0849238187, -0.0416847914, -0.0603811964, -0.0313327461, 0.1257239878, 0.1326267421, -0.0795862079, -0.0625615045, 0.0044803023, 0.0871975422, 0.0092797875, 0.0693148524, 0.0042060912, -0.1196602881, -0.1074194461, 0.0419335067, 0.0515744090, 0.0055717379, -0.1334741563, 0.0539573133, 0.0793357342, -0.0910549462, 0.0607642978, 0.0109140426, -0.1305405200, 0.0554647148, -0.1325677037, -0.0116603374, 0.0109239370, 0.1389544904, 0.1394803822, -0.0336127505, -0.1351723671, 0.0695400834, 0.1395472586, -0.0912743062, 0.1076443046, -0.0837764591, -0.1350226551, -0.0040543824, -0.0262422860, 0.0511584133, 0.0289813429, -0.0005788803, -0.1009317935, 0.0478974134, 0.0557464808, 0.0551356822, 0.0755816102, 0.0584083349, -0.0887359679, -0.0355963856, 0.1092091203, 0.0325572193, 0.0334124416, 0.0512505472, -0.0776695088, -0.1301489472, -0.1414234936, -0.0429172292, 0.0687143803, 0.1342775524, -0.0291431919, 0.1105414927, -0.0295056179, -0.0474660620, 0.0418600738, 0.0042064637, 0.1044432968, -0.1027235389, 0.1254675984, -0.0759345144, 0.1258166432, 0.1389881074, 0.0563261807, -0.1051739901, -0.0705389082, 0.0176080763, -0.1278582066, -0.0837146789, -0.0326234475, -0.0782964826, 0.0153124332, 0.0232916325, 0.0505200624, -0.0705488101, -0.1371301413, 0.0765702426, 0.0609322488, -0.0008554608, -0.0755131170, 0.0826039314, -0.0552780405, 0.0428110063, 0.0863822103, -0.0066684335, -0.0681827813, 0.0519790798, -0.1139340773, 0.0466241390, 0.0100177824, 0.0230132490, 0.0956647694, -0.0512303188, -0.0806893259, -0.0674591437, -0.1188061163, -0.1325887740, -0.0871601552, -0.0479045436, -0.0986478105, -0.0640075281, -0.0703615993, 0.1005921960, -0.0255035535, -0.0101099163, -0.0667477325, -0.1308291554, -0.1315546930, -0.0385005623, 0.0937758088, -0.0369844586, 0.0870558321, 0.1293631792, 0.0660243928, -0.0756447688, 0.0476431996, 0.0888538361, 0.0568395704, -0.1121146157, 0.0704810172, -0.0347387642, -0.1313150972, 0.0932943225, 0.1220425069, -0.0043022782, -0.0167555586, 0.0509960949, -0.1012236327, -0.1007206738, 0.1223021746, -0.1255303770, -0.0822955742, -0.1195212081, -0.0787792131, -0.0479961708, 0.0032570511, 0.0839850456, -0.0820023566, 0.0707515776, 0.0249693841, 0.0809483081, 0.0016138852, 0.0809678882, -0.0932324156, 0.0893639624, 0.0316440761, 0.1275399029, -0.0354212373, -0.0107843578, 0.1264159381, -0.0371865556, 0.1031124443, 0.0821330249, 0.1034943908, 0.0461197048, -0.0037997514, 0.0679168105, 0.0627200305, 0.1145980358, -0.1365894526, -0.0813838169, -0.1105111986, 0.0668298304, 0.1135462224, 0.1113930941, -0.0515559688, 0.1150554717, -0.0331086069, 0.0651277751, -0.0609091520, -0.1160837114, 0.0133786500, -0.0837458223, -0.0581925511, -0.1178441048, -0.0112556964, -0.0271717086, -0.1019530147, 0.0039874315, 0.0257825553, -0.0059086680, 0.0871524513, -0.1155030429, 0.0600246191, -0.0263831913, 0.1085150242, -0.0457801372, 0.1368765533, -0.0556824878, 0.0705898404, -0.0720593035, 0.0077972561, 0.1164988875, 0.0459975004, -0.0044385940, 0.0623174161, 0.0975945443, 0.0043800920, -0.1329291463, 0.1350006163, -0.0855722725, 0.1282428503, 0.0352060348, -0.0112145245, 0.1103066802, 0.0905530304, 0.0640092194, 0.0632982701, -0.0927443802, 0.0183663964, 0.1323813200, 0.0269191563, 0.1023313850, -0.0823101327, 0.0136087239, -0.0468630642, -0.0591494665, 0.0222963542, 0.1410158277, -0.1014701873, 0.0335637033, 0.0560022891, 0.0057466775, 0.1351625025, 0.1333552599, -0.0600895286, -0.0957793668, -0.0166987851, 0.0759525895, 0.1313801408, 0.0710714161, 0.0360649973, 0.0992307514, -0.1155099943, -0.1415320486, 0.1175177395, 0.0409770906, 0.1282540262, -0.1013570130, 0.0961510092, -0.1233970225, -0.1201228201, -0.0084238946, 0.1242858469, -0.0659279749, -0.0952036902, 0.0445396900, -0.0700843856, -0.0958607644, -0.1366882324, 0.0138839483, 0.1173586845, -0.1086978465, 0.0461362153, -0.0224289224, 0.0437981933, -0.0334479660, 0.1333929002, -0.0460848138, 0.0503745973, 0.0331855416, 0.1331132352, -0.0048310012, -0.0457312688, 0.0331598818, 0.0955263972, -0.0660981610, 0.1147615612, 0.0481432974, 0.0506798327, -0.1207544655, -0.0363575816, 0.0413566828, -0.1029417813, -0.0947827026, 0.0103714317, -0.0955844596, -0.0947173536, 0.0850833654, 0.0266720951, -0.0614664853, 0.0716014653, 0.1395712197, 0.0423816442, -0.0704311728, 0.0075141340, -0.1124303937, 0.0460543483, -0.0013989806, -0.1292037219, 0.0143831223, -0.0007437319, -0.0989059806, 0.0286415815, 0.0643278658, -0.1325778365, -0.0305841491, 0.0474401861, -0.1256845295, 0.0587192923, -0.0228599757, -0.0486670583, -0.0975327045, 0.0766754150, 0.0379243195, -0.1165616438, -0.0486321673, -0.0635014921, -0.0268090442, 0.0265698284, 0.1122551858, 0.0160058141, 0.0243817866, -0.0627327040, -0.0192319900, 0.0042021722, 0.1219830513, -0.0422368944, 0.0602827817, -0.0383774936, -0.1218340769, 0.0667551309, -0.0743496791, -0.0414528325, -0.0361303464, -0.0971535891, 0.0839592367, -0.1151958331, -0.0642412454, -0.0312028155, -0.0039750785, 0.0665655583, -0.1304993629, 0.0966269523, -0.0924144089, -0.1067074537, 0.0207337737, 0.1154932976, -0.0418749750, 0.0325060487, -0.0642657652, 0.1306048334, 0.0079049915, 0.1221888363, -0.0137843490, 0.0211762786, -0.0529000312, -0.0534874573, 0.0251258612, 0.0908765942, -0.0764840841, 0.1278388202, -0.0023667365, 0.0401250124, 0.0765070468, 0.0586978048, -0.0296678320, 0.0270917267, 0.0698905140, 0.0649669468, 0.0031712949, -0.0386098176, -0.0251502767, -0.0850618556, -0.0032093227, 0.0182681531, 0.0581453741, -0.0895811617, 0.0093131363, -0.0675760657, 0.0488305539, 0.0085927993, 0.0472889841, 0.1104235649, 0.1031342894, -0.0518432111, 0.1062836349, -0.0439615175, 0.1115312278, 0.1379396319, -0.0073333085, 0.0002441555, -0.0774423778, -0.0854312330, -0.0778321326, -0.0673318505, 0.0280607045, 0.0668292344, 0.0087557584, 0.1352093220, -0.0460706279, -0.0263727605, -0.0663723052, -0.1345009506, 0.0663226843, 0.1025965810, -0.0796619654, 0.0348944962, 0.1156818569, -0.0044355839, 0.0028561205, 0.0235376805, -0.1103014648, -0.1399071515, -0.1151386872, 0.0952327102, 0.0670727044, -0.0551820546, 0.0939119160, -0.0772241354, -0.1298648417, 0.0664447844, 0.1400952637, 0.1210442483, -0.1175307184, 0.0192686319, -0.0384887084, -0.0429666415, 0.0708787739, -0.0783109739, -0.1186098903, 0.0056100041, -0.0067410171, -0.1235872731, 0.0932938904, -0.0130427331, 0.1051433980, -0.0002337545, -0.0787512511, -0.0265855342, 0.0049772412, -0.1286524385, -0.0061184615, 0.0090300441, 0.0024645478, 0.0547560751, 0.1186241210, 0.0083431154, 0.0232967436, 0.0020627081, -0.1190210581, -0.1186081022, 0.1345225573, 0.0505352914, 0.0815092474, -0.0256087258, -0.0917419791, -0.0656849071, 0.1220385134, -0.0457172841, -0.0416060984, -0.0332953408, 0.0674552619, -0.0519605055, -0.0731734708, -0.0702089742, 0.1036982387, -0.0544646382, 0.0935304314, -0.0858911723, 0.0280652642, -0.0827363878, -0.0881379098, -0.1362069249, 0.0978146791, -0.1341430098, -0.0455345660, 0.1378760934, 0.0062679499, -0.1330036223, -0.0058263838, -0.1270103455, -0.0902967602, 0.0343675911, 0.1273594499, 0.0709281564, 0.1408877373, -0.0462704003, -0.0244795680, 0.0143664032, 0.1131160259, 0.1005538702, -0.1122492999, 0.0852634907, -0.0456129238, 0.0003880560, -0.0527100861, 0.0218307823, -0.0960460752, -0.0460679233, -0.0824086517, 0.1114363670, 0.0720202029, 0.0585687310, 0.1015708297, -0.1093134433, 0.0929531008, -0.0797345787, 0.1125292182, 0.0885693282, -0.0329559520, 0.1381756961, -0.0756135285, 0.0183650851, 0.0952451974, 0.0502499640, -0.0346562266, 0.0795235187, -0.0522717312, -0.1326779425, -0.1385654509, 0.0366635323, 0.0722563714, -0.0087167174, -0.1043582559, 0.0777840763, -0.0871590748, -0.0598916784, 0.0777586997, -0.0929386839, 0.1207078397, -0.1053039208, 0.1079403758, -0.0875184983, 0.0642103106, -0.0320244655, -0.0552622005, -0.0842561424, -0.1327039003, 0.0939660519, -0.0067654997, -0.1032319665, 0.1180702746, -0.1209946275, 0.0024666637, -0.1141551957, 0.0108608752, 0.0206240863, -0.0824912637, 0.0581775904, -0.1187548488, 0.1169264913, 0.0815678239, -0.1400135010, -0.0833804905, 0.0842747837, -0.0133778453, -0.0182461366, 0.0379050225, -0.0799974054, -0.0238963962, -0.0021923333, -0.1207013354, 0.0105990320, 0.0408946872, 0.0293956548, 0.0842730999, 0.0888361484, 0.0877027959, -0.0720388740, 0.0425660908, -0.0226769894, 0.1179583669, 0.0038234591, 0.1013574898, -0.1083451807, -0.0097511411, -0.0815250576, 0.0261427909, -0.1109747142, 0.0865560472, 0.0825584978, -0.1406998932, -0.1199287921, 0.0296395570, 0.0852817148, 0.0193137527, 0.0210915804, 0.1196798384, -0.1408729106, 0.0180172771, -0.1208905354, -0.1226933151, 0.0208665729, 0.0404860973, 0.0327663124, 0.0154163688, 0.0846603513, 0.0489078909, 0.0084365010, -0.0687266439, -0.0804543644, 0.0305531174, -0.0459078029, -0.0504378527, 0.0401969254, -0.0491085127, 0.0741454214, 0.1261061728, 0.1067530811, 0.1003837883, -0.0384774283, 0.0785671771, 0.1117190123, 0.1007984877, 0.0011142343, 0.0399304777, -0.0197189748, 0.0634085536, 0.0776670128, 0.0673968643, -0.0202500373, 0.0078900754, 0.1105104983, -0.1334201843, 0.0724681318, 0.0361152142, -0.0452857539, -0.0020042360, 0.0716467947, 0.0170109868, -0.0809760988, -0.1094274670, 0.0135020912, -0.0283210352, 0.0992032588, -0.0013412982, -0.0966183394, 0.0526095778, -0.1317825317, 